{"learner":{"attributes":{"scikit_learn":"{\"_estimator_type\": \"classifier\"}"},"feature_names":["ewma_efg_diff","ewma_tov_diff","ewma_orb_diff","ewma_pace_diff","ewma_vol_3p_diff","home_ewma_3p_pct","away_ewma_3p_pct","away_ewma_tov_pct","home_orb","away_orb","away_ewma_fta_rate","ewma_foul_synergy_home","ewma_foul_synergy_away","total_foul_environment","ewma_chaos_home","ewma_net_chaos","home_rest_days","away_rest_days","rest_advantage","fatigue_mismatch","home_back_to_back","away_back_to_back","home_3in4","away_3in4","home_composite_elo","altitude_game","injury_impact_diff","injury_impact_abs","injury_shock_home","injury_shock_away","injury_shock_diff","home_star_missing","away_star_missing","star_mismatch","off_elo_diff","def_elo_diff"],"feature_types":["float","float","float","float","float","float","float","float","float","float","float","float","float","float","float","float","int","int","int","int","int","int","int","int","float","int","float","float","float","float","float","int","int","int","float","float"],"gradient_booster":{"model":{"cats":{"enc":[],"feature_segments":[],"sorted_idx":[]},"gbtree_model_param":{"num_parallel_tree":"1","num_trees":"500"},"iteration_indptr":[0,1,2,3,4,5,6,7,8,9,10,11,12,13,14,15,16,17,18,19,20,21,22,23,24,25,26,27,28,29,30,31,32,33,34,35,36,37,38,39,40,41,42,43,44,45,46,47,48,49,50,51,52,53,54,55,56,57,58,59,60,61,62,63,64,65,66,67,68,69,70,71,72,73,74,75,76,77,78,79,80,81,82,83,84,85,86,87,88,89,90,91,92,93,94,95,96,97,98,99,100,101,102,103,104,105,106,107,108,109,110,111,112,113,114,115,116,117,118,119,120,121,122,123,124,125,126,127,128,129,130,131,132,133,134,135,136,137,138,139,140,141,142,143,144,145,146,147,148,149,150,151,152,153,154,155,156,157,158,159,160,161,162,163,164,165,166,167,168,169,170,171,172,173,174,175,176,177,178,179,180,181,182,183,184,185,186,187,188,189,190,191,192,193,194,195,196,197,198,199,200,201,202,203,204,205,206,207,208,209,210,211,212,213,214,215,216,217,218,219,220,221,222,223,224,225,226,227,228,229,230,231,232,233,234,235,236,237,238,239,240,241,242,243,244,245,246,247,248,249,250,251,252,253,254,255,256,257,258,259,260,261,262,263,264,265,266,267,268,269,270,271,272,273,274,275,276,277,278,279,280,281,282,283,284,285,286,287,288,289,290,291,292,293,294,295,296,297,298,299,300,301,302,303,304,305,306,307,308,309,310,311,312,313,314,315,316,317,318,319,320,321,322,323,324,325,326,327,328,329,330,331,332,333,334,335,336,337,338,339,340,341,342,343,344,345,346,347,348,349,350,351,352,353,354,355,356,357,358,359,360,361,362,363,364,365,366,367,368,369,370,371,372,373,374,375,376,377,378,379,380,381,382,383,384,385,386,387,388,389,390,391,392,393,394,395,396,397,398,399,400,401,402,403,404,405,406,407,408,409,410,411,412,413,414,415,416,417,418,419,420,421,422,423,424,425,426,427,428,429,430,431,432,433,434,435,436,437,438,439,440,441,442,443,444,445,446,447,448,449,450,451,452,453,454,455,456,457,458,459,460,461,462,463,464,465,466,467,468,469,470,471,472,473,474,475,476,477,478,479,480,481,482,483,484,485,486,487,488,489,490,491,492,493,494,495,496,497,498,499,500],"tree_info":[0,0,0,0,0,0,0,0,0,0,0,0,0,0,0,0,0,0,0,0,0,0,0,0,0,0,0,0,0,0,0,0,0,0,0,0,0,0,0,0,0,0,0,0,0,0,0,0,0,0,0,0,0,0,0,0,0,0,0,0,0,0,0,0,0,0,0,0,0,0,0,0,0,0,0,0,0,0,0,0,0,0,0,0,0,0,0,0,0,0,0,0,0,0,0,0,0,0,0,0,0,0,0,0,0,0,0,0,0,0,0,0,0,0,0,0,0,0,0,0,0,0,0,0,0,0,0,0,0,0,0,0,0,0,0,0,0,0,0,0,0,0,0,0,0,0,0,0,0,0,0,0,0,0,0,0,0,0,0,0,0,0,0,0,0,0,0,0,0,0,0,0,0,0,0,0,0,0,0,0,0,0,0,0,0,0,0,0,0,0,0,0,0,0,0,0,0,0,0,0,0,0,0,0,0,0,0,0,0,0,0,0,0,0,0,0,0,0,0,0,0,0,0,0,0,0,0,0,0,0,0,0,0,0,0,0,0,0,0,0,0,0,0,0,0,0,0,0,0,0,0,0,0,0,0,0,0,0,0,0,0,0,0,0,0,0,0,0,0,0,0,0,0,0,0,0,0,0,0,0,0,0,0,0,0,0,0,0,0,0,0,0,0,0,0,0,0,0,0,0,0,0,0,0,0,0,0,0,0,0,0,0,0,0,0,0,0,0,0,0,0,0,0,0,0,0,0,0,0,0,0,0,0,0,0,0,0,0,0,0,0,0,0,0,0,0,0,0,0,0,0,0,0,0,0,0,0,0,0,0,0,0,0,0,0,0,0,0,0,0,0,0,0,0,0,0,0,0,0,0,0,0,0,0,0,0,0,0,0,0,0,0,0,0,0,0,0,0,0,0,0,0,0,0,0,0,0,0,0,0,0,0,0,0,0,0,0,0,0,0,0,0,0,0,0,0,0,0,0,0,0,0,0,0,0,0,0,0,0,0,0,0,0,0,0,0,0,0,0,0,0,0,0,0,0,0,0,0,0,0,0,0,0,0,0,0,0,0,0,0,0,0,0,0,0,0,0,0,0,0,0,0,0,0,0,0,0,0,0,0,0,0,0,0,0,0,0,0,0,0],"trees":[{"base_weights":[-0E0,1.7800462E-1,-7.308787E-2,2.1234487E-1,-3.4424114E-1,-1.4260586E-1,9.489913E-2,-1.5781273E-3,1.4058804E-3,-0E0,-2.9733635E-3,-1.4806364E-3,-1.5671569E-4,-4.2021667E-5,1.7167279E-3],"categories":[],"categories_nodes":[],"categories_segments":[],"categories_sizes":[],"default_left":[0,0,0,0,0,0,0,0,0,0,0,0,0,0,0],"id":0,"left_children":[1,3,5,7,9,11,13,-1,-1,-1,-1,-1,-1,-1,-1],"loss_changes":[2.8685223E1,1.2897711E1,1.8596828E1,1.0550285E1,2.278768E0,1.4110924E1,1.0754685E1,0E0,0E0,0E0,0E0,0E0,0E0,0E0,0E0],"parents":[2147483647,0,0,1,1,2,2,3,3,4,4,5,5,6,6],"right_children":[2,4,6,8,10,12,14,-1,-1,-1,-1,-1,-1,-1,-1],"split_conditions":[-2.1798096E0,4.0651023E-1,1E0,1.1253702E-1,-1.0914295E-3,-1.5780654E0,2.4252746E-1,-1.5781273E-3,1.4058804E-3,-0E0,-2.9733635E-3,-1.4806364E-3,-1.5671569E-4,-4.2021667E-5,1.7167279E-3],"split_indices":[3,6,18,7,1,29,9,0,0,0,0,0,0,0,0],"split_type":[0,0,0,0,0,0,0,0,0,0,0,0,0,0,0],"sum_hessian":[2.1070156E3,6.0660236E2,1.5004133E3,5.763828E2,3.0219559E1,1.0724258E3,4.2798758E2,2.7516996E1,5.488658E2,1.4004186E1,1.6215372E1,5.262626E2,5.4616327E2,2.7910095E2,1.4888661E2],"tree_param":{"num_deleted":"0","num_feature":"36","num_nodes":"15","size_leaf_vector":"1"}},{"base_weights":[5.5788585E-4,-5.4312818E-2,1.4234701E-1,-1.6089983E-1,2.2897828E-2,1.9725814E-1,2.5423337E-4,-1.7096734E-3,-1.6596523E-4,-8.014939E-4,2.5423337E-4,2.5423337E-4,1.8144377E-3],"categories":[],"categories_nodes":[],"categories_segments":[],"categories_sizes":[],"default_left":[0,0,0,0,0,0,0,0,0,0,0,0,0],"id":1,"left_children":[1,3,5,7,9,11,-1,-1,-1,-1,-1,-1,-1],"loss_changes":[1.7657524E1,1.3456121E1,5.7360888E0,1.1555515E1,1.165767E1,9.375511E0,0E0,0E0,0E0,0E0,0E0,0E0,0E0],"parents":[2147483647,0,0,1,1,2,2,3,3,4,4,5,5],"right_children":[2,4,6,8,10,12,-1,-1,-1,-1,-1,-1,-1],"split_conditions":[1E0,1.3267007E-1,1.51449585E1,-1.8464142E0,1.2694517E1,1.2512904E1,2.5423337E-4,-1.7096734E-3,-1.6596523E-4,-8.014939E-4,2.5423337E-4,2.5423337E-4,1.8144377E-3],"split_indices":[18,7,15,29,14,14,0,0,0,0,0,0,0],"split_type":[0,0,0,0,0,0,0,0,0,0,0,0,0],"sum_hessian":[2.1035725E3,1.5058716E3,5.977008E2,6.442225E2,8.616491E2,4.760971E2,1.2160371E2,3.0615982E2,3.3806262E2,3.2505463E2,5.3659454E2,2.0562123E2,2.704759E2],"tree_param":{"num_deleted":"0","num_feature":"36","num_nodes":"13","size_leaf_vector":"1"}},{"base_weights":[-1.8188966E-2,-2.0285638E-1,1.2930721E-1,-3.6774583E-2,-2.6363465E-1,3.3459947E-1,6.627885E-2,-8.6754985E-4,-2.1240216E-4,-3.034346E-3,-1.1105255E-3,7.738854E-4,2.8672128E-3,1.8393587E-4,2.2216234E-3],"categories":[],"categories_nodes":[],"categories_segments":[],"categories_sizes":[],"default_left":[0,0,0,0,0,0,0,0,0,0,0,0,0,0,0],"id":2,"left_children":[1,3,5,7,9,11,13,-1,-1,-1,-1,-1,-1,-1,-1],"loss_changes":[5.9243256E1,1.3597218E1,1.5337643E1,2.7531261E0,1.4278946E1,8.1286335E0,1.0606786E1,0E0,0E0,0E0,0E0,0E0,0E0,0E0,0E0],"parents":[2147483647,0,0,1,1,2,2,3,3,4,4,5,5,6,6],"right_children":[2,4,6,8,10,12,14,-1,-1,-1,-1,-1,-1,-1,-1],"split_conditions":[-3.0399986E1,-6.061259E0,1E0,3.3575106E-1,-4.8218684E0,1.2532829E2,1E0,-8.6754985E-4,-2.1240216E-4,-3.034346E-3,-1.1105255E-3,7.738854E-4,2.8672128E-3,1.8393587E-4,2.2216234E-3],"split_indices":[34,28,17,5,29,34,25,0,0,0,0,0,0,0,0],"split_type":[0,0,0,0,0,0,0,0,0,0,0,0,0,0,0],"sum_hessian":[2.1003918E3,9.3951263E2,1.1608792E3,1.7984927E2,7.596633E2,2.5842105E2,9.0245807E2,4.1032597E1,1.3881668E2,1.4865353E2,6.110098E2,1.2626296E2,1.321581E2,8.2629224E2,7.6165855E1],"tree_param":{"num_deleted":"0","num_feature":"36","num_nodes":"15","size_leaf_vector":"1"}},{"base_weights":[-4.834032E-3,-3.1170458E-1,8.436928E-2,-1.3910355E-1,-5.414318E-1,-9.165611E-2,2.2349833E-1,-2.1980815E-3,-6.5652013E-4,-3.49613E-3,-7.344283E-4,3.807463E-4,-6.5652013E-4,3.119842E-3,5.513079E-4],"categories":[],"categories_nodes":[],"categories_segments":[],"categories_sizes":[],"default_left":[0,0,0,0,0,0,0,0,0,0,0,0,0,0,0],"id":3,"left_children":[1,3,5,7,9,11,13,-1,-1,-1,-1,-1,-1,-1,-1],"loss_changes":[6.0447887E1,1.8924107E1,4.157581E1,9.227112E0,4.014042E0,1.0553455E1,3.758048E1,0E0,0E0,0E0,0E0,0E0,0E0,0E0,0E0],"parents":[2147483647,0,0,1,1,2,2,3,3,4,4,5,5,6,6],"right_children":[2,4,6,8,10,12,14,-1,-1,-1,-1,-1,-1,-1,-1],"split_conditions":[-2.7665602E-2,1.4075198E1,-3.0399986E1,5.0501297E1,5.649575E1,-6.759179E0,-2.2546976E0,-2.1980815E-3,-6.5652013E-4,-3.49613E-3,-7.344283E-4,3.807463E-4,-6.5652013E-4,3.119842E-3,5.513079E-4],"split_indices":[0,15,34,13,13,28,3,0,0,0,0,0,0,0,0],"split_type":[0,0,0,0,0,0,0,0,0,0,0,0,0,0,0],"sum_hessian":[2.1053572E3,4.7789383E2,1.6274634E3,2.8354178E2,1.9435205E2,7.111363E2,9.1632715E2,1.1105969E2,1.7248209E2,1.6118341E2,3.3168644E1,1.1277635E2,5.983599E2,2.5372882E2,6.625983E2],"tree_param":{"num_deleted":"0","num_feature":"36","num_nodes":"15","size_leaf_vector":"1"}},{"base_weights":[-8.6106835E-3,-2.864255E-1,1.0540762E-1,-4.4211414E-1,-1.1978717E-1,-5.863326E-2,2.3344082E-1,-1.6227112E-3,-3.0790088E-3,-1.6227112E-3,-5.227603E-4,-5.227603E-4,5.0482556E-4,2.3964331E-3,1.0180995E-3],"categories":[],"categories_nodes":[],"categories_segments":[],"categories_sizes":[],"default_left":[0,0,0,0,0,0,0,0,0,0,0,0,0,0,0],"id":4,"left_children":[1,3,5,7,9,11,13,-1,-1,-1,-1,-1,-1,-1,-1],"loss_changes":[6.958123E1,1.5897549E1,3.290605E1,7.938675E0,5.5302243E0,1.2417908E1,8.792557E0,0E0,0E0,0E0,0E0,0E0,0E0,0E0,0E0],"parents":[2147483647,0,0,1,1,2,2,3,3,4,4,5,5,6,6],"right_children":[2,4,6,8,10,12,14,-1,-1,-1,-1,-1,-1,-1,-1],"split_conditions":[-2.0711938E-2,-1.3881974E1,-3.0399986E1,1E0,-3.4344256E0,1.5711613E-2,1E0,-1.6227112E-3,-3.0790088E-3,-1.6227112E-3,-5.227603E-4,-5.227603E-4,5.0482556E-4,2.3964331E-3,1.0180995E-3],"split_indices":[0,34,34,17,4,0,17,0,0,0,0,0,0,0,0],"split_type":[0,0,0,0,0,0,0,0,0,0,0,0,0,0,0],"sum_hessian":[2.1115125E3,6.18799E2,1.4927134E3,3.0797437E2,3.1082465E2,6.4679333E2,8.4592004E2,6.1437103E1,2.4653726E2,1.0049744E2,2.1032721E2,3.6247482E2,2.8431848E2,1.8489307E2,6.61027E2],"tree_param":{"num_deleted":"0","num_feature":"36","num_nodes":"15","size_leaf_vector":"1"}},{"base_weights":[2.8037548E-3,-1.9292782E-1,1.3716498E-1,-5.673886E-1,-8.516891E-2,-1.5243378E-2,2.5721854E-1,-1.6103715E-4,-3.7745375E-3,-1.5813515E-3,-1.6103715E-4,-1.6103715E-4,6.9879845E-4,2.7722782E-3,9.305433E-4],"categories":[],"categories_nodes":[],"categories_segments":[],"categories_sizes":[],"default_left":[0,0,0,0,0,0,0,0,0,0,0,0,0,0,0],"id":5,"left_children":[1,3,5,7,9,11,13,-1,-1,-1,-1,-1,-1,-1,-1],"loss_changes":[5.767461E1,3.5209366E1,2.4624966E1,1.1539116E1,1.897396E1,8.636622E0,1.541254E1,0E0,0E0,0E0,0E0,0E0,0E0,0E0,0E0],"parents":[2147483647,0,0,1,1,2,2,3,3,4,4,5,5,6,6],"right_children":[2,4,6,8,10,12,14,-1,-1,-1,-1,-1,-1,-1,-1],"split_conditions":[-9.453463E-3,-5.9220457E0,-2.8736115E1,1.1631015E1,-1.9827627E1,1.4277467E1,-2.2546976E0,-1.6103715E-4,-3.7745375E-3,-1.5813515E-3,-1.6103715E-4,-1.6103715E-4,6.9879845E-4,2.7722782E-3,9.305433E-4],"split_indices":[0,29,34,15,34,14,3,0,0,0,0,0,0,0,0],"split_type":[0,0,0,0,0,0,0,0,0,0,0,0,0,0,0],"sum_hessian":[2.125768E3,8.567478E2,1.2690203E3,1.8165639E2,6.7509143E2,5.5168695E2,7.173333E2,1.941623E1,1.6224016E2,3.3014832E2,3.4494308E2,3.447855E2,2.0690143E2,2.0251976E2,5.1481354E2],"tree_param":{"num_deleted":"0","num_feature":"36","num_nodes":"15","size_leaf_vector":"1"}},{"base_weights":[-4.8383805E-3,-2.2368512E-1,1.2638761E-1,-5.7438254E-1,-1.1938529E-1,2.5421038E-2,2.8190804E-1,-5.199924E-3,-2.6054496E-3,-2.0384733E-3,-3.01013E-4,-0E0,2.0909612E-3,8.704473E-4,2.2380073E-3],"categories":[],"categories_nodes":[],"categories_segments":[],"categories_sizes":[],"default_left":[0,0,0,0,0,0,0,0,0,0,0,0,0,0,0],"id":6,"left_children":[1,3,5,7,9,11,13,-1,-1,-1,-1,-1,-1,-1,-1],"loss_changes":[6.235726E1,2.937996E1,2.06239E1,5.6292E0,1.0143667E1,9.0199375E0,6.638939E0,0E0,0E0,0E0,0E0,0E0,0E0,0E0,0E0],"parents":[2147483647,0,0,1,1,2,2,3,3,4,4,5,5,6,6],"right_children":[2,4,6,8,10,12,14,-1,-1,-1,-1,-1,-1,-1,-1],"split_conditions":[-1.176702E-2,-5.9220457E0,1.4277467E1,0E0,4.7301956E1,1.601981E-1,1.3461214E-1,-5.199924E-3,-2.6054496E-3,-2.0384733E-3,-3.01013E-4,-0E0,2.0909612E-3,8.704473E-4,2.2380073E-3],"split_indices":[0,29,14,18,13,7,7,0,0,0,0,0,0,0,0],"split_type":[0,0,0,0,0,0,0,0,0,0,0,0,0,0,0],"sum_hessian":[2.0923328E3,7.903042E2,1.3020286E3,1.7067117E2,6.1963306E2,8.027275E2,4.9930106E2,3.2961113E1,1.3771007E2,1.25612015E2,4.9402103E2,7.4770856E2,5.50189E1,2.3849031E2,2.6081076E2],"tree_param":{"num_deleted":"0","num_feature":"36","num_nodes":"15","size_leaf_vector":"1"}},{"base_weights":[2.632959E-2,-1.577895E-1,1.7898361E-1,-2.8264856E-1,1.0597058E-2,1.0597058E-2,2.9100594E-1,-8.9469476E-4,-2.5293564E-3,-7.2668865E-4,6.1206345E-5,6.1206345E-5,7.0190994E-4,1.0329401E-3,2.286465E-3],"categories":[],"categories_nodes":[],"categories_segments":[],"categories_sizes":[],"default_left":[0,0,0,0,0,0,0,0,0,0,0,0,0,0,0],"id":7,"left_children":[1,3,5,7,9,11,13,-1,-1,-1,-1,-1,-1,-1,-1],"loss_changes":[6.1581783E1,2.9413427E1,3.396757E1,1.2662445E1,2.9198306E0,2.2415917E0,9.617561E0,0E0,0E0,0E0,0E0,0E0,0E0,0E0,0E0],"parents":[2147483647,0,0,1,1,2,2,3,3,4,4,5,5,6,6],"right_children":[2,4,6,8,10,12,14,-1,-1,-1,-1,-1,-1,-1,-1],"split_conditions":[-2.7832336E1,1.3288795E-2,-2.0046806E-2,-5.008685E-1,1.3041666E-1,5.2981167E1,1.3658301E1,-8.9469476E-4,-2.5293564E-3,-7.2668865E-4,6.1206345E-5,6.1206345E-5,7.0190994E-4,1.0329401E-3,2.286465E-3],"split_indices":[34,0,0,28,7,13,14,0,0,0,0,0,0,0,0],"split_type":[0,0,0,0,0,0,0,0,0,0,0,0,0,0,0],"sum_hessian":[2.1235427E3,9.549669E2,1.1685757E3,6.4637244E2,3.0859442E2,3.25447E2,8.431287E2,3.6880206E2,2.7757037E2,1.149986E2,1.9359584E2,1.93717E2,1.3173001E2,4.2528894E2,4.1783978E2],"tree_param":{"num_deleted":"0","num_feature":"36","num_nodes":"15","size_leaf_vector":"1"}},{"base_weights":[-2.0329842E-2,2.1070322E-1,-8.579515E-2,-3.3672467E-2,2.9518595E-1,6.1928555E-2,-1.7444511E-1,-1.2786101E-3,1.8661591E-3,-1.2888504E-3,1.8898895E-3,1.7425453E-3,-1.3278805E-4,1.7823606E-4,-1.3652259E-3],"categories":[],"categories_nodes":[],"categories_segments":[],"categories_sizes":[],"default_left":[0,0,0,0,0,0,0,0,0,0,0,0,0,0,0],"id":8,"left_children":[1,3,5,7,9,11,13,-1,-1,-1,-1,-1,-1,-1,-1],"loss_changes":[3.30619E1,1.0773476E1,2.2773453E1,1.032893E1,7.6957035E0,1.4563193E1,1.4328144E1,0E0,0E0,0E0,0E0,0E0,0E0,0E0,0E0],"parents":[2147483647,0,0,1,1,2,2,3,3,4,4,5,5,6,6],"right_children":[2,4,6,8,10,12,14,-1,-1,-1,-1,-1,-1,-1,-1],"split_conditions":[1E0,2.101983E-1,3.4956717E-1,2.8080234E-1,1.3456758E3,-3.9846988E0,-2.6583245E0,-1.2786101E-3,1.8661591E-3,-1.2888504E-3,1.8898895E-3,1.7425453E-3,-1.3278805E-4,1.7823606E-4,-1.3652259E-3],"split_indices":[17,9,6,10,24,28,3,0,0,0,0,0,0,0,0],"split_type":[0,0,0,0,0,0,0,0,0,0,0,0,0,0,0],"sum_hessian":[2.10385E3,4.53635E2,1.6502152E3,1.09562416E2,3.440726E2,6.0871E2,1.0415051E3,7.7633026E1,3.1929394E1,1.3759519E1,3.3031308E2,1.638329E2,4.448771E2,2.3241373E2,8.0909143E2],"tree_param":{"num_deleted":"0","num_feature":"36","num_nodes":"15","size_leaf_vector":"1"}},{"base_weights":[2.016761E-3,-1.8936042E-1,1.5859425E-1,-3.4872066E-2,-3.070122E-1,3.7507546E-1,9.245797E-2,-1.3585817E-3,-8.884943E-5,-2.2387344E-3,-8.884943E-5,-0E0,2.558004E-3,1.0467846E-3,-8.884943E-5],"categories":[],"categories_nodes":[],"categories_segments":[],"categories_sizes":[],"default_left":[0,0,0,0,0,0,0,0,0,0,0,0,0,0,0],"id":9,"left_children":[1,3,5,7,9,11,13,-1,-1,-1,-1,-1,-1,-1,-1],"loss_changes":[6.483587E1,1.6962902E1,1.6917643E1,4.7316737E0,1.6709969E1,7.4383583E0,9.8272085E0,0E0,0E0,0E0,0E0,0E0,0E0,0E0,0E0],"parents":[2147483647,0,0,1,1,2,2,3,3,4,4,5,5,6,6],"right_children":[2,4,6,8,10,12,14,-1,-1,-1,-1,-1,-1,-1,-1],"split_conditions":[-3.0399986E1,3.5565305E-1,1E0,4.695524E1,2.9796982E1,4.6402966E1,3.6410832E-1,-1.3585817E-3,-8.884943E-5,-2.2387344E-3,-8.884943E-5,-0E0,2.558004E-3,1.0467846E-3,-8.884943E-5],"split_indices":[34,6,17,13,11,13,6,0,0,0,0,0,0,0,0],"split_type":[0,0,0,0,0,0,0,0,0,0,0,0,0,0,0],"sum_hessian":[2.0982183E3,9.3644946E2,1.1617689E3,4.1683224E2,5.1961725E2,2.5769302E2,9.0407587E2,7.545883E1,3.413734E2,4.3478598E2,8.4831245E1,3.8045345E1,2.1964767E2,5.1122302E2,3.928528E2],"tree_param":{"num_deleted":"0","num_feature":"36","num_nodes":"15","size_leaf_vector":"1"}},{"base_weights":[1.2420337E-2,2.4099696E-1,-7.5052105E-2,1.4943929E-1,4.1746774E-1,1.3534798E-1,-1.3424732E-1,1.176305E-3,-1.7116524E-3,1.6955804E-3,3.3096073E-3,-3.439896E-4,1.4499173E-3,-1.4817113E-3,-0E0],"categories":[],"categories_nodes":[],"categories_segments":[],"categories_sizes":[],"default_left":[0,0,0,0,0,0,0,0,0,0,0,0,0,0,0],"id":10,"left_children":[1,3,5,7,9,11,13,-1,-1,-1,-1,-1,-1,-1,-1],"loss_changes":[4.4309715E1,9.518593E0,2.0055614E1,1.1694268E1,2.9575882E0,8.833601E0,2.0406668E1,0E0,0E0,0E0,0E0,0E0,0E0,0E0,0E0],"parents":[2147483647,0,0,1,1,2,2,3,3,4,4,5,5,6,6],"right_children":[2,4,6,8,10,12,14,-1,-1,-1,-1,-1,-1,-1,-1],"split_conditions":[-2.2546976E0,3.7501264E-1,1E0,1.6181087E1,1.4438488E-1,1.4729889E3,3.5950375E-1,1.176305E-3,-1.7116524E-3,1.6955804E-3,3.3096073E-3,-3.439896E-4,1.4499173E-3,-1.4817113E-3,-0E0],"split_indices":[3,5,17,15,7,24,5,0,0,0,0,0,0,0,0],"split_type":[0,0,0,0,0,0,0,0,0,0,0,0,0,0,0],"sum_hessian":[2.1090068E3,5.8941724E2,1.5195896E3,4.033237E2,1.8609354E2,3.2290686E2,1.1966827E3,3.669632E2,3.6360493E1,1.2030908E2,6.578446E1,1.12969315E2,2.0993755E2,6.249014E2,5.7178125E2],"tree_param":{"num_deleted":"0","num_feature":"36","num_nodes":"15","size_leaf_vector":"1"}},{"base_weights":[-1.1071405E-2,-2.6727727E-1,9.723841E-2,-5.677337E-1,-1.549463E-1,3.2190415E-1,4.189957E-2,-4.148918E-3,-1.7967678E-3,-1.8690644E-3,-4.9105415E-4,1.2568152E-3,4.4766376E-3,-1.6468097E-4,1.0506264E-3],"categories":[],"categories_nodes":[],"categories_segments":[],"categories_sizes":[],"default_left":[0,0,0,0,0,0,0,0,0,0,0,0,0,0,0],"id":11,"left_children":[1,3,5,7,9,11,13,-1,-1,-1,-1,-1,-1,-1,-1],"loss_changes":[6.0914646E1,2.1501488E1,1.8765343E1,5.043133E0,9.841139E0,1.3445297E1,1.6084114E1,0E0,0E0,0E0,0E0,0E0,0E0,0E0,0E0],"parents":[2147483647,0,0,1,1,2,2,3,3,4,4,5,5,6,6],"right_children":[2,4,6,8,10,12,14,-1,-1,-1,-1,-1,-1,-1,-1],"split_conditions":[-2.0046806E-2,-5.460493E0,-6.2052474E0,2.5983341E1,2.5268915E1,4.5838416E-2,1E0,-4.148918E-3,-1.7967678E-3,-1.8690644E-3,-4.9105415E-4,1.2568152E-3,4.4766376E-3,-1.6468097E-4,1.0506264E-3],"split_indices":[0,29,28,11,11,0,18,0,0,0,0,0,0,0,0],"split_type":[0,0,0,0,0,0,0,0,0,0,0,0,0,0,0],"sum_hessian":[2.105802E3,6.305844E2,1.4752177E3,1.602044E2,4.7038004E2,2.7796707E2,1.1972506E3,8.933817E1,7.0866234E1,1.9452045E2,2.7585956E2,2.3623592E2,4.173116E1,8.540871E2,3.4316345E2],"tree_param":{"num_deleted":"0","num_feature":"36","num_nodes":"15","size_leaf_vector":"1"}},{"base_weights":[2.2111603E-3,2.0731182E-1,-7.85932E-2,-8.133144E-3,2.703147E-1,-1.0693136E-1,3.3237413E-1,-1.3130096E-3,4.8086233E-4,2.5349532E-3,9.712648E-4,-1.1302384E-3,-5.1900344E-5,-0E0,3.3197224E-3],"categories":[],"categories_nodes":[],"categories_segments":[],"categories_sizes":[],"default_left":[0,0,0,0,0,0,0,0,0,0,0,0,0,0,0],"id":12,"left_children":[1,3,5,7,9,11,13,-1,-1,-1,-1,-1,-1,-1,-1],"loss_changes":[3.6818077E1,9.270189E0,1.8995102E1,4.6490026E0,8.059212E0,1.2317528E1,9.275887E0,0E0,0E0,0E0,0E0,0E0,0E0,0E0,0E0],"parents":[2147483647,0,0,1,1,2,2,3,3,4,4,5,5,6,6],"right_children":[2,4,6,8,10,12,14,-1,-1,-1,-1,-1,-1,-1,-1],"split_conditions":[-2.1798096E0,3.346379E-1,1E0,2.4383774E1,1.292047E1,3.5803032E-1,1.2793955E1,-1.3130096E-3,4.8086233E-4,2.5349532E-3,9.712648E-4,-1.1302384E-3,-5.1900344E-5,-0E0,3.3197224E-3],"split_indices":[3,5,25,11,15,5,14,0,0,0,0,0,0,0,0],"split_type":[0,0,0,0,0,0,0,0,0,0,0,0,0,0,0],"sum_hessian":[2.1056196E3,6.018666E2,1.5037532E3,1.2801265E2,4.738539E2,1.415818E3,8.7935234E1,4.3747536E1,8.4265114E1,1.6350818E2,3.1034573E2,7.266853E2,6.891326E2,3.7340527E1,5.0594704E1],"tree_param":{"num_deleted":"0","num_feature":"36","num_nodes":"15","size_leaf_vector":"1"}},{"base_weights":[-2.9409679E-2,-2.830015E-1,7.9125404E-2,-5.055458E-1,-1.9068217E-1,-2.733197E-2,2.0088871E-1,-3.301584E-3,-5.8877247E-4,-1.9528948E-3,-5.8877247E-4,5.0121336E-4,-5.311284E-4,5.0121336E-4,1.7670833E-3],"categories":[],"categories_nodes":[],"categories_segments":[],"categories_sizes":[],"default_left":[0,0,0,0,0,0,0,0,0,0,0,0,0,0,0],"id":13,"left_children":[1,3,5,7,9,11,13,-1,-1,-1,-1,-1,-1,-1,-1],"loss_changes":[6.0767643E1,1.3114708E1,2.0459312E1,4.4804344E0,8.517679E0,9.979294E0,1.2299707E1,0E0,0E0,0E0,0E0,0E0,0E0,0E0,0E0],"parents":[2147483647,0,0,1,1,2,2,3,3,4,4,5,5,6,6],"right_children":[2,4,6,8,10,12,14,-1,-1,-1,-1,-1,-1,-1,-1],"split_conditions":[-2.0046806E-2,-4.8218684E0,1.5230996E-2,3.687829E-1,2.5268915E1,1E0,1.3110678E-1,-3.301584E-3,-5.8877247E-4,-1.9528948E-3,-5.8877247E-4,5.0121336E-4,-5.311284E-4,5.0121336E-4,1.7670833E-3],"split_indices":[0,29,0,5,11,17,7,0,0,0,0,0,0,0,0],"split_type":[0,0,0,0,0,0,0,0,0,0,0,0,0,0,0],"sum_hessian":[2.1191152E3,6.3984045E2,1.4792748E3,1.7330247E2,4.6653796E2,7.801014E2,6.9917346E2,1.4573909E2,2.7563375E1,2.0196234E2,2.6457562E2,1.6172154E2,6.183798E2,2.674003E2,4.3177316E2],"tree_param":{"num_deleted":"0","num_feature":"36","num_nodes":"15","size_leaf_vector":"1"}},{"base_weights":[8.465716E-3,-2.2321065E-1,1.06153145E-1,-5.779634E-1,-1.1627291E-1,-5.852875E-2,2.3889567E-1,-3.8196067E-3,-3.380496E-4,-3.439179E-3,-3.4712933E-4,-3.380496E-4,5.2088045E-4,4.057943E-3,1.2333641E-3],"categories":[],"categories_nodes":[],"categories_segments":[],"categories_sizes":[],"default_left":[0,0,0,0,0,0,0,0,0,0,0,0,0,0,0],"id":14,"left_children":[1,3,5,7,9,11,13,-1,-1,-1,-1,-1,-1,-1,-1],"loss_changes":[4.9178158E1,2.3806572E1,3.67647E1,4.9664993E0,1.4020979E1,6.7301874E0,1.05828705E1,0E0,0E0,0E0,0E0,0E0,0E0,0E0,0E0],"parents":[2147483647,0,0,1,1,2,2,3,3,4,4,5,5,6,6],"right_children":[2,4,6,8,10,12,14,-1,-1,-1,-1,-1,-1,-1,-1],"split_conditions":[-2.0711938E-2,-6.271378E0,-3.5254955E1,3.7479448E0,-2.9189096E2,4.9516106E0,1.9772612E1,-3.8196067E-3,-3.380496E-4,-3.439179E-3,-3.4712933E-4,-3.380496E-4,5.2088045E-4,4.057943E-3,1.2333641E-3],"split_indices":[0,29,34,4,34,4,12,0,0,0,0,0,0,0,0],"split_type":[0,0,0,0,0,0,0,0,0,0,0,0,0,0,0],"sum_hessian":[2.104423E3,6.146467E2,1.4897762E3,1.320165E2,4.8263025E2,6.28171E2,8.616053E2,1.09355995E2,2.266049E1,4.1108414E1,4.4152182E2,5.1537726E2,1.1279376E2,3.2893845E1,8.287114E2],"tree_param":{"num_deleted":"0","num_feature":"36","num_nodes":"15","size_leaf_vector":"1"}},{"base_weights":[-2.1832455E-3,-2.5079757E-1,1.0176486E-1,-4.153359E-1,-7.4516356E-2,-4.8766058E-2,2.5963143E-1,-1.4146412E-3,-2.9244986E-3,-1.4146412E-3,-4.303906E-4,-4.303906E-4,6.0895673E-4,2.6266878E-3,1.0257468E-3],"categories":[],"categories_nodes":[],"categories_segments":[],"categories_sizes":[],"default_left":[0,0,0,0,0,0,0,0,0,0,0,0,0,0,0],"id":15,"left_children":[1,3,5,7,9,11,13,-1,-1,-1,-1,-1,-1,-1,-1],"loss_changes":[5.653412E1,1.895435E1,3.673484E1,7.782902E0,8.244427E0,1.1608819E1,1.158511E1,0E0,0E0,0E0,0E0,0E0,0E0,0E0,0E0],"parents":[2147483647,0,0,1,1,2,2,3,3,4,4,5,5,6,6],"right_children":[2,4,6,8,10,12,14,-1,-1,-1,-1,-1,-1,-1,-1],"split_conditions":[-2.0046806E-2,-1.5103556E0,1.3741458E1,-2.7946265E0,-5.689851E0,2.8632823E-2,-2.2546976E0,-1.4146412E-3,-2.9244986E-3,-1.4146412E-3,-4.303906E-4,-4.303906E-4,6.0895673E-4,2.6266878E-3,1.0257468E-3],"split_indices":[0,34,34,3,29,0,3,0,0,0,0,0,0,0,0],"split_type":[0,0,0,0,0,0,0,0,0,0,0,0,0,0,0],"sum_hessian":[2.0947563E3,6.228189E2,1.4719376E3,3.1935318E2,3.034657E2,7.469368E2,7.2500073E2,7.506385E1,2.4428934E2,6.697073E1,2.3649496E2,5.352486E2,2.1168825E2,1.9902747E2,5.2597327E2],"tree_param":{"num_deleted":"0","num_feature":"36","num_nodes":"15","size_leaf_vector":"1"}},{"base_weights":[9.09549E-3,-2.3306483E-1,1.1500148E-1,-5.3637147E-1,-1.393826E-1,1.9709253E-1,-2.7212413E-2,-4.886787E-4,-3.8503215E-3,-2.341879E-3,-3.7830215E-4,-3.4095437E-4,1.3594367E-3,-3.4095437E-4,2.2119624E-3],"categories":[],"categories_nodes":[],"categories_segments":[],"categories_sizes":[],"default_left":[0,0,0,0,0,0,0,0,0,0,0,0,0,0,0],"id":16,"left_children":[1,3,5,7,9,11,13,-1,-1,-1,-1,-1,-1,-1,-1],"loss_changes":[5.502065E1,1.8039825E1,1.8068184E1,7.1726227E0,1.005613E1,1.3308899E1,9.924756E0,0E0,0E0,0E0,0E0,0E0,0E0,0E0,0E0],"parents":[2147483647,0,0,1,1,2,2,3,3,4,4,5,5,6,6],"right_children":[2,4,6,8,10,12,14,-1,-1,-1,-1,-1,-1,-1,-1],"split_conditions":[-2.0046806E-2,-5.9220457E0,1.3508003E0,-1.8372709E0,4.709369E1,1.15056075E-1,2E0,-4.886787E-4,-3.8503215E-3,-2.341879E-3,-3.7830215E-4,-3.4095437E-4,1.3594367E-3,-3.4095437E-4,2.2119624E-3],"split_indices":[0,29,3,3,13,7,18,0,0,0,0,0,0,0,0],"split_type":[0,0,0,0,0,0,0,0,0,0,0,0,0,0,0],"sum_hessian":[2.0802769E3,6.239406E2,1.4563363E3,1.3554253E2,4.8839807E2,9.334867E2,5.228496E2,3.644944E1,9.9093094E1,9.4040985E1,3.943571E2,7.660053E1,8.5688617E2,4.8629028E2,3.6559322E1],"tree_param":{"num_deleted":"0","num_feature":"36","num_nodes":"15","size_leaf_vector":"1"}},{"base_weights":[-5.2308147E-5,-1.7317533E-1,1.4160652E-1,-2.85581E-1,-1.5784405E-2,4.1541612E-1,3.4331214E-2,-2.633307E-3,-1.1844395E-3,-8.7031117E-4,-9.116736E-5,-9.116736E-5,2.7570291E-3,-9.116736E-5,1.761789E-3],"categories":[],"categories_nodes":[],"categories_segments":[],"categories_sizes":[],"default_left":[0,0,0,0,0,0,0,0,0,0,0,0,0,0,0],"id":17,"left_children":[1,3,5,7,9,11,13,-1,-1,-1,-1,-1,-1,-1,-1],"loss_changes":[5.3203667E1,2.3222849E1,3.405954E1,8.501495E0,3.1875029E0,1.193824E1,2.1069254E1,0E0,0E0,0E0,0E0,0E0,0E0,0E0,0E0],"parents":[2147483647,0,0,1,1,2,2,3,3,4,4,5,5,6,6],"right_children":[2,4,6,8,10,12,14,-1,-1,-1,-1,-1,-1,-1,-1],"split_conditions":[-2.7832336E1,1.2352925E-2,-2.137384E0,-3.4451224E-2,1.3025288E-1,-4.7830343E-2,2.5345504E-2,-2.633307E-3,-1.1844395E-3,-8.7031117E-4,-9.116736E-5,-9.116736E-5,2.7570291E-3,-9.116736E-5,1.761789E-3],"split_indices":[34,0,3,0,7,0,0,0,0,0,0,0,0,0,0],"split_type":[0,0,0,0,0,0,0,0,0,0,0,0,0,0,0],"sum_hessian":[2.0915486E3,9.4882214E2,1.1427266E3,6.309848E2,3.1783734E2,3.1117383E2,8.315527E2,1.8528209E2,4.4570273E2,1.1277512E2,2.0506223E2,2.6560547E1,2.8461328E2,6.245212E2,2.0703152E2],"tree_param":{"num_deleted":"0","num_feature":"36","num_nodes":"15","size_leaf_vector":"1"}},{"base_weights":[-3.6141933E-3,-1.8637846E-1,1.3928504E-1,-3.8325214E-1,-1.1344938E-1,3.6737177E-1,5.2533742E-2,-9.7608834E-4,-3.1446943E-3,-1.830211E-3,-2.590625E-4,-0E0,2.5896514E-3,1.2616384E-4,2.8721052E-3],"categories":[],"categories_nodes":[],"categories_segments":[],"categories_sizes":[],"default_left":[0,0,0,0,0,0,0,0,0,0,0,0,0,0,0],"id":18,"left_children":[1,3,5,7,9,11,13,-1,-1,-1,-1,-1,-1,-1,-1],"loss_changes":[5.7150414E1,1.3582005E1,2.3668047E1,7.795765E0,1.0055854E1,8.990128E0,1.2878374E1,0E0,0E0,0E0,0E0,0E0,0E0,0E0,0E0],"parents":[2147483647,0,0,1,1,2,2,3,3,4,4,5,5,6,6],"right_children":[2,4,6,8,10,12,14,-1,-1,-1,-1,-1,-1,-1,-1],"split_conditions":[-3.0399986E1,-4.4975033E0,-2.2546976E0,-4.6120828E-1,2.101983E-1,2.0256448E-1,2.8607365E-1,-9.7608834E-4,-3.1446943E-3,-1.830211E-3,-2.590625E-4,-0E0,2.5896514E-3,1.2616384E-4,2.8721052E-3],"split_indices":[34,29,3,3,9,8,9,0,0,0,0,0,0,0,0],"split_type":[0,0,0,0,0,0,0,0,0,0,0,0,0,0,0],"sum_hessian":[2.1116553E3,9.3373254E2,1.1779226E3,2.3751857E2,6.96214E2,3.122705E2,8.6565216E2,1.129213E2,1.2459726E2,1.6189754E2,5.343164E2,6.1514057E1,2.5075645E2,8.1977716E2,4.5874977E1],"tree_param":{"num_deleted":"0","num_feature":"36","num_nodes":"15","size_leaf_vector":"1"}},{"base_weights":[-6.699448E-3,-1.8788095E-1,1.4649867E-1,-5.0717217E-1,-7.8598596E-2,3.97229E-1,5.3326752E-2,-3.7202763E-3,-1.6916436E-3,-1.1604653E-3,-1.19507626E-4,-1.19507626E-4,2.6549723E-3,-0E0,2.3914913E-3],"categories":[],"categories_nodes":[],"categories_segments":[],"categories_sizes":[],"default_left":[0,0,0,0,0,0,0,0,0,0,0,0,0,0,0],"id":19,"left_children":[1,3,5,7,9,11,13,-1,-1,-1,-1,-1,-1,-1,-1],"loss_changes":[6.0273853E1,3.4301712E1,2.680559E1,9.282043E0,1.2053547E1,1.0651203E1,1.721779E1,0E0,0E0,0E0,0E0,0E0,0E0,0E0,0E0],"parents":[2147483647,0,0,1,1,2,2,3,3,4,4,5,5,6,6],"right_children":[2,4,6,8,10,12,14,-1,-1,-1,-1,-1,-1,-1,-1],"split_conditions":[-1.9827627E1,-2.8099826E-2,-2.4024987E0,1.435467E-1,1.3288795E-2,1.18614994E-1,3.1137888E2,-3.7202763E-3,-1.6916436E-3,-1.1604653E-3,-1.19507626E-4,-1.19507626E-4,2.6549723E-3,-0E0,2.3914913E-3],"split_indices":[34,0,3,7,0,7,34,0,0,0,0,0,0,0,0],"split_type":[0,0,0,0,0,0,0,0,0,0,0,0,0,0,0],"sum_hessian":[2.098377E3,9.68474E2,1.129903E3,2.3661546E2,7.318586E2,2.9453702E2,8.353659E2,1.5800803E2,7.860744E1,4.2333176E2,3.085268E2,2.7959885E1,2.6657715E2,7.364323E2,9.893358E1],"tree_param":{"num_deleted":"0","num_feature":"36","num_nodes":"15","size_leaf_vector":"1"}},{"base_weights":[-3.542262E-3,-2.2396143E-1,9.089509E-2,-4.1112477E-1,-6.653317E-2,2.9347044E-1,4.1406803E-2,-1.3794253E-3,-2.9803365E-3,-1.3794253E-3,-3.8428142E-4,1.1347894E-3,4.087304E-3,9.6708984E-4,-8.190938E-5],"categories":[],"categories_nodes":[],"categories_segments":[],"categories_sizes":[],"default_left":[0,0,0,0,0,0,0,0,0,0,0,0,0,0,0],"id":20,"left_children":[1,3,5,7,9,11,13,-1,-1,-1,-1,-1,-1,-1,-1],"loss_changes":[4.5689903E1,2.3185665E1,1.5009486E1,6.6255684E0,6.520906E0,1.1256306E1,1.050412E1,0E0,0E0,0E0,0E0,0E0,0E0,0E0,0E0],"parents":[2147483647,0,0,1,1,2,2,3,3,4,4,5,5,6,6],"right_children":[2,4,6,8,10,12,14,-1,-1,-1,-1,-1,-1,-1,-1],"split_conditions":[-2.0046806E-2,2.582417E1,-6.2052474E0,-1.3050998E0,-3.283922E0,4.5838416E-2,-2.216934E0,-1.3794253E-3,-2.9803365E-3,-1.3794253E-3,-3.8428142E-4,1.1347894E-3,4.087304E-3,9.6708984E-4,-8.190938E-5],"split_indices":[0,11,28,3,29,0,3,0,0,0,0,0,0,0,0],"split_type":[0,0,0,0,0,0,0,0,0,0,0,0,0,0,0],"sum_hessian":[2.09349E3,6.340116E2,1.4594783E3,3.1600394E2,3.180077E2,2.7187506E2,1.1876033E3,1.1396949E2,2.0203445E2,1.069322E2,2.1107549E2,2.3093504E2,4.094002E1,3.4300345E2,8.445998E2],"tree_param":{"num_deleted":"0","num_feature":"36","num_nodes":"15","size_leaf_vector":"1"}},{"base_weights":[-3.8123215E-3,-1.718417E-1,1.393147E-1,-2.7915752E-1,-2.9864399E-2,3.851227E-1,4.204881E-2,-8.924224E-4,-2.4106528E-3,-8.924224E-4,-9.393451E-5,2.5867193E-3,-9.393451E-5,1.5383716E-3,-9.393451E-5],"categories":[],"categories_nodes":[],"categories_segments":[],"categories_sizes":[],"default_left":[0,0,0,0,0,0,0,0,0,0,0,0,0,0,0],"id":21,"left_children":[1,3,5,7,9,11,13,-1,-1,-1,-1,-1,-1,-1,-1],"loss_changes":[5.2790455E1,1.4901764E1,2.7566116E1,1.2851513E1,5.0454493E0,1.0153259E1,1.2860313E1,0E0,0E0,0E0,0E0,0E0,0E0,0E0,0E0],"parents":[2147483647,0,0,1,1,2,2,3,3,4,4,5,5,6,6],"right_children":[2,4,6,8,10,12,14,-1,-1,-1,-1,-1,-1,-1,-1],"split_conditions":[-1.9827627E1,3.612204E-1,-2.216934E0,3.559159E-1,-2.7814948E2,1.5874735E1,1E0,-8.924224E-4,-2.4106528E-3,-8.924224E-4,-9.393451E-5,2.5867193E-3,-9.393451E-5,1.5383716E-3,-9.393451E-5],"split_indices":[34,5,3,6,34,15,17,0,0,0,0,0,0,0,0],"split_type":[0,0,0,0,0,0,0,0,0,0,0,0,0,0,0],"sum_hessian":[2.1173308E3,9.816486E2,1.1356823E3,5.462767E2,4.3537192E2,3.105949E2,8.2508734E2,2.4963722E2,2.9663947E2,9.2452095E1,3.429198E2,2.7677E2,3.382494E1,1.7735896E2,6.4772833E2],"tree_param":{"num_deleted":"0","num_feature":"36","num_nodes":"15","size_leaf_vector":"1"}},{"base_weights":[-7.7011315E-3,-1.7421947E-1,5.7837386E-2,-4.648373E-1,-1.0086849E-1,7.558542E-3,2.579674E-1,-3.3010468E-3,-4.3940524E-4,-3.360991E-4,-9.906742E-4,-1.4212441E-5,2.498418E-3,1.8332609E-4,2.133085E-3],"categories":[],"categories_nodes":[],"categories_segments":[],"categories_sizes":[],"default_left":[0,0,0,0,0,0,0,0,0,0,0,0,0,0,0],"id":22,"left_children":[1,3,5,7,9,11,13,-1,-1,-1,-1,-1,-1,-1,-1],"loss_changes":[2.434042E1,1.31966305E1,1.5420963E1,3.7804432E0,4.401517E0,8.417849E0,6.959175E0,0E0,0E0,0E0,0E0,0E0,0E0,0E0,0E0],"parents":[2147483647,0,0,1,1,2,2,3,3,4,4,5,5,6,6],"right_children":[2,4,6,8,10,12,14,-1,-1,-1,-1,-1,-1,-1,-1],"split_conditions":[3.411044E-1,-5.845899E0,1.4918444E-1,1E0,1E0,8.505051E0,1.2694517E1,-3.3010468E-3,-4.3940524E-4,-3.360991E-4,-9.906742E-4,-1.4212441E-5,2.498418E-3,1.8332609E-4,2.133085E-3],"split_indices":[5,29,7,18,17,29,14,0,0,0,0,0,0,0,0],"split_type":[0,0,0,0,0,0,0,0,0,0,0,0,0,0,0],"sum_hessian":[2.0898765E3,5.9892944E2,1.490947E3,1.0861524E2,4.903142E2,1.205659E3,2.852879E2,7.835111E1,3.026413E1,1.0881848E2,3.8149573E2,1.1766868E3,2.8972366E1,1.03630585E2,1.8165732E2],"tree_param":{"num_deleted":"0","num_feature":"36","num_nodes":"15","size_leaf_vector":"1"}},{"base_weights":[-1.673353E-2,-1.3632911E-1,1.5976748E-1,-2.9589486E-1,-0E0,5.6539476E-1,9.74662E-2,-2.9397372E-3,-1.1042504E-3,-8.5451285E-4,6.76875E-5,1.914272E-3,3.848906E-3,6.76875E-5,1.3183818E-3],"categories":[],"categories_nodes":[],"categories_segments":[],"categories_sizes":[],"default_left":[0,0,0,0,0,0,0,0,0,0,0,0,0,0,0],"id":23,"left_children":[1,3,5,7,9,11,13,-1,-1,-1,-1,-1,-1,-1,-1],"loss_changes":[4.612025E1,2.8476057E1,2.2042265E1,1.2887642E1,1.0864002E1,4.2375336E0,1.5857099E1,0E0,0E0,0E0,0E0,0E0,0E0,0E0,0E0],"parents":[2147483647,0,0,1,1,2,2,3,3,4,4,5,5,6,6],"right_children":[2,4,6,8,10,12,14,-1,-1,-1,-1,-1,-1,-1,-1],"split_conditions":[8.607661E-3,-3.0399986E1,-8.094372E0,-3.7976978E0,-5.541363E0,3.485598E-1,1.3236612E-1,-2.9397372E-3,-1.1042504E-3,-8.5451285E-4,6.76875E-5,1.914272E-3,3.848906E-3,6.76875E-5,1.3183818E-3],"split_indices":[0,34,28,29,29,5,7,0,0,0,0,0,0,0,0],"split_type":[0,0,0,0,0,0,0,0,0,0,0,0,0,0,0],"sum_hessian":[2.1109138E3,1.26751E3,8.434039E2,5.813108E2,6.8619916E2,1.0175548E2,7.4164844E2,1.775008E2,4.0381E2,1.4849673E2,5.3770245E2,1.6682512E1,8.507297E1,3.0532434E2,4.3632407E2],"tree_param":{"num_deleted":"0","num_feature":"36","num_nodes":"15","size_leaf_vector":"1"}},{"base_weights":[1.8504364E-2,2.3519422E-1,-4.0928546E-2,2.1207693E-3,3.052045E-1,-1.9769369E-1,1.9046823E-2,-1.950337E-3,1.0353669E-3,2.0235295E-3,-0E0,-2.1595105E-3,-5.159131E-4,2.088196E-3,-1.4890196E-4],"categories":[],"categories_nodes":[],"categories_segments":[],"categories_sizes":[],"default_left":[0,0,0,0,0,0,0,0,0,0,0,0,0,0,0],"id":24,"left_children":[1,3,5,7,9,11,13,-1,-1,-1,-1,-1,-1,-1,-1],"loss_changes":[2.897277E1,7.143057E0,1.6856384E1,9.730803E0,5.8854485E0,1.101692E1,2.0950186E1,0E0,0E0,0E0,0E0,0E0,0E0,0E0,0E0],"parents":[2147483647,0,0,1,1,2,2,3,3,4,4,5,5,6,6],"right_children":[2,4,6,8,10,12,14,-1,-1,-1,-1,-1,-1,-1,-1],"split_conditions":[1E0,4.807066E1,3.409433E-1,-3.972694E0,6.039982E1,-2.3429682E0,-8.094372E0,-1.950337E-3,1.0353669E-3,2.0235295E-3,-0E0,-2.1595105E-3,-5.159131E-4,2.088196E-3,-1.4890196E-4],"split_indices":[17,13,5,29,13,29,28,0,0,0,0,0,0,0,0],"split_type":[0,0,0,0,0,0,0,0,0,0,0,0,0,0,0],"sum_hessian":[2.101683E3,4.5852094E2,1.6431621E3,1.1541461E2,3.4310632E2,4.6336188E2,1.1798002E3,3.3165627E1,8.224898E1,3.0532016E2,3.7786175E1,1.8861244E2,2.7474945E2,1.391989E2,1.0406013E3],"tree_param":{"num_deleted":"0","num_feature":"36","num_nodes":"15","size_leaf_vector":"1"}},{"base_weights":[2.0794213E-2,-1.4845072E-1,1.5700622E-1,-2.27884E-1,4.277751E-3,4.2371652E-1,5.065402E-2,-2.506578E-3,-8.7079307E-4,2.4707377E-5,-1.419079E-3,1.8320259E-3,3.4502596E-3,2.4707377E-5,1.0488413E-3],"categories":[],"categories_nodes":[],"categories_segments":[],"categories_sizes":[],"default_left":[0,0,0,0,0,0,0,0,0,0,0,0,0,0,0],"id":25,"left_children":[1,3,5,7,9,11,13,-1,-1,-1,-1,-1,-1,-1,-1],"loss_changes":[5.008884E1,1.6052753E1,3.367864E1,1.1044777E1,3.5491283E0,5.3351097E0,8.727915E0,0E0,0E0,0E0,0E0,0E0,0E0,0E0,0E0],"parents":[2147483647,0,0,1,1,2,2,3,3,4,4,5,5,6,6],"right_children":[2,4,6,8,10,12,14,-1,-1,-1,-1,-1,-1,-1,-1],"split_conditions":[-3.1781595E1,1.4635266E-1,-2.216934E0,-4.7057505E0,3.9839408E0,1.4385721E-1,3.6981484E-1,-2.506578E-3,-8.7079307E-4,2.4707377E-5,-1.419079E-3,1.8320259E-3,3.4502596E-3,2.4707377E-5,1.0488413E-3],"split_indices":[34,7,3,29,3,7,5,0,0,0,0,0,0,0,0],"split_type":[0,0,0,0,0,0,0,0,0,0,0,0,0,0,0],"sum_hessian":[2.0996138E3,9.277858E2,1.1718278E3,6.891762E2,2.386096E2,3.2321622E2,8.486116E2,1.727072E2,5.1646906E2,2.0685823E2,3.1751375E1,2.1771675E2,1.05499466E2,5.385137E2,3.1009793E2],"tree_param":{"num_deleted":"0","num_feature":"36","num_nodes":"15","size_leaf_vector":"1"}},{"base_weights":[8.831542E-3,-1.5458095E-1,1.507392E-1,-1.06696144E-1,-4.2341754E-1,6.33955E-2,2.9827422E-1,-2.1841887E-3,-3.1470976E-4,-3.3134846E-3,-5.429847E-4,2.1678102E-3,7.680635E-5,2.6701642E-3,8.153935E-4],"categories":[],"categories_nodes":[],"categories_segments":[],"categories_sizes":[],"default_left":[0,0,0,0,0,0,0,0,0,0,0,0,0,0,0],"id":26,"left_children":[1,3,5,7,9,11,13,-1,-1,-1,-1,-1,-1,-1,-1],"loss_changes":[5.0152504E1,1.279458E1,1.4639584E1,1.2295574E1,6.0506897E0,1.2007067E1,1.0235424E1,0E0,0E0,0E0,0E0,0E0,0E0,0E0,0E0],"parents":[2147483647,0,0,1,1,2,2,3,3,4,4,5,5,6,6],"right_children":[2,4,6,8,10,12,14,-1,-1,-1,-1,-1,-1,-1,-1],"split_conditions":[-2.1337984E1,3.9266428E-1,2.4048689E-1,1E0,5.359107E1,3.2565725E-1,2.5359081E1,-2.1841887E-3,-3.1470976E-4,-3.3134846E-3,-5.429847E-4,2.1678102E-3,7.680635E-5,2.6701642E-3,8.153935E-4],"split_indices":[34,6,9,16,13,6,12,0,0,0,0,0,0,0,0],"split_type":[0,0,0,0,0,0,0,0,0,0,0,0,0,0,0],"sum_hessian":[2.0887617E3,9.6231854E2,1.1264431E3,8.304775E2,1.3184106E2,7.22627E2,4.038161E2,1.2132645E2,7.0915106E2,8.28284E1,4.9012665E1,8.871589E1,6.3391113E2,1.8513045E2,2.1868565E2],"tree_param":{"num_deleted":"0","num_feature":"36","num_nodes":"15","size_leaf_vector":"1"}},{"base_weights":[1.8862323E-3,-1.6147389E-1,1.4256853E-1,-9.452678E-3,-2.7346453E-1,2.808734E-1,1.6156549E-2,-5.4596654E-5,-2.404087E-3,-5.4596654E-5,-1.9323323E-3,3.117862E-4,2.0778636E-3,-5.4596654E-5,1.691162E-3],"categories":[],"categories_nodes":[],"categories_segments":[],"categories_sizes":[],"default_left":[0,0,0,0,0,0,0,0,0,0,0,0,0,0,0],"id":27,"left_children":[1,3,5,7,9,11,13,-1,-1,-1,-1,-1,-1,-1,-1],"loss_changes":[5.0046852E1,1.863795E1,2.0003403E1,8.020049E0,9.033741E0,9.129978E0,8.340087E0,0E0,0E0,0E0,0E0,0E0,0E0,0E0,0E0],"parents":[2147483647,0,0,1,1,2,2,3,3,4,4,5,5,6,6],"right_children":[2,4,6,8,10,12,14,-1,-1,-1,-1,-1,-1,-1,-1],"split_conditions":[-2.6443304E1,3.5244384E-1,-2.3559554E-1,5.6144314E0,1E0,3.425887E-1,3.1137888E2,-5.4596654E-5,-2.404087E-3,-5.4596654E-5,-1.9323323E-3,3.117862E-4,2.0778636E-3,-5.4596654E-5,1.691162E-3],"split_indices":[34,6,3,3,17,5,34,0,0,0,0,0,0,0,0],"split_type":[0,0,0,0,0,0,0,0,0,0,0,0,0,0,0],"sum_hessian":[2.1035454E3,9.6465796E2,1.1388876E3,3.8874713E2,5.759108E2,5.3150366E2,6.0738385E2,3.5750482E2,3.12423E1,1.15187416E2,4.6072342E2,1.4747458E2,3.8402908E2,5.318123E2,7.5571556E1],"tree_param":{"num_deleted":"0","num_feature":"36","num_nodes":"15","size_leaf_vector":"1"}},{"base_weights":[5.0768256E-3,-1.5027651E-1,1.3803375E-1,-6.121382E-3,-2.013038E-1,4.0640056E-1,4.5903143E-2,-2.150872E-3,-3.53558E-5,-2.6176975E-3,-8.8386075E-4,-3.53558E-5,2.7457396E-3,5.683343E-5,2.5717926E-3],"categories":[],"categories_nodes":[],"categories_segments":[],"categories_sizes":[],"default_left":[0,0,0,0,0,0,0,0,0,0,0,0,0,0,0],"id":28,"left_children":[1,3,5,7,9,11,13,-1,-1,-1,-1,-1,-1,-1,-1],"loss_changes":[4.487744E1,9.529739E0,2.861282E1,6.029529E0,9.526459E0,9.82716E0,1.3331429E1,0E0,0E0,0E0,0E0,0E0,0E0,0E0,0E0],"parents":[2147483647,0,0,1,1,2,2,3,3,4,4,5,5,6,6],"right_children":[2,4,6,8,10,12,14,-1,-1,-1,-1,-1,-1,-1,-1],"split_conditions":[-2.1337984E1,-3.2245336E0,-2.462832E0,-3.058989E2,1E0,1.19627096E-1,2E0,-2.150872E-3,-3.53558E-5,-2.6176975E-3,-8.8386075E-4,-3.53558E-5,2.7457396E-3,5.683343E-5,2.5717926E-3],"split_indices":[34,3,3,34,16,7,18,0,0,0,0,0,0,0,0],"split_type":[0,0,0,0,0,0,0,0,0,0,0,0,0,0,0],"sum_hessian":[2.095104E3,9.5709546E2,1.1380087E3,1.9382133E2,7.632741E2,2.7965118E2,8.583574E2,2.633869E1,1.6748265E2,1.07876884E2,6.553972E2,3.4781693E1,2.4486949E2,7.9756433E2,6.0793133E1],"tree_param":{"num_deleted":"0","num_feature":"36","num_nodes":"15","size_leaf_vector":"1"}},{"base_weights":[1.7218316E-2,-2.3655806E-1,1.2609051E-1,-5.5233777E-2,-3.2176143E-1,-2.190585E-2,2.4018095E-1,-2.3276962E-3,-3.1901852E-4,-8.7981415E-4,-2.6792386E-3,-3.1901852E-4,6.303552E-4,2.1117614E-3,8.3069823E-4],"categories":[],"categories_nodes":[],"categories_segments":[],"categories_sizes":[],"default_left":[0,0,0,0,0,0,0,0,0,0,0,0,0,0,0],"id":29,"left_children":[1,3,5,7,9,11,13,-1,-1,-1,-1,-1,-1,-1,-1],"loss_changes":[5.9922512E1,1.4690632E1,2.6374989E1,3.786852E0,1.143367E1,8.7137985E0,1.0094135E1,0E0,0E0,0E0,0E0,0E0,0E0,0E0,0E0],"parents":[2147483647,0,0,1,1,2,2,3,3,4,4,5,5,6,6],"right_children":[2,4,6,8,10,12,14,-1,-1,-1,-1,-1,-1,-1,-1],"split_conditions":[-2.0711938E-2,1E0,-3.0399986E1,-2.7814948E2,1.3498498E1,1.472315E1,2.4986729E-1,-2.3276962E-3,-3.1901852E-4,-8.7981415E-4,-2.6792386E-3,-3.1901852E-4,6.303552E-4,2.1117614E-3,8.3069823E-4],"split_indices":[0,17,34,34,15,14,10,0,0,0,0,0,0,0,0],"split_type":[0,0,0,0,0,0,0,0,0,0,0,0,0,0,0],"sum_hessian":[2.1056448E3,6.234757E2,1.4821691E3,1.3654149E2,4.8693423E2,6.3721063E2,8.4495844E2,1.2086662E1,1.2445482E2,2.347551E2,2.5217914E2,4.370734E2,2.0013724E2,3.4986548E2,4.9509293E2],"tree_param":{"num_deleted":"0","num_feature":"36","num_nodes":"15","size_leaf_vector":"1"}},{"base_weights":[1.4804413E-4,-1.4237237E-1,1.1886242E-1,-2.1415305E-1,-1.1754975E-2,3.8720798E-1,1.1640872E-2,-2.1028914E-3,-7.265503E-4,-9.6308097E-4,-6.789423E-5,6.315869E-4,3.0284498E-3,-6.789423E-5,1.750278E-3],"categories":[],"categories_nodes":[],"categories_segments":[],"categories_sizes":[],"default_left":[0,0,0,0,0,0,0,0,0,0,0,0,0,0,0],"id":30,"left_children":[1,3,5,7,9,11,13,-1,-1,-1,-1,-1,-1,-1,-1],"loss_changes":[3.708852E1,1.284816E1,3.3902924E1,9.2312355E0,3.28883E0,1.17784E1,9.044967E0,0E0,0E0,0E0,0E0,0E0,0E0,0E0,0E0],"parents":[2147483647,0,0,1,1,2,2,3,3,4,4,5,5,6,6],"right_children":[2,4,6,8,10,12,14,-1,-1,-1,-1,-1,-1,-1,-1],"split_conditions":[-2.7832336E1,1.4650944E-1,-2.1798096E0,4.940489E1,1.2694517E1,2.4258625E1,3.3512515E2,-2.1028914E-3,-7.265503E-4,-9.6308097E-4,-6.789423E-5,6.315869E-4,3.0284498E-3,-6.789423E-5,1.750278E-3],"split_indices":[34,7,3,13,14,11,34,0,0,0,0,0,0,0,0],"split_type":[0,0,0,0,0,0,0,0,0,0,0,0,0,0,0],"sum_hessian":[2.107836E3,9.4773785E2,1.160098E3,6.966988E2,2.5103905E2,3.2089825E2,8.3919977E2,2.4218867E2,4.5451013E2,9.9456055E1,1.51583E2,1.1497558E2,2.0592268E2,7.629286E2,7.627119E1],"tree_param":{"num_deleted":"0","num_feature":"36","num_nodes":"15","size_leaf_vector":"1"}},{"base_weights":[-4.6495083E-4,-1.2305382E-1,2.1967007E-1,-2.8083658E-1,1.09545635E-2,1.1538871E-1,4.3791056E-1,-7.793905E-4,-2.0480354E-3,-7.793905E-4,2.7901743E-4,1.7976504E-3,2.7901743E-4,1.8458192E-3,4.7350177E-3],"categories":[],"categories_nodes":[],"categories_segments":[],"categories_sizes":[],"default_left":[0,0,0,0,0,0,0,0,0,0,0,0,0,0,0],"id":31,"left_children":[1,3,5,7,9,11,13,-1,-1,-1,-1,-1,-1,-1,-1],"loss_changes":[5.7994392E1,3.0147186E1,1.6924633E1,1.1280582E1,1.2701654E1,9.664712E0,9.823662E0,0E0,0E0,0E0,0E0,0E0,0E0,0E0,0E0],"parents":[2147483647,0,0,1,1,2,2,3,3,4,4,5,5,6,6],"right_children":[2,4,6,8,10,12,14,-1,-1,-1,-1,-1,-1,-1,-1],"split_conditions":[1.2738855E-2,-3.0399986E1,1.4449297E-1,-3.2245336E0,-2.0046806E-2,-3.9846988E0,1.9371169E2,-7.793905E-4,-2.0480354E-3,-7.793905E-4,2.7901743E-4,1.7976504E-3,2.7901743E-4,1.8458192E-3,4.7350177E-3],"split_indices":[0,34,7,3,0,28,34,0,0,0,0,0,0,0,0],"split_type":[0,0,0,0,0,0,0,0,0,0,0,0,0,0,0],"sum_hessian":[2.084276E3,1.3474987E3,7.367771E2,6.251485E2,7.223502E2,5.11341E2,2.2543611E2,1.2413935E2,5.0100912E2,3.305448E2,3.9180545E2,1.5442503E2,3.56916E2,1.8385298E2,4.1583122E1],"tree_param":{"num_deleted":"0","num_feature":"36","num_nodes":"15","size_leaf_vector":"1"}},{"base_weights":[2.1033224E-2,-2.0312631E-1,1.2018561E-1,-5.585181E-1,-9.096383E-2,-0E0,2.1125339E-1,-1.8627257E-3,-5.1973895E-3,-1.6088698E-3,-2.395239E-4,-2.395239E-4,6.100773E-4,2.5681956E-3,6.75458E-4],"categories":[],"categories_nodes":[],"categories_segments":[],"categories_sizes":[],"default_left":[0,0,0,0,0,0,0,0,0,0,0,0,0,0,0],"id":32,"left_children":[1,3,5,7,9,11,13,-1,-1,-1,-1,-1,-1,-1,-1],"loss_changes":[4.8121044E1,2.5808775E1,1.676181E1,1.0704826E1,1.4253349E1,7.914624E0,1.8595848E1,0E0,0E0,0E0,0E0,0E0,0E0,0E0,0E0],"parents":[2147483647,0,0,1,1,2,2,3,3,4,4,5,5,6,6],"right_children":[2,4,6,8,10,12,14,-1,-1,-1,-1,-1,-1,-1,-1],"split_conditions":[-2.0046806E-2,-5.9220457E0,-3.0399986E1,1.4552733E1,-1.5103556E0,1.4277467E1,-2.2546976E0,-1.8627257E-3,-5.1973895E-3,-1.6088698E-3,-2.395239E-4,-2.395239E-4,6.100773E-4,2.5681956E-3,6.75458E-4],"split_indices":[0,29,34,15,34,14,3,0,0,0,0,0,0,0,0],"split_type":[0,0,0,0,0,0,0,0,0,0,0,0,0,0,0],"sum_hessian":[2.0955837E3,6.332938E2,1.46229E3,1.4195375E2,4.9134006E2,6.269749E2,8.3531506E2,9.37914E1,4.8162354E1,2.5365875E2,2.376813E2,3.9461926E2,2.3235565E2,2.2756142E2,6.0775366E2],"tree_param":{"num_deleted":"0","num_feature":"36","num_nodes":"15","size_leaf_vector":"1"}},{"base_weights":[-2.024473E-2,-2.4638566E-1,7.115473E-2,-5.769446E-1,-1.4279296E-1,2.9590192E-1,5.1286635E-3,-5.0604827E-4,-4.478703E-3,-1.994886E-3,-5.0604827E-4,2.7454959E-3,9.513235E-4,-5.0604827E-4,5.31637E-4],"categories":[],"categories_nodes":[],"categories_segments":[],"categories_sizes":[],"default_left":[0,0,0,0,0,0,0,0,0,0,0,0,0,0,0],"id":33,"left_children":[1,3,5,7,9,11,13,-1,-1,-1,-1,-1,-1,-1,-1],"loss_changes":[4.5106117E1,2.1032375E1,2.2353128E1,1.4868702E1,1.3336956E1,7.4524174E0,1.5837149E1,0E0,0E0,0E0,0E0,0E0,0E0,0E0,0E0],"parents":[2147483647,0,0,1,1,2,2,3,3,4,4,5,5,6,6],"right_children":[2,4,6,8,10,12,14,-1,-1,-1,-1,-1,-1,-1,-1],"split_conditions":[-2.0711938E-2,-5.9220457E0,1E0,-1.8372709E0,2.5268915E1,-2.0987515E0,1.2392236E1,-5.0604827E-4,-4.478703E-3,-1.994886E-3,-5.0604827E-4,2.7454959E-3,9.513235E-4,-5.0604827E-4,5.31637E-4],"split_indices":[0,29,17,3,11,28,14,0,0,0,0,0,0,0,0],"split_type":[0,0,0,0,0,0,0,0,0,0,0,0,0,0,0],"sum_hessian":[2.0790503E3,6.040866E2,1.4749636E3,1.3310953E2,4.7097708E2,3.224366E2,1.152527E3,3.8711117E1,9.4398415E1,2.0284183E2,2.6813525E2,1.2273906E2,1.9969756E2,3.7077243E2,7.817546E2],"tree_param":{"num_deleted":"0","num_feature":"36","num_nodes":"15","size_leaf_vector":"1"}},{"base_weights":[2.5684838E-3,-1.18960485E-1,1.4812864E-1,-4.879219E-1,-9.257476E-2,4.485494E-1,4.336313E-2,8.423453E-5,-3.944415E-3,-1.1154483E-3,-0E0,8.423453E-5,2.8755139E-3,8.423453E-5,2.4037035E-3],"categories":[],"categories_nodes":[],"categories_segments":[],"categories_sizes":[],"default_left":[0,0,0,0,0,0,0,0,0,0,0,0,0,0,0],"id":34,"left_children":[1,3,5,7,9,11,13,-1,-1,-1,-1,-1,-1,-1,-1],"loss_changes":[3.8496178E1,1.1683214E1,3.0720266E1,1.130468E1,1.0678848E1,5.9973145E0,9.721176E0,0E0,0E0,0E0,0E0,0E0,0E0,0E0,0E0],"parents":[2147483647,0,0,1,1,2,2,3,3,4,4,5,5,6,6],"right_children":[2,4,6,8,10,12,14,-1,-1,-1,-1,-1,-1,-1,-1],"split_conditions":[2.6443304E1,-1.0063452E1,-2.462832E0,3.4536082E-1,3.55201E-1,3.1444362E-1,2E0,8.423453E-5,-3.944415E-3,-1.1154483E-3,-0E0,8.423453E-5,2.8755139E-3,8.423453E-5,2.4037035E-3],"split_indices":[34,29,3,6,5,5,18,0,0,0,0,0,0,0,0],"split_type":[0,0,0,0,0,0,0,0,0,0,0,0,0,0,0],"sum_hessian":[2.086664E3,1.1281855E3,9.584786E2,6.3324078E1,1.0648615E3,2.3752805E2,7.2095056E2,1.1541914E1,5.178216E1,5.136603E2,5.512012E2,2.230594E1,2.152221E2,6.734228E2,4.752773E1],"tree_param":{"num_deleted":"0","num_feature":"36","num_nodes":"15","size_leaf_vector":"1"}},{"base_weights":[-3.2843696E-3,-1.7230907E-1,1.3842656E-1,-2.6032612E-1,-1.6941257E-2,-1.6941257E-2,2.0628995E-1,-8.007186E-4,-2.01995E-3,-9.784909E-5,-8.007186E-4,-9.784909E-5,5.468189E-4,1.0244045E-3,3.7422741E-3],"categories":[],"categories_nodes":[],"categories_segments":[],"categories_sizes":[],"default_left":[0,0,0,0,0,0,0,0,0,0,0,0,0,0,0],"id":35,"left_children":[1,3,5,7,9,11,13,-1,-1,-1,-1,-1,-1,-1,-1],"loss_changes":[5.249997E1,1.6575937E1,1.30817585E1,8.347836E0,4.595651E0,3.7670434E0,1.0862343E1,0E0,0E0,0E0,0E0,0E0,0E0,0E0,0E0],"parents":[2147483647,0,0,1,1,2,2,3,3,4,4,5,5,6,6],"right_children":[2,4,6,8,10,12,14,-1,-1,-1,-1,-1,-1,-1,-1],"split_conditions":[-2.1337984E1,3.7161884E-1,3.425887E-1,3.520622E-1,3.8136125E-1,1E0,2.8607365E-1,-8.007186E-4,-2.01995E-3,-9.784909E-5,-8.007186E-4,-9.784909E-5,5.468189E-4,1.0244045E-3,3.7422741E-3],"split_indices":[34,5,5,6,6,18,9,0,0,0,0,0,0,0,0],"split_type":[0,0,0,0,0,0,0,0,0,0,0,0,0,0,0],"sum_hessian":[2.1136396E3,9.7161646E2,1.1420231E3,6.6543506E2,3.0618137E2,3.356341E2,8.0638904E2,2.682498E2,3.971853E2,2.3478171E2,7.139966E1,2.3850885E2,9.712524E1,7.684671E2,3.7921886E1],"tree_param":{"num_deleted":"0","num_feature":"36","num_nodes":"15","size_leaf_vector":"1"}},{"base_weights":[-6.4157927E-3,-2.645745E-1,1.01872936E-1,-6.076544E-1,-1.5506344E-1,-4.84589E-2,2.174005E-1,-1.4471456E-3,-4.7388114E-3,-3.1810398E-3,-6.519411E-4,-4.6986478E-4,4.8788535E-4,1.0896506E-3,3.2067527E-3],"categories":[],"categories_nodes":[],"categories_segments":[],"categories_sizes":[],"default_left":[0,0,0,0,0,0,0,0,0,0,0,0,0,0,0],"id":36,"left_children":[1,3,5,7,9,11,13,-1,-1,-1,-1,-1,-1,-1,-1],"loss_changes":[6.1435875E1,2.3912697E1,2.710218E1,9.73859E0,8.806332E0,1.209667E1,8.53936E0,0E0,0E0,0E0,0E0,0E0,0E0,0E0,0E0],"parents":[2147483647,0,0,1,1,2,2,3,3,4,4,5,5,6,6],"right_children":[2,4,6,8,10,12,14,-1,-1,-1,-1,-1,-1,-1,-1],"split_conditions":[-2.0046806E-2,-5.9220457E0,-3.0399986E1,1.359095E1,-3.058989E2,1.4277467E1,2E0,-1.4471456E-3,-4.7388114E-3,-3.1810398E-3,-6.519411E-4,-4.6986478E-4,4.8788535E-4,1.0896506E-3,3.2067527E-3],"split_indices":[0,29,34,15,34,14,18,0,0,0,0,0,0,0,0],"split_type":[0,0,0,0,0,0,0,0,0,0,0,0,0,0,0],"sum_hessian":[2.1081958E3,6.2788135E2,1.4803145E3,1.410825E2,4.8679883E2,6.3492487E2,8.4538965E2,6.10012E1,8.008131E1,3.5581596E1,4.5121722E2,4.124004E2,2.2252449E2,7.928557E2,5.253395E1],"tree_param":{"num_deleted":"0","num_feature":"36","num_nodes":"15","size_leaf_vector":"1"}},{"base_weights":[5.556605E-3,-1.0897965E-1,2.3989052E-1,-4.1862133E-1,-2.7822077E-2,4.2662743E-1,1.516446E-1,-3.7258726E-3,-9.464769E-4,-1.4187129E-3,1.417453E-4,1.7353705E-3,4.1014166E-3,2.4219935E-3,5.060827E-4],"categories":[],"categories_nodes":[],"categories_segments":[],"categories_sizes":[],"default_left":[0,0,0,0,0,0,0,0,0,0,0,0,0,0,0],"id":37,"left_children":[1,3,5,7,9,11,13,-1,-1,-1,-1,-1,-1,-1,-1],"loss_changes":[5.9202488E1,3.6273975E1,1.1576508E1,1.6075397E1,1.4806288E1,7.0634537E0,8.843436E0,0E0,0E0,0E0,0E0,0E0,0E0,0E0,0E0],"parents":[2147483647,0,0,1,1,2,2,3,3,4,4,5,5,6,6],"right_children":[2,4,6,8,10,12,14,-1,-1,-1,-1,-1,-1,-1,-1],"split_conditions":[1.4823008E-2,-5.9220457E0,2.393494E1,-2.104064E-2,-4.164292E-2,2.3152916E1,-5.7568455E0,-3.7258726E-3,-9.464769E-4,-1.4187129E-3,1.417453E-4,1.7353705E-3,4.1014166E-3,2.4219935E-3,5.060827E-4],"split_indices":[0,29,12,0,0,12,29,0,0,0,0,0,0,0,0],"split_type":[0,0,0,0,0,0,0,0,0,0,0,0,0,0,0],"sum_hessian":[2.1191426E3,1.417857E3,7.012854E2,2.8384787E2,1.1340093E3,2.0997272E2,4.9131268E2,1.411358E2,1.4271208E2,2.2576746E2,9.0824176E2,1.582777E2,5.1695034E1,8.208305E1,4.092296E2],"tree_param":{"num_deleted":"0","num_feature":"36","num_nodes":"15","size_leaf_vector":"1"}},{"base_weights":[-1.9651917E-3,-1.5370373E-1,1.1248635E-1,-3.1220308E-1,-7.931233E-2,3.5697004E-1,1.9098988E-2,-5.903337E-4,-3.1514363E-3,-2.1703402E-3,-1.9407939E-4,5.1074434E-4,2.773686E-3,-3.986509E-5,2.5355183E-3],"categories":[],"categories_nodes":[],"categories_segments":[],"categories_sizes":[],"default_left":[0,0,0,0,0,0,0,0,0,0,0,0,0,0,0],"id":38,"left_children":[1,3,5,7,9,11,13,-1,-1,-1,-1,-1,-1,-1,-1],"loss_changes":[3.831114E1,1.0969475E1,2.7762808E1,1.3620842E1,9.314942E0,1.015617E1,1.2896271E1,0E0,0E0,0E0,0E0,0E0,0E0,0E0,0E0],"parents":[2147483647,0,0,1,1,2,2,3,3,4,4,5,5,6,6],"right_children":[2,4,6,8,10,12,14,-1,-1,-1,-1,-1,-1,-1,-1],"split_conditions":[-3.5254955E1,4.888298E1,-2.2546976E0,9.053699E0,-7.3521E0,2.4258625E1,2.8329214E-1,-5.903337E-4,-3.1514363E-3,-2.1703402E-3,-1.9407939E-4,5.1074434E-4,2.773686E-3,-3.986509E-5,2.5355183E-3],"split_indices":[34,13,3,27,29,11,9,0,0,0,0,0,0,0,0],"split_type":[0,0,0,0,0,0,0,0,0,0,0,0,0,0,0],"sum_hessian":[2.1133333E3,9.174762E2,1.195857E3,2.7731656E2,6.4015967E2,3.193152E2,8.765419E2,1.553073E2,1.2200926E2,7.351676E1,5.666429E2,1.0949815E2,2.0981702E2,8.2415137E2,5.2390514E1],"tree_param":{"num_deleted":"0","num_feature":"36","num_nodes":"15","size_leaf_vector":"1"}},{"base_weights":[1.4122461E-2,-1.21474266E-1,1.3001996E-1,-2.2364478E-1,-5.879781E-3,3.5245913E-1,1.7393837E-2,-7.5199147E-4,-2.283312E-3,-6.628425E-4,2.4679062E-5,2.4679062E-5,2.3814319E-3,2.4679062E-5,2.2254281E-3],"categories":[],"categories_nodes":[],"categories_segments":[],"categories_sizes":[],"default_left":[0,0,0,0,0,0,0,0,0,0,0,0,0,0,0],"id":39,"left_children":[1,3,5,7,9,11,13,-1,-1,-1,-1,-1,-1,-1,-1],"loss_changes":[3.422024E1,1.1270604E1,2.8853994E1,7.920347E0,4.6749973E0,9.536457E0,1.306352E1,0E0,0E0,0E0,0E0,0E0,0E0,0E0,0E0],"parents":[2147483647,0,0,1,1,2,2,3,3,4,4,5,5,6,6],"right_children":[2,4,6,8,10,12,14,-1,-1,-1,-1,-1,-1,-1,-1],"split_conditions":[-2.1337984E1,3.5712448E-1,-1.6249993E0,3.7414733E-1,1.23022795E-1,1.19627096E-1,3.3512515E2,-7.5199147E-4,-2.283312E-3,-6.628425E-4,2.4679062E-5,2.4679062E-5,2.3814319E-3,2.4679062E-5,2.2254281E-3],"split_indices":[34,5,3,6,7,7,34,0,0,0,0,0,0,0,0],"split_type":[0,0,0,0,0,0,0,0,0,0,0,0,0,0,0],"sum_hessian":[2.0899827E3,9.529504E2,1.1370322E3,4.9184073E2,4.6110962E2,3.7121732E2,7.6581494E2,3.3347012E2,1.5837064E2,9.8961426E1,3.621482E2,4.675714E1,3.2446017E2,6.9253375E2,7.328122E1],"tree_param":{"num_deleted":"0","num_feature":"36","num_nodes":"15","size_leaf_vector":"1"}},{"base_weights":[-6.856333E-4,-1.2575962E-1,6.1786145E-2,-2.8992662E-1,-6.254991E-2,3.309631E-2,3.9758217E-1,-0E0,-2.1629173E-3,-2.3939149E-3,-1.5982972E-4,-1.1912101E-3,4.4626388E-4,1.2677506E-3,3.7510959E-3],"categories":[],"categories_nodes":[],"categories_segments":[],"categories_sizes":[],"default_left":[0,0,0,0,0,0,0,0,0,0,0,0,0,0,0],"id":40,"left_children":[1,3,5,7,9,11,13,-1,-1,-1,-1,-1,-1,-1,-1],"loss_changes":[1.7644985E1,7.6246805E0,1.4182444E1,5.945202E0,7.327421E0,1.4760516E1,4.1121845E0,0E0,0E0,0E0,0E0,0E0,0E0,0E0,0E0],"parents":[2147483647,0,0,1,1,2,2,3,3,4,4,5,5,6,6],"right_children":[2,4,6,8,10,12,14,-1,-1,-1,-1,-1,-1,-1,-1],"split_conditions":[1.2512904E1,2.101983E-1,1.5965554E-1,-5.421972E0,-8.955205E0,1E0,7.061423E-1,-0E0,-2.1629173E-3,-2.3939149E-3,-1.5982972E-4,-1.1912101E-3,4.4626388E-4,1.2677506E-3,3.7510959E-3],"split_indices":[14,9,7,28,29,16,29,0,0,0,0,0,0,0,0],"split_type":[0,0,0,0,0,0,0,0,0,0,0,0,0,0,0],"sum_hessian":[2.1067043E3,7.136603E2,1.3930441E3,1.8249535E2,5.311649E2,1.2951685E3,9.787558E1,3.5677567E1,1.4681778E2,3.6666912E1,4.9449802E2,1.901122E2,1.1050563E3,6.845247E1,2.9423111E1],"tree_param":{"num_deleted":"0","num_feature":"36","num_nodes":"15","size_leaf_vector":"1"}},{"base_weights":[-5.598466E-3,-1.3710004E-1,1.8858661E-1,-2.972957E-1,-6.0627323E-2,3.7237283E-2,3.1567717E-1,-1.0336435E-3,-2.116628E-3,1.4868772E-4,-1.014152E-3,1.4868772E-4,1.0191794E-3,3.9322563E-3,1.4650811E-3],"categories":[],"categories_nodes":[],"categories_segments":[],"categories_sizes":[],"default_left":[0,0,0,0,0,0,0,0,0,0,0,0,0,0,0],"id":41,"left_children":[1,3,5,7,9,11,13,-1,-1,-1,-1,-1,-1,-1,-1],"loss_changes":[5.5322975E1,1.5618013E1,1.6105967E1,5.616585E0,1.2501341E1,6.8341293E0,1.0107697E1,0E0,0E0,0E0,0E0,0E0,0E0,0E0,0E0],"parents":[2147483647,0,0,1,1,2,2,3,3,4,4,5,5,6,6],"right_children":[2,4,6,8,10,12,14,-1,-1,-1,-1,-1,-1,-1,-1],"split_conditions":[8.607661E-3,-1.2280818E2,1.0467771E0,1E0,-3.9406557E-2,3.88024E-1,-4.301471E0,-1.0336435E-3,-2.116628E-3,1.4868772E-4,-1.014152E-3,1.4868772E-4,1.0191794E-3,3.9322563E-3,1.4650811E-3],"split_indices":[0,34,34,17,3,5,3,0,0,0,0,0,0,0,0],"split_type":[0,0,0,0,0,0,0,0,0,0,0,0,0,0,0],"sum_hessian":[2.098462E3,1.2597921E3,8.3866986E2,3.919101E2,8.6788196E2,3.9471735E2,4.439525E2,8.456834E1,3.0734177E2,4.179285E2,4.4995346E2,2.8078918E2,1.1392816E2,5.1623394E1,3.9232913E2],"tree_param":{"num_deleted":"0","num_feature":"36","num_nodes":"15","size_leaf_vector":"1"}},{"base_weights":[1.46032125E-2,-2.2236963E-1,1.1825871E-1,-4.1924107E-1,-5.205546E-2,-3.09669E-2,2.2015472E-1,-3.3685362E-3,-1.5494075E-3,-2.595064E-3,-3.0066125E-4,-3.0066125E-4,5.463543E-4,2.3136756E-3,8.269613E-4],"categories":[],"categories_nodes":[],"categories_segments":[],"categories_sizes":[],"default_left":[0,0,0,0,0,0,0,0,0,0,0,0,0,0,0],"id":42,"left_children":[1,3,5,7,9,11,13,-1,-1,-1,-1,-1,-1,-1,-1],"loss_changes":[5.311103E1,2.146846E1,2.3566586E1,6.4231224E0,7.4984264E0,7.382791E0,1.2285412E1,0E0,0E0,0E0,0E0,0E0,0E0,0E0,0E0],"parents":[2147483647,0,0,1,1,2,2,3,3,4,4,5,5,6,6],"right_children":[2,4,6,8,10,12,14,-1,-1,-1,-1,-1,-1,-1,-1],"split_conditions":[-2.0046806E-2,-1.9260886E0,-4.5662518E1,2.4953E1,-7.083494E-2,1.472315E1,-4.0945015E0,-3.3685362E-3,-1.5494075E-3,-2.595064E-3,-3.0066125E-4,-3.0066125E-4,5.463543E-4,2.3136756E-3,8.269613E-4],"split_indices":[0,29,34,11,0,14,28,0,0,0,0,0,0,0,0],"split_type":[0,0,0,0,0,0,0,0,0,0,0,0,0,0,0],"sum_hessian":[2.0957686E3,6.286531E2,1.4671155E3,2.834368E2,3.4521628E2,5.865492E2,8.805662E2,1.21287224E2,1.6214958E2,3.007195E1,3.1514435E2,4.068085E2,1.797407E2,2.4749918E2,6.330671E2],"tree_param":{"num_deleted":"0","num_feature":"36","num_nodes":"15","size_leaf_vector":"1"}},{"base_weights":[-2.0455696E-2,-1.8623501E-1,1.10871404E-1,-2.9319778E-1,-3.7681803E-2,-3.7681803E-2,2.1668725E-1,-2.2307213E-3,-9.5554494E-4,-2.1764207E-4,-9.5554494E-4,-2.1764207E-4,5.1694864E-4,2.4560806E-3,7.4964255E-4],"categories":[],"categories_nodes":[],"categories_segments":[],"categories_sizes":[],"default_left":[0,0,0,0,0,0,0,0,0,0,0,0,0,0,0],"id":43,"left_children":[1,3,5,7,9,11,13,-1,-1,-1,-1,-1,-1,-1,-1],"loss_changes":[4.7482967E1,2.252269E1,2.8689579E1,1.2906029E1,3.7368908E0,2.9007394E0,1.5152126E1,0E0,0E0,0E0,0E0,0E0,0E0,0E0,0E0],"parents":[2147483647,0,0,1,1,2,2,3,3,4,4,5,5,6,6],"right_children":[2,4,6,8,10,12,14,-1,-1,-1,-1,-1,-1,-1,-1],"split_conditions":[-3.0399986E1,1.5230996E-2,-2.0046806E-2,1.4635266E-1,3.4955575E0,3.2581094E-1,-2.2546976E0,-2.2307213E-3,-9.5554494E-4,-2.1764207E-4,-9.5554494E-4,-2.1764207E-4,5.1694864E-4,2.4560806E-3,7.4964255E-4],"split_indices":[34,0,0,7,3,10,3,0,0,0,0,0,0,0,0],"split_type":[0,0,0,0,0,0,0,0,0,0,0,0,0,0,0],"sum_hessian":[2.098491E3,9.352307E2,1.1632604E3,6.4973175E2,2.85499E2,3.3444083E2,8.288195E2,4.7216827E2,1.7756346E2,2.3755203E2,4.794694E1,3.1353754E2,2.090329E1,2.2973743E2,5.990821E2],"tree_param":{"num_deleted":"0","num_feature":"36","num_nodes":"15","size_leaf_vector":"1"}},{"base_weights":[-1.292098E-3,-2.4845098E-1,1.0180759E-1,-3.863041E-1,-1.03691965E-1,-0E0,2.1155414E-1,-4.227171E-3,-1.7818755E-3,-1.4150564E-3,-4.234905E-4,6.109458E-4,-3.410405E-4,3.2207218E-3,7.8542856E-4],"categories":[],"categories_nodes":[],"categories_segments":[],"categories_sizes":[],"default_left":[0,0,0,0,0,0,0,0,0,0,0,0,0,0,0],"id":44,"left_children":[1,3,5,7,9,11,13,-1,-1,-1,-1,-1,-1,-1,-1],"loss_changes":[5.6363403E1,1.2434998E1,1.6789524E1,8.0405655E0,5.7416706E0,9.272136E0,1.8860542E1,0E0,0E0,0E0,0E0,0E0,0E0,0E0,0E0],"parents":[2147483647,0,0,1,1,2,2,3,3,4,4,5,5,6,6],"right_children":[2,4,6,8,10,12,14,-1,-1,-1,-1,-1,-1,-1,-1],"split_conditions":[-2.0711938E-2,2.5771818E1,1.5230996E-2,-6.2822328E0,-3.4344256E0,1E0,-6.8655977E0,-4.227171E-3,-1.7818755E-3,-1.4150564E-3,-4.234905E-4,6.109458E-4,-3.410405E-4,3.2207218E-3,7.8542856E-4],"split_indices":[0,11,0,4,4,17,28,0,0,0,0,0,0,0,0],"split_type":[0,0,0,0,0,0,0,0,0,0,0,0,0,0,0],"sum_hessian":[2.118361E3,6.288099E2,1.489551E3,3.090463E2,3.1976358E2,7.855403E2,7.040108E2,4.3444202E1,2.656021E2,1.16382774E2,2.0338081E2,1.6936032E2,6.1617993E2,1.1471869E2,5.892921E2],"tree_param":{"num_deleted":"0","num_feature":"36","num_nodes":"15","size_leaf_vector":"1"}},{"base_weights":[-1.9222174E-3,-2.2912066E-1,9.491958E-2,-5.039301E-1,-1.4286812E-1,2.8806993E-1,3.2685366E-2,-3.8755842E-4,-3.8213308E-3,-2.408784E-3,-3.8755842E-4,1.0646558E-3,2.9094743E-3,-3.8755842E-4,7.004861E-4],"categories":[],"categories_nodes":[],"categories_segments":[],"categories_sizes":[],"default_left":[0,0,0,0,0,0,0,0,0,0,0,0,0,0,0],"id":45,"left_children":[1,3,5,7,9,11,13,-1,-1,-1,-1,-1,-1,-1,-1],"loss_changes":[4.823478E1,1.5214645E1,1.7914425E1,1.0341175E1,1.1881485E1,7.6010056E0,1.5443525E1,0E0,0E0,0E0,0E0,0E0,0E0,0E0,0E0],"parents":[2147483647,0,0,1,1,2,2,3,3,4,4,5,5,6,6],"right_children":[2,4,6,8,10,12,14,-1,-1,-1,-1,-1,-1,-1,-1],"split_conditions":[-2.0046806E-2,-5.9220457E0,-2.833287E0,-1.8372709E0,4.7301956E1,1E0,1.2512904E1,-3.8755842E-4,-3.8213308E-3,-2.408784E-3,-3.8755842E-4,1.0646558E-3,2.9094743E-3,-3.8755842E-4,7.004861E-4],"split_indices":[0,29,3,3,13,18,14,0,0,0,0,0,0,0,0],"split_type":[0,0,0,0,0,0,0,0,0,0,0,0,0,0,0],"sum_hessian":[2.0930813E3,6.314144E2,1.4616667E3,1.3830563E2,4.931088E2,3.4205203E2,1.1196147E3,3.8770206E1,9.953542E1,1.04419075E2,3.8868973E2,2.4485855E2,9.719348E1,3.8576083E2,7.338539E2],"tree_param":{"num_deleted":"0","num_feature":"36","num_nodes":"15","size_leaf_vector":"1"}},{"base_weights":[5.8633504E-3,-9.566727E-2,2.1543613E-1,-4.3031994E-1,-5.469636E-2,5.988443E-2,3.1630558E-1,-3.7978338E-3,-8.15235E-4,3.458797E-4,-6.895415E-4,3.458797E-4,1.6864559E-3,2.8327904E-3,1.2113467E-3],"categories":[],"categories_nodes":[],"categories_segments":[],"categories_sizes":[],"default_left":[0,0,0,0,0,0,0,0,0,0,0,0,0,0,0],"id":46,"left_children":[1,3,5,7,9,11,13,-1,-1,-1,-1,-1,-1,-1,-1],"loss_changes":[4.6581543E1,1.993975E1,1.8141922E1,9.004061E0,1.3997641E1,2.154643E0,9.404617E0,0E0,0E0,0E0,0E0,0E0,0E0,0E0,0E0],"parents":[2147483647,0,0,1,1,2,2,3,3,4,4,5,5,6,6],"right_children":[2,4,6,8,10,12,14,-1,-1,-1,-1,-1,-1,-1,-1],"split_conditions":[1.5230996E-2,-7.1289997E0,1.2563807E-1,-2.4156984E-2,-2.462832E0,1E0,2.4496537E-1,-3.7978338E-3,-8.15235E-4,3.458797E-4,-6.895415E-4,3.458797E-4,1.6864559E-3,2.8327904E-3,1.2113467E-3],"split_indices":[0,4,7,0,3,25,10,0,0,0,0,0,0,0,0],"split_type":[0,0,0,0,0,0,0,0,0,0,0,0,0,0,0],"sum_hessian":[2.0927869E3,1.4033846E3,6.8940216E2,1.4138788E2,1.2619967E3,1.703195E2,5.1908264E2,7.086815E1,7.051974E1,3.2338535E2,9.386114E2,1.566174E2,1.3702106E1,1.8152255E2,3.375601E2],"tree_param":{"num_deleted":"0","num_feature":"36","num_nodes":"15","size_leaf_vector":"1"}},{"base_weights":[2.8710449E-4,-2.3402004E-1,1.0382503E-1,-3.9338738E-1,-6.50975E-2,1.714829E-1,-3.0964395E-2,-2.7770305E-3,-5.349635E-4,-2.3474668E-3,-3.759893E-4,3.5185198E-4,1.58069E-3,-3.759893E-4,7.9187984E-4],"categories":[],"categories_nodes":[],"categories_segments":[],"categories_sizes":[],"default_left":[0,0,0,0,0,0,0,0,0,0,0,0,0,0,0],"id":47,"left_children":[1,3,5,7,9,11,13,-1,-1,-1,-1,-1,-1,-1,-1],"loss_changes":[5.263019E1,1.8408695E1,1.4311071E1,8.000259E0,9.268338E0,1.1127058E1,7.1302395E0,0E0,0E0,0E0,0E0,0E0,0E0,0E0,0E0],"parents":[2147483647,0,0,1,1,2,2,3,3,4,4,5,5,6,6],"right_children":[2,4,6,8,10,12,14,-1,-1,-1,-1,-1,-1,-1,-1],"split_conditions":[-2.0046806E-2,5.174939E1,1.6136974E0,-2.8628595E-2,-5.9220457E0,1.3288795E-2,2.6617956E-1,-2.7770305E-3,-5.349635E-4,-2.3474668E-3,-3.759893E-4,3.5185198E-4,1.58069E-3,-3.759893E-4,7.9187984E-4],"split_indices":[0,13,3,0,29,0,29,0,0,0,0,0,0,0,0],"split_type":[0,0,0,0,0,0,0,0,0,0,0,0,0,0,0],"sum_hessian":[2.1029658E3,6.3514264E2,1.4678231E3,3.2815903E2,3.0698364E2,9.88939E2,4.788841E2,2.4551799E2,8.264102E1,6.010486E1,2.4687878E2,4.9058005E2,4.98359E2,3.2428772E2,1.5459636E2],"tree_param":{"num_deleted":"0","num_feature":"36","num_nodes":"15","size_leaf_vector":"1"}},{"base_weights":[-9.169608E-3,-2.2539888E-1,8.179783E-2,-3.989137E-1,-7.180053E-2,-7.180053E-2,2.0922352E-1,-1.3593726E-3,-2.9615872E-3,-1.3593726E-3,-4.1470455E-4,-4.1470455E-4,3.9686298E-4,3.9686298E-4,1.6061125E-3],"categories":[],"categories_nodes":[],"categories_segments":[],"categories_sizes":[],"default_left":[0,0,0,0,0,0,0,0,0,0,0,0,0,0,0],"id":48,"left_children":[1,3,5,7,9,11,13,-1,-1,-1,-1,-1,-1,-1,-1],"loss_changes":[4.3421024E1,1.9028599E1,3.400786E1,9.003437E0,5.048652E0,5.4447193E0,1.1340603E1,0E0,0E0,0E0,0E0,0E0,0E0,0E0,0E0],"parents":[2147483647,0,0,1,1,2,2,3,3,4,4,5,5,6,6],"right_children":[2,4,6,8,10,12,14,-1,-1,-1,-1,-1,-1,-1,-1],"split_conditions":[-2.0046806E-2,2.5748629E1,-3.5254955E1,-2.137384E0,-3.185468E0,1.5606232E-1,1.2587309E-1,-1.3593726E-3,-2.9615872E-3,-1.3593726E-3,-4.1470455E-4,-4.1470455E-4,3.9686298E-4,3.9686298E-4,1.6061125E-3],"split_indices":[0,11,34,3,4,7,7,0,0,0,0,0,0,0,0],"split_type":[0,0,0,0,0,0,0,0,0,0,0,0,0,0,0],"sum_hessian":[2.10292E3,6.2888995E2,1.4740299E3,3.0478696E2,3.24103E2,6.1427795E2,8.59752E2,8.901451E1,2.1577245E2,1.21390884E2,2.027121E2,5.474279E2,6.685003E1,2.2385439E2,6.358976E2],"tree_param":{"num_deleted":"0","num_feature":"36","num_nodes":"15","size_leaf_vector":"1"}},{"base_weights":[-1.46350525E-2,-2.819259E-1,1.01634406E-1,-5.9260815E-1,-1.834828E-1,1.3273132E-2,1.92174E-1,-3.7783E-3,-5.206626E-4,-5.206626E-4,-1.7823299E-3,-2.11947E-4,5.9330947E-4,5.9330947E-4,1.635653E-3],"categories":[],"categories_nodes":[],"categories_segments":[],"categories_sizes":[],"default_left":[0,0,0,0,0,0,0,0,0,0,0,0,0,0,0],"id":49,"left_children":[1,3,5,7,9,11,13,-1,-1,-1,-1,-1,-1,-1,-1],"loss_changes":[6.800246E1,1.9812634E1,1.17254095E1,6.0885887E0,1.1320652E1,5.62508E0,1.2525682E1,0E0,0E0,0E0,0E0,0E0,0E0,0E0,0E0],"parents":[2147483647,0,0,1,1,2,2,3,3,4,4,5,5,6,6],"right_children":[2,4,6,8,10,12,14,-1,-1,-1,-1,-1,-1,-1,-1],"split_conditions":[-2.0046806E-2,-5.9220457E0,1.4051173E-2,1.6179114E3,5.597364E0,1E0,1.2512156E-1,-3.7783E-3,-5.206626E-4,-5.206626E-4,-1.7823299E-3,-2.11947E-4,5.9330947E-4,5.9330947E-4,1.635653E-3],"split_indices":[0,29,0,24,27,18,7,0,0,0,0,0,0,0,0],"split_type":[0,0,0,0,0,0,0,0,0,0,0,0,0,0,0],"sum_hessian":[2.1040757E3,6.423678E2,1.4617079E3,1.4261725E2,4.9975055E2,7.566893E2,7.0501855E2,1.3048438E2,1.2132883E1,1.8763701E2,3.1211353E2,5.4094415E2,2.1574512E2,1.634394E2,5.4157916E2],"tree_param":{"num_deleted":"0","num_feature":"36","num_nodes":"15","size_leaf_vector":"1"}},{"base_weights":[-4.2718654E-3,-2.093172E-1,8.297508E-2,-5.157561E-1,-1.122731E-1,-4.3419868E-2,1.834033E-1,-8.018317E-4,-3.725143E-3,-4.1105808E-4,-2.6497662E-3,-3.648626E-4,4.0425724E-4,2.5533761E-3,4.480621E-4],"categories":[],"categories_nodes":[],"categories_segments":[],"categories_sizes":[],"default_left":[0,0,0,0,0,0,0,0,0,0,0,0,0,0,0],"id":50,"left_children":[1,3,5,7,9,11,13,-1,-1,-1,-1,-1,-1,-1,-1],"loss_changes":[3.9460716E1,1.9208614E1,1.9769722E1,6.040287E0,7.689192E0,7.7494125E0,2.296489E1,0E0,0E0,0E0,0E0,0E0,0E0,0E0,0E0],"parents":[2147483647,0,0,1,1,2,2,3,3,4,4,5,5,6,6],"right_children":[2,4,6,8,10,12,14,-1,-1,-1,-1,-1,-1,-1,-1],"split_conditions":[-2.0046806E-2,-5.9220457E0,-3.1781595E1,-1.7077587E0,5.9647317E0,1.3288795E-2,-2.2546976E0,-8.018317E-4,-3.725143E-3,-4.1105808E-4,-2.6497662E-3,-3.648626E-4,4.0425724E-4,2.5533761E-3,4.480621E-4],"split_indices":[0,29,34,3,4,0,3,0,0,0,0,0,0,0,0],"split_type":[0,0,0,0,0,0,0,0,0,0,0,0,0,0,0],"sum_hessian":[2.0968533E3,6.325812E2,1.4642721E3,1.4092084E2,4.9166034E2,6.3833844E2,8.259337E2,4.3504562E1,9.7416275E1,4.5119354E2,4.0466778E1,3.3532773E2,3.030107E2,2.2844513E2,5.974886E2],"tree_param":{"num_deleted":"0","num_feature":"36","num_nodes":"15","size_leaf_vector":"1"}},{"base_weights":[-1.9655454E-4,-1.1568438E-1,2.0426399E-1,-4.403546E-1,-3.0001353E-2,4.1885296E-1,1.0284688E-1,-7.3521864E-4,-3.0772078E-3,-9.3156344E-4,2.2596383E-4,1.5066136E-3,3.4143177E-3,1.5066136E-3,2.5580847E-4],"categories":[],"categories_nodes":[],"categories_segments":[],"categories_sizes":[],"default_left":[0,0,0,0,0,0,0,0,0,0,0,0,0,0,0],"id":51,"left_children":[1,3,5,7,9,11,13,-1,-1,-1,-1,-1,-1,-1,-1],"loss_changes":[5.116762E1,3.8234367E1,1.6467247E1,7.114353E0,1.103475E1,7.106777E0,1.1225039E1,0E0,0E0,0E0,0E0,0E0,0E0,0E0,0E0],"parents":[2147483647,0,0,1,1,2,2,3,3,4,4,5,5,6,6],"right_children":[2,4,6,8,10,12,14,-1,-1,-1,-1,-1,-1,-1,-1],"split_conditions":[1.2352925E-2,-5.9220457E0,-3.9846988E0,1.2684946E1,1.2512904E1,1.4053387E1,2.393494E1,-7.3521864E-4,-3.0772078E-3,-9.3156344E-4,2.2596383E-4,1.5066136E-3,3.4143177E-3,1.5066136E-3,2.5580847E-4],"split_indices":[0,29,28,15,14,14,12,0,0,0,0,0,0,0,0],"split_type":[0,0,0,0,0,0,0,0,0,0,0,0,0,0,0],"sum_hessian":[2.0982664E3,1.3501272E3,7.4813904E2,2.716166E2,1.0785106E3,2.2729668E2,5.2084235E2,7.074326E1,2.0087335E2,3.824546E2,6.96056E2,1.1884962E2,1.0844707E2,1.5586589E2,3.6497644E2],"tree_param":{"num_deleted":"0","num_feature":"36","num_nodes":"15","size_leaf_vector":"1"}},{"base_weights":[-1.00294985E-2,-3.376906E-1,6.184241E-2,-5.4616916E-1,-1.5652107E-1,-7.606652E-3,2.6499498E-1,-5.866127E-3,-2.2510616E-3,-2.0292946E-3,-7.9662015E-4,-7.9662015E-4,2.1086985E-4,3.3306205E-3,9.6349535E-4],"categories":[],"categories_nodes":[],"categories_segments":[],"categories_sizes":[],"default_left":[0,0,0,0,0,0,0,0,0,0,0,0,0,0,0],"id":52,"left_children":[1,3,5,7,9,11,13,-1,-1,-1,-1,-1,-1,-1,-1],"loss_changes":[5.2634373E1,1.4315231E1,2.6196318E1,1.1537853E1,5.568913E0,1.2704133E1,1.388942E1,0E0,0E0,0E0,0E0,0E0,0E0,0E0,0E0],"parents":[2147483647,0,0,1,1,2,2,3,3,4,4,5,5,6,6],"right_children":[2,4,6,8,10,12,14,-1,-1,-1,-1,-1,-1,-1,-1],"split_conditions":[-3.4451224E-2,2.5268915E1,2.8182106E-2,1.2152371E-1,-4.4084687E0,-6.689205E0,-5.9119296E0,-5.866127E-3,-2.2510616E-3,-2.0292946E-3,-7.9662015E-4,-7.9662015E-4,2.1086985E-4,3.3306205E-3,9.6349535E-4],"split_indices":[0,11,0,7,4,29,28,0,0,0,0,0,0,0,0],"split_type":[0,0,0,0,0,0,0,0,0,0,0,0,0,0,0],"sum_hessian":[2.1124763E3,3.831921E2,1.7292843E3,1.6720042E2,2.1599168E2,1.2828383E3,4.46446E2,3.1200779E1,1.3599965E2,6.693407E1,1.4905763E2,1.992234E2,1.0836149E3,9.520358E1,3.5124243E2],"tree_param":{"num_deleted":"0","num_feature":"36","num_nodes":"15","size_leaf_vector":"1"}},{"base_weights":[2.0999286E-2,-2.1205229E-1,1.2424985E-1,-5.333492E-1,-1.137393E-1,-2.9448338E-2,2.4479719E-1,-4.2082686E-3,-1.5743659E-3,-1.5300184E-3,-2.5356407E-4,-2.5356407E-4,6.219045E-4,7.5255847E-4,2.1747786E-3],"categories":[],"categories_nodes":[],"categories_segments":[],"categories_sizes":[],"default_left":[0,0,0,0,0,0,0,0,0,0,0,0,0,0,0],"id":53,"left_children":[1,3,5,7,9,11,13,-1,-1,-1,-1,-1,-1,-1,-1],"loss_changes":[5.2831474E1,2.0781336E1,2.8925161E1,6.258892E0,1.0955307E1,9.621228E0,1.2543095E1,0E0,0E0,0E0,0E0,0E0,0E0,0E0,0E0],"parents":[2147483647,0,0,1,1,2,2,3,3,4,4,5,5,6,6],"right_children":[2,4,6,8,10,12,14,-1,-1,-1,-1,-1,-1,-1,-1],"split_conditions":[-2.0046806E-2,-5.9220457E0,-3.1781595E1,3.776698E-1,5.159093E1,1.5230996E-2,1.3764828E-1,-4.2082686E-3,-1.5743659E-3,-1.5300184E-3,-2.5356407E-4,-2.5356407E-4,6.219045E-4,7.5255847E-4,2.1747786E-3],"split_indices":[0,29,34,6,13,0,7,0,0,0,0,0,0,0,0],"split_type":[0,0,0,0,0,0,0,0,0,0,0,0,0,0,0],"sum_hessian":[2.1284014E3,6.443758E2,1.4840255E3,1.3999593E2,5.0437985E2,6.446535E2,8.393721E2,6.960934E1,7.038659E1,2.5487827E2,2.4950159E2,3.5453006E2,2.901234E2,4.6442468E2,3.749474E2],"tree_param":{"num_deleted":"0","num_feature":"36","num_nodes":"15","size_leaf_vector":"1"}},{"base_weights":[-3.5796973E-3,-2.1322817E-1,8.566909E-2,-4.1005784E-1,-6.377953E-2,-4.507666E-2,1.9325292E-1,-4.086341E-3,-1.5838798E-3,-1.3683919E-3,-3.68377E-4,-3.68377E-4,4.2791723E-4,4.2791723E-4,1.5215529E-3],"categories":[],"categories_nodes":[],"categories_segments":[],"categories_sizes":[],"default_left":[0,0,0,0,0,0,0,0,0,0,0,0,0,0,0],"id":54,"left_children":[1,3,5,7,9,11,13,-1,-1,-1,-1,-1,-1,-1,-1],"loss_changes":[4.129423E1,2.5682188E1,2.18878E1,1.2613495E1,4.9863625E0,8.655582E0,8.382442E0,0E0,0E0,0E0,0E0,0E0,0E0,0E0,0E0],"parents":[2147483647,0,0,1,1,2,2,3,3,4,4,5,5,6,6],"right_children":[2,4,6,8,10,12,14,-1,-1,-1,-1,-1,-1,-1,-1],"split_conditions":[-2.0046806E-2,2.582417E1,-2.1337984E1,-1.513359E2,-3.8217905E0,1.4918444E-1,2.4079634E1,-4.086341E-3,-1.5838798E-3,-1.3683919E-3,-3.68377E-4,-3.68377E-4,4.2791723E-4,4.2791723E-4,1.5215529E-3],"split_indices":[0,11,34,34,4,7,11,0,0,0,0,0,0,0,0],"split_type":[0,0,0,0,0,0,0,0,0,0,0,0,0,0,0],"sum_hessian":[2.1002258E3,6.336226E2,1.4666033E3,3.2016632E2,3.1345633E2,6.5264526E2,8.1395795E2,8.823876E1,2.3192755E2,1.07910904E2,2.0554543E2,5.1482697E2,1.3781831E2,2.69845E2,5.441129E2],"tree_param":{"num_deleted":"0","num_feature":"36","num_nodes":"15","size_leaf_vector":"1"}},{"base_weights":[4.1794507E-3,-1.4534542E-1,1.3655993E-1,-7.4034944E-2,-3.3870754E-1,3.4166723E-1,5.5889696E-2,-2.4689623E-4,-2.4548955E-3,-1.8746582E-4,-2.3830105E-3,6.818495E-4,2.5999134E-3,1.2569179E-4,2.3726353E-3],"categories":[],"categories_nodes":[],"categories_segments":[],"categories_sizes":[],"default_left":[0,0,0,0,0,0,0,0,0,0,0,0,0,0,0],"id":55,"left_children":[1,3,5,7,9,11,13,-1,-1,-1,-1,-1,-1,-1,-1],"loss_changes":[4.348703E1,1.3839018E1,1.9038458E1,8.838126E0,5.1342583E0,7.002777E0,1.0831651E1,0E0,0E0,0E0,0E0,0E0,0E0,0E0,0E0],"parents":[2147483647,0,0,1,1,2,2,3,3,4,4,5,5,6,6],"right_children":[2,4,6,8,10,12,14,-1,-1,-1,-1,-1,-1,-1,-1],"split_conditions":[-1.9827627E1,3.7952468E-1,-2.216934E0,5.7197075E0,-5.9119296E0,2.4428013E1,2.7805758E-1,-2.4689623E-4,-2.4548955E-3,-1.8746582E-4,-2.3830105E-3,6.818495E-4,2.5999134E-3,1.2569179E-4,2.3726353E-3],"split_indices":[34,6,3,3,28,11,9,0,0,0,0,0,0,0,0],"split_type":[0,0,0,0,0,0,0,0,0,0,0,0,0,0,0],"sum_hessian":[2.1173965E3,9.850985E2,1.132298E3,7.340747E2,2.5102377E2,3.0640787E2,8.2589014E2,6.855308E2,4.8543858E1,5.6789303E1,1.9423447E2,1.109682E2,1.9543965E2,7.6456573E2,6.1324436E1],"tree_param":{"num_deleted":"0","num_feature":"36","num_nodes":"15","size_leaf_vector":"1"}},{"base_weights":[-3.8580482E-3,-1.0258778E-1,1.863186E-1,4.1865412E-2,-1.784643E-1,4.1865412E-2,3.1280106E-1,2.418057E-4,-1.4197049E-3,-2.4683757E-3,-6.425062E-4,2.418057E-4,1.672807E-3,3.5533812E-3,1.2605063E-3],"categories":[],"categories_nodes":[],"categories_segments":[],"categories_sizes":[],"default_left":[0,0,0,0,0,0,0,0,0,0,0,0,0,0,0],"id":56,"left_children":[1,3,5,7,9,11,13,-1,-1,-1,-1,-1,-1,-1,-1],"loss_changes":[4.1114014E1,2.1809467E1,1.9067623E1,3.9004545E0,1.7739563E1,2.9349604E0,1.289896E1,0E0,0E0,0E0,0E0,0E0,0E0,0E0,0E0],"parents":[2147483647,0,0,1,1,2,2,3,3,4,4,5,5,6,6],"right_children":[2,4,6,8,10,12,14,-1,-1,-1,-1,-1,-1,-1,-1],"split_conditions":[1.4823008E-2,-2.462832E0,1.3091798E-1,2.2607807E1,-5.9220457E0,1E0,-6.061259E0,2.418057E-4,-1.4197049E-3,-2.4683757E-3,-6.425062E-4,2.418057E-4,1.672807E-3,3.5533812E-3,1.2605063E-3],"split_indices":[0,3,7,27,29,25,28,0,0,0,0,0,0,0,0],"split_type":[0,0,0,0,0,0,0,0,0,0,0,0,0,0,0],"sum_hessian":[2.1144097E3,1.4020599E3,7.123498E2,3.606045E2,1.0414554E3,2.621313E2,4.5021854E2,3.3576013E2,2.484435E1,2.0801736E2,8.3343805E2,2.3941248E2,2.2718826E1,9.461115E1,3.5560736E2],"tree_param":{"num_deleted":"0","num_feature":"36","num_nodes":"15","size_leaf_vector":"1"}},{"base_weights":[3.9359117E-3,-2.1796748E-1,9.741044E-2,-5.4654896E-1,-1.1826292E-1,3.7186274E-1,6.05044E-2,-3.4815588E-4,-4.0808497E-3,-3.4815588E-4,-1.838673E-3,3.1302792E-3,1.2486302E-3,2.9248708E-5,1.2486302E-3],"categories":[],"categories_nodes":[],"categories_segments":[],"categories_sizes":[],"default_left":[0,0,0,0,0,0,0,0,0,0,0,0,0,0,0],"id":57,"left_children":[1,3,5,7,9,11,13,-1,-1,-1,-1,-1,-1,-1,-1],"loss_changes":[4.4877872E1,2.042231E1,1.5557179E1,9.925476E0,1.0953699E1,8.688349E0,1.4670935E1,0E0,0E0,0E0,0E0,0E0,0E0,0E0,0E0],"parents":[2147483647,0,0,1,1,2,2,3,3,4,4,5,5,6,6],"right_children":[2,4,6,8,10,12,14,-1,-1,-1,-1,-1,-1,-1,-1],"split_conditions":[-2.104064E-2,-5.9220457E0,-8.094372E0,-1.8372709E0,1.3523732E1,1.498718E0,1.4902349E-1,-3.4815588E-4,-4.0808497E-3,-3.4815588E-4,-1.838673E-3,3.1302792E-3,1.2486302E-3,2.9248708E-5,1.2486302E-3],"split_indices":[0,29,28,3,27,3,7,0,0,0,0,0,0,0,0],"split_type":[0,0,0,0,0,0,0,0,0,0,0,0,0,0,0],"sum_hessian":[2.0925479E3,6.102885E2,1.4822593E3,1.3118687E2,4.7910165E2,1.6243004E2,1.3198293E3,3.7117386E1,9.406948E1,3.0993213E2,1.6916954E2,1.0924793E2,5.3182102E1,1.0559484E3,2.638809E2],"tree_param":{"num_deleted":"0","num_feature":"36","num_nodes":"15","size_leaf_vector":"1"}},{"base_weights":[-3.6728038E-3,-2.2176097E-1,9.107938E-2,-4.1640994E-1,-1.0829147E-1,-1.7001426E-2,2.216689E-1,-3.7739455E-4,-3.0110828E-3,-3.7739455E-4,-2.2896107E-3,5.910579E-4,-3.7739455E-4,2.3542566E-3,8.256044E-4],"categories":[],"categories_nodes":[],"categories_segments":[],"categories_sizes":[],"default_left":[0,0,0,0,0,0,0,0,0,0,0,0,0,0,0],"id":58,"left_children":[1,3,5,7,9,11,13,-1,-1,-1,-1,-1,-1,-1,-1],"loss_changes":[4.4898685E1,1.4089657E1,2.1647076E1,8.635002E0,1.1096029E1,1.2520094E1,9.718052E0,0E0,0E0,0E0,0E0,0E0,0E0,0E0,0E0],"parents":[2147483647,0,0,1,1,2,2,3,3,4,4,5,5,6,6],"right_children":[2,4,6,8,10,12,14,-1,-1,-1,-1,-1,-1,-1,-1],"split_conditions":[-2.0046806E-2,-3.283922E0,2.8736115E1,-2.4024987E0,2.8898187E0,-2.4518287E0,-2.2546976E0,-3.7739455E-4,-3.0110828E-3,-3.7739455E-4,-2.2896107E-3,5.910579E-4,-3.7739455E-4,2.3542566E-3,8.256044E-4],"split_indices":[0,29,34,3,4,28,3,0,0,0,0,0,0,0,0],"split_type":[0,0,0,0,0,0,0,0,0,0,0,0,0,0,0],"sum_hessian":[2.0714377E3,6.3356366E2,1.4378741E3,2.2040938E2,4.131543E2,7.783807E2,6.594934E2,5.2630146E1,1.6777924E2,3.2279535E2,9.0358955E1,3.115409E2,4.6683978E2,1.8067406E2,4.7881937E2],"tree_param":{"num_deleted":"0","num_feature":"36","num_nodes":"15","size_leaf_vector":"1"}},{"base_weights":[1.057294E-2,-2.170104E-1,1.0648134E-1,-5.22395E-1,-1.0233296E-1,3.396407E-1,5.0401244E-2,-8.357529E-4,-3.5851363E-3,-3.1919612E-4,-1.7034503E-3,1.35669E-3,4.508914E-3,-3.1919612E-4,7.140293E-4],"categories":[],"categories_nodes":[],"categories_segments":[],"categories_sizes":[],"default_left":[0,0,0,0,0,0,0,0,0,0,0,0,0,0,0],"id":59,"left_children":[1,3,5,7,9,11,13,-1,-1,-1,-1,-1,-1,-1,-1],"loss_changes":[4.7701485E1,2.2026537E1,2.0018314E1,4.9069557E0,1.0633844E1,1.2997177E1,1.23375435E1,0E0,0E0,0E0,0E0,0E0,0E0,0E0,0E0],"parents":[2147483647,0,0,1,1,2,2,3,3,4,4,5,5,6,6],"right_children":[2,4,6,8,10,12,14,-1,-1,-1,-1,-1,-1,-1,-1],"split_conditions":[-2.0711938E-2,-5.460493E0,-6.2052474E0,1.2684946E1,1.4054957E1,4.5838416E-2,1.2512904E1,-8.357529E-4,-3.5851363E-3,-3.1919612E-4,-1.7034503E-3,1.35669E-3,4.508914E-3,-3.1919612E-4,7.140293E-4],"split_indices":[0,29,28,15,15,0,14,0,0,0,0,0,0,0,0],"split_type":[0,0,0,0,0,0,0,0,0,0,0,0,0,0,0],"sum_hessian":[2.1157542E3,6.176552E2,1.498099E3,1.5796318E2,4.5969205E2,2.7702948E2,1.2210695E3,4.0385242E1,1.1757794E2,2.781586E2,1.8153346E2,2.344018E2,4.262767E1,4.237556E2,7.9731384E2],"tree_param":{"num_deleted":"0","num_feature":"36","num_nodes":"15","size_leaf_vector":"1"}},{"base_weights":[-2.018868E-3,-1.0880148E-1,2.0989054E-1,-2.7085146E-1,2.7580323E-2,3.7988046E-1,1.2197274E-1,-2.5566341E-3,-1.0826231E-3,-7.0254115E-4,2.9193447E-4,2.9193447E-4,2.7027053E-3,2.9193447E-4,1.43547E-3],"categories":[],"categories_nodes":[],"categories_segments":[],"categories_sizes":[],"default_left":[0,0,0,0,0,0,0,0,0,0,0,0,0,0,0],"id":60,"left_children":[1,3,5,7,9,11,13,-1,-1,-1,-1,-1,-1,-1,-1],"loss_changes":[4.9667435E1,3.316777E1,1.0561485E1,9.306591E0,1.3135057E1,8.81546E0,8.483158E0,0E0,0E0,0E0,0E0,0E0,0E0,0E0,0E0],"parents":[2147483647,0,0,1,1,2,2,3,3,4,4,5,5,6,6],"right_children":[2,4,6,8,10,12,14,-1,-1,-1,-1,-1,-1,-1,-1],"split_conditions":[1.5230996E-2,-3.0399986E1,-1.3214165E0,-3.7976978E0,-5.9220457E0,1E0,-4.2122837E-2,-2.5566341E-3,-1.0826231E-3,-7.0254115E-4,2.9193447E-4,2.9193447E-4,2.7027053E-3,2.9193447E-4,1.43547E-3],"split_indices":[0,34,4,29,29,16,34,0,0,0,0,0,0,0,0],"split_type":[0,0,0,0,0,0,0,0,0,0,0,0,0,0,0],"sum_hessian":[2.1257217E3,1.4229633E3,7.027585E2,6.566384E2,7.6632477E2,2.243411E2,4.7841742E2,1.9797449E2,4.5866397E2,1.5430453E2,6.120202E2,3.8362694E1,1.8597841E2,2.199417E2,2.5847574E2],"tree_param":{"num_deleted":"0","num_feature":"36","num_nodes":"15","size_leaf_vector":"1"}},{"base_weights":[-1.5902583E-3,-2.2941683E-1,9.681719E-2,-3.8275027E-1,-6.806973E-2,-5.827453E-2,1.7866239E-1,-3.0060927E-3,-1.3019202E-3,-3.8293368E-4,-1.3019202E-3,6.215297E-4,-3.8293368E-4,2.9160405E-4,1.6943245E-3],"categories":[],"categories_nodes":[],"categories_segments":[],"categories_sizes":[],"default_left":[0,0,0,0,0,0,0,0,0,0,0,0,0,0,0],"id":61,"left_children":[1,3,5,7,9,11,13,-1,-1,-1,-1,-1,-1,-1,-1],"loss_changes":[4.932532E1,1.5806282E1,1.9686243E1,1.0585476E1,3.299797E0,3.6857576E0,1.4185154E1,0E0,0E0,0E0,0E0,0E0,0E0,0E0,0E0],"parents":[2147483647,0,0,1,1,2,2,3,3,4,4,5,5,6,6],"right_children":[2,4,6,8,10,12,14,-1,-1,-1,-1,-1,-1,-1,-1],"split_conditions":[-2.0046806E-2,2.5771818E1,1.24909E1,2.646661E1,1.49798975E1,-6.061259E0,1.3501602E-1,-3.0060927E-3,-1.3019202E-3,-3.8293368E-4,-1.3019202E-3,6.215297E-4,-3.8293368E-4,2.9160405E-4,1.6943245E-3],"split_indices":[0,11,14,12,15,28,7,0,0,0,0,0,0,0,0],"split_type":[0,0,0,0,0,0,0,0,0,0,0,0,0,0,0],"sum_hessian":[2.102166E3,6.399725E2,1.4621936E3,3.1672736E2,3.2324512E2,4.9485767E2,9.67336E2,2.0300735E2,1.1372001E2,2.528087E2,7.043642E1,8.835369E1,4.0650397E2,4.7048526E2,4.9685074E2],"tree_param":{"num_deleted":"0","num_feature":"36","num_nodes":"15","size_leaf_vector":"1"}},{"base_weights":[-1.2501095E-4,-2.3740694E-1,9.720651E-2,-7.010022E-2,-3.1353864E-1,-3.9478615E-2,2.1088268E-1,-3.5004702E-3,-4.0488393E-4,-2.5113677E-3,-9.892342E-4,-4.0488393E-4,4.9499667E-4,4.9499667E-4,1.809956E-3],"categories":[],"categories_nodes":[],"categories_segments":[],"categories_sizes":[],"default_left":[0,0,0,0,0,0,0,0,0,0,0,0,0,0,0],"id":62,"left_children":[1,3,5,7,9,11,13,-1,-1,-1,-1,-1,-1,-1,-1],"loss_changes":[5.066702E1,1.18452E1,2.432677E1,7.194556E0,7.986458E0,8.561133E0,1.1456432E1,0E0,0E0,0E0,0E0,0E0,0E0,0E0,0E0],"parents":[2147483647,0,0,1,1,2,2,3,3,4,4,5,5,6,6],"right_children":[2,4,6,8,10,12,14,-1,-1,-1,-1,-1,-1,-1,-1],"split_conditions":[-2.0711938E-2,1E0,-2.1337984E1,-2.9532678E2,-1.699336E1,2.8182106E-2,9.996721E-3,-3.5004702E-3,-4.0488393E-4,-2.5113677E-3,-9.892342E-4,-4.0488393E-4,4.9499667E-4,4.9499667E-4,1.809956E-3],"split_indices":[0,17,34,34,34,0,0,0,0,0,0,0,0,0,0],"split_type":[0,0,0,0,0,0,0,0,0,0,0,0,0,0,0],"sum_hessian":[2.0954905E3,6.15116E2,1.4803744E3,1.3333124E2,4.817848E2,6.634446E2,8.169299E2,1.0904451E1,1.2242679E2,2.4517679E2,2.36608E2,4.7587225E2,1.8757233E2,3.6159918E2,4.5533072E2],"tree_param":{"num_deleted":"0","num_feature":"36","num_nodes":"15","size_leaf_vector":"1"}},{"base_weights":[-0E0,-1.5327223E-1,1.2148019E-1,-4.4382414E-1,-1.0362987E-1,3.4757605E-1,3.6017727E-2,-2.465422E-4,-3.2394822E-3,-1.0580784E-3,-9.181201E-5,2.3807592E-3,-0E0,-0E0,2.5974507E-3],"categories":[],"categories_nodes":[],"categories_segments":[],"categories_sizes":[],"default_left":[0,0,0,0,0,0,0,0,0,0,0,0,0,0,0],"id":63,"left_children":[1,3,5,7,9,11,13,-1,-1,-1,-1,-1,-1,-1,-1],"loss_changes":[4.042948E1,1.3837236E1,2.2735676E1,5.134363E0,1.0426917E1,6.6394653E0,1.451766E1,0E0,0E0,0E0,0E0,0E0,0E0,0E0,0E0],"parents":[2147483647,0,0,1,1,2,2,3,3,4,4,5,5,6,6],"right_children":[2,4,6,8,10,12,14,-1,-1,-1,-1,-1,-1,-1,-1],"split_conditions":[-3.0399986E1,1E0,-2.3670285E0,-2.600593E0,4.7864825E-1,1.5308943E1,2E0,-2.465422E-4,-3.2394822E-3,-1.0580784E-3,-9.181201E-5,2.3807592E-3,-0E0,-0E0,2.5974507E-3],"split_indices":[34,16,3,3,29,15,18,0,0,0,0,0,0,0,0],"split_type":[0,0,0,0,0,0,0,0,0,0,0,0,0,0,0],"sum_hessian":[2.0839077E3,9.2740967E2,1.1564979E3,1.2236085E2,8.050488E2,3.0509082E2,8.5140717E2,3.399995E1,8.83609E1,5.7612866E2,2.2892014E2,2.5270314E2,5.2387688E1,7.892665E2,6.2140713E1],"tree_param":{"num_deleted":"0","num_feature":"36","num_nodes":"15","size_leaf_vector":"1"}},{"base_weights":[-1.3803958E-2,-1.2837113E-1,1.1966317E-1,-2.1082044E-1,-4.3539815E-3,-4.3539815E-3,2.1114738E-1,-2.2474045E-3,-7.096571E-4,-6.2140083E-4,-2.5147669E-5,5.9719733E-4,-2.5147669E-5,3.6719672E-3,1.0748641E-3],"categories":[],"categories_nodes":[],"categories_segments":[],"categories_sizes":[],"default_left":[0,0,0,0,0,0,0,0,0,0,0,0,0,0,0],"id":64,"left_children":[1,3,5,7,9,11,13,-1,-1,-1,-1,-1,-1,-1,-1],"loss_changes":[3.3398632E1,1.554854E1,1.4679017E1,1.2032146E1,2.4956665E0,3.1022449E0,7.0953293E0,0E0,0E0,0E0,0E0,0E0,0E0,0E0,0E0],"parents":[2147483647,0,0,1,1,2,2,3,3,4,4,5,5,6,6],"right_children":[2,4,6,8,10,12,14,-1,-1,-1,-1,-1,-1,-1,-1],"split_conditions":[2.6443304E1,1.2352925E-2,-1.2388865E-2,-3.7976978E0,1E0,1E0,1.9772612E-1,-2.2474045E-3,-7.096571E-4,-6.2140083E-4,-2.5147669E-5,5.9719733E-4,-2.5147669E-5,3.6719672E-3,1.0748641E-3],"split_indices":[34,0,0,29,16,17,10,0,0,0,0,0,0,0,0],"split_type":[0,0,0,0,0,0,0,0,0,0,0,0,0,0,0],"sum_hessian":[2.0955364E3,1.137928E3,9.5760834E2,7.624589E2,3.7546912E2,3.3756036E2,6.20048E2,2.3697E2,5.254889E2,5.272033E1,3.2274878E2,7.917627E1,2.583841E2,2.2436127E1,5.976118E2],"tree_param":{"num_deleted":"0","num_feature":"36","num_nodes":"15","size_leaf_vector":"1"}},{"base_weights":[-8.291905E-3,1.8047126E-1,-6.172203E-2,-1.8310623E-2,2.5041023E-1,-1.6066726E-1,4.8712544E-2,-1.3256524E-3,1.4594514E-3,-1.4597266E-3,1.6190131E-3,-1.8302955E-3,-3.67897E-4,-3.233133E-4,7.101696E-4],"categories":[],"categories_nodes":[],"categories_segments":[],"categories_sizes":[],"default_left":[0,0,0,0,0,0,0,0,0,0,0,0,0,0,0],"id":65,"left_children":[1,3,5,7,9,11,13,-1,-1,-1,-1,-1,-1,-1,-1],"loss_changes":[2.2269688E1,7.416153E0,1.9235653E1,9.096673E0,7.076954E0,1.3537828E1,9.748147E0,0E0,0E0,0E0,0E0,0E0,0E0,0E0,0E0],"parents":[2147483647,0,0,1,1,2,2,3,3,4,4,5,5,6,6],"right_children":[2,4,6,8,10,12,14,-1,-1,-1,-1,-1,-1,-1,-1],"split_conditions":[1E0,2.101983E-1,3.6076313E-1,2.6583351E1,2.0056772E1,2.4652218E1,2.1364295E-1,-1.3256524E-3,1.4594514E-3,-1.4597266E-3,1.6190131E-3,-1.8302955E-3,-3.67897E-4,-3.233133E-4,7.101696E-4],"split_indices":[17,9,5,11,11,11,9,0,0,0,0,0,0,0,0],"split_type":[0,0,0,0,0,0,0,0,0,0,0,0,0,0,0],"sum_hessian":[2.1102825E3,4.525812E2,1.6577012E3,1.0927012E2,3.433111E2,8.8530066E2,7.724005E2,6.707714E1,4.219298E1,1.2510256E1,3.3080084E2,3.2491058E2,5.603901E2,2.1795639E2,5.544441E2],"tree_param":{"num_deleted":"0","num_feature":"36","num_nodes":"15","size_leaf_vector":"1"}},{"base_weights":[-4.149344E-3,-1.6673702E-1,1.2537965E-1,-2.4929221E-1,-2.0678684E-2,3.6735162E-1,3.1881355E-2,-2.4204142E-3,-8.298447E-4,-7.796472E-4,-1.19435674E-4,2.5446191E-3,-0E0,1.4294505E-3,-1.19435674E-4],"categories":[],"categories_nodes":[],"categories_segments":[],"categories_sizes":[],"default_left":[0,0,0,0,0,0,0,0,0,0,0,0,0,0,0],"id":66,"left_children":[1,3,5,7,9,11,13,-1,-1,-1,-1,-1,-1,-1,-1],"loss_changes":[4.6289017E1,1.5761009E1,2.6867683E1,1.2095219E1,2.5935705E0,8.45702E0,1.2518744E1,0E0,0E0,0E0,0E0,0E0,0E0,0E0,0E0],"parents":[2147483647,0,0,1,1,2,2,3,3,4,4,5,5,6,6],"right_children":[2,4,6,8,10,12,14,-1,-1,-1,-1,-1,-1,-1,-1],"split_conditions":[-3.0399986E1,3.7434855E-1,-2.2546976E0,4.9718132E1,0E0,1.5308943E1,1E0,-2.4204142E-3,-8.298447E-4,-7.796472E-4,-1.19435674E-4,2.5446191E-3,-0E0,1.4294505E-3,-1.19435674E-4],"split_indices":[34,5,3,13,18,15,17,0,0,0,0,0,0,0,0],"split_type":[0,0,0,0,0,0,0,0,0,0,0,0,0,0,0],"sum_hessian":[2.1141663E3,9.4552765E2,1.1686387E3,6.767182E2,2.6880945E2,3.1426407E2,8.543746E2,2.4490778E2,4.3181046E2,5.510816E1,2.1370128E2,2.5869882E2,5.5565273E1,1.8714409E2,6.6723047E2],"tree_param":{"num_deleted":"0","num_feature":"36","num_nodes":"15","size_leaf_vector":"1"}},{"base_weights":[-1.9727238E-2,-2.9963627E-1,4.1916545E-2,-6.2712836E-1,-1.7197485E-1,-3.6586724E-2,1.6047983E-1,-4.119155E-3,-7.4426713E-4,-2.2629306E-3,-7.4426713E-4,-7.4426713E-4,3.577901E-4,3.577901E-4,1.7393751E-3],"categories":[],"categories_nodes":[],"categories_segments":[],"categories_sizes":[],"default_left":[0,0,0,0,0,0,0,0,0,0,0,0,0,0,0],"id":67,"left_children":[1,3,5,7,9,11,13,-1,-1,-1,-1,-1,-1,-1,-1],"loss_changes":[3.884045E1,1.6287579E1,1.7232067E1,4.265671E0,8.742814E0,1.3822972E1,1.9187918E1,0E0,0E0,0E0,0E0,0E0,0E0,0E0,0E0],"parents":[2147483647,0,0,1,1,2,2,3,3,4,4,5,5,6,6],"right_children":[2,4,6,8,10,12,14,-1,-1,-1,-1,-1,-1,-1,-1],"split_conditions":[-3.4451224E-2,4.7624252E1,1.4823008E-2,-3.8377326E-2,-6.3492897E1,-5.9493166E-1,1.3170633E-1,-4.119155E-3,-7.4426713E-4,-2.2629306E-3,-7.4426713E-4,-7.4426713E-4,3.577901E-4,3.577901E-4,1.7393751E-3],"split_indices":[0,13,0,0,34,29,7,0,0,0,0,0,0,0,0],"split_type":[0,0,0,0,0,0,0,0,0,0,0,0,0,0,0],"sum_hessian":[2.110324E3,3.8498004E2,1.725344E3,9.718372E1,2.8779633E2,1.0271505E3,6.981934E2,8.0816376E1,1.6367348E1,1.1458316E2,1.7321315E2,5.8383954E2,4.4331104E2,2.6047775E2,4.3771564E2],"tree_param":{"num_deleted":"0","num_feature":"36","num_nodes":"15","size_leaf_vector":"1"}},{"base_weights":[-0E0,-1.8001601E-1,8.158862E-2,-4.9213696E-2,-2.6615435E-1,-4.9213696E-2,1.8609183E-1,-2.7043594E-3,-2.8424783E-4,-3.1876755E-3,-1.1671865E-3,-2.8424783E-4,3.9528948E-4,2.4428705E-3,6.567419E-4],"categories":[],"categories_nodes":[],"categories_segments":[],"categories_sizes":[],"default_left":[0,0,0,0,0,0,0,0,0,0,0,0,0,0,0],"id":68,"left_children":[1,3,5,7,9,11,13,-1,-1,-1,-1,-1,-1,-1,-1],"loss_changes":[3.2357018E1,1.2421658E1,2.1898449E1,5.78055E0,9.066647E0,6.552971E0,1.4576202E1,0E0,0E0,0E0,0E0,0E0,0E0,0E0,0E0],"parents":[2147483647,0,0,1,1,2,2,3,3,4,4,5,5,6,6],"right_children":[2,4,6,8,10,12,14,-1,-1,-1,-1,-1,-1,-1,-1],"split_conditions":[-2.0046806E-2,-2.4024987E0,-3.0399986E1,-2.9845157E2,4.6402966E1,2.8632823E-2,1E0,-2.7043594E-3,-2.8424783E-4,-3.1876755E-3,-1.1671865E-3,-2.8424783E-4,3.9528948E-4,2.4428705E-3,6.567419E-4],"split_indices":[0,3,34,34,13,0,17,0,0,0,0,0,0,0,0],"split_type":[0,0,0,0,0,0,0,0,0,0,0,0,0,0,0],"sum_hessian":[2.1130247E3,6.5161884E2,1.4614058E3,1.6286275E2,4.8875607E2,6.269737E2,8.344321E2,1.612616E1,1.4673659E2,7.563086E1,4.131252E2,4.4503506E2,1.8193866E2,1.8172154E2,6.527106E2],"tree_param":{"num_deleted":"0","num_feature":"36","num_nodes":"15","size_leaf_vector":"1"}},{"base_weights":[-0E0,-9.638619E-2,1.8740879E-1,-3.9513734E-1,-1.9489096E-2,4.2451575E-1,8.24928E-2,-2.5359238E-3,-0E0,-1.2206001E-3,2.6286358E-4,1.4641867E-3,3.3883692E-3,2.6286358E-4,1.4641867E-3],"categories":[],"categories_nodes":[],"categories_segments":[],"categories_sizes":[],"default_left":[0,0,0,0,0,0,0,0,0,0,0,0,0,0,0],"id":69,"left_children":[1,3,5,7,9,11,13,-1,-1,-1,-1,-1,-1,-1,-1],"loss_changes":[3.953653E1,3.2387886E1,1.8025917E1,5.989174E0,1.6145563E1,7.8996124E0,7.0838003E0,0E0,0E0,0E0,0E0,0E0,0E0,0E0,0E0],"parents":[2147483647,0,0,1,1,2,2,3,3,4,4,5,5,6,6],"right_children":[2,4,6,8,10,12,14,-1,-1,-1,-1,-1,-1,-1,-1],"split_conditions":[1.4051173E-2,-5.9220457E0,-3.9846988E0,1.6734825E1,-1.4497284E2,1.3412155E-1,1.6049577E2,-2.5359238E-3,-0E0,-1.2206001E-3,2.6286358E-4,1.4641867E-3,3.3883692E-3,2.6286358E-4,1.4641867E-3],"split_indices":[0,29,28,15,34,7,34,0,0,0,0,0,0,0,0],"split_type":[0,0,0,0,0,0,0,0,0,0,0,0,0,0,0],"sum_hessian":[2.0952542E3,1.3821659E3,7.1308826E2,2.721529E2,1.1100131E3,2.0687823E2,5.0621002E2,2.4943181E2,2.2721071E1,2.967881E2,8.13225E2,8.9347786E1,1.1753044E2,3.7525122E2,1.309588E2],"tree_param":{"num_deleted":"0","num_feature":"36","num_nodes":"15","size_leaf_vector":"1"}},{"base_weights":[-1.1542828E-3,-1.0527998E-1,1.5194152E-1,1.3475356E-4,-1.8119456E-1,2.333077E-2,2.4012502E-1,-1.3412453E-3,-1.0099778E-5,1.3475356E-4,1.8099843E-3,5.8184454E-4,2.085402E-3],"categories":[],"categories_nodes":[],"categories_segments":[],"categories_sizes":[],"default_left":[0,0,0,0,0,0,0,0,0,0,0,0,0],"id":70,"left_children":[1,3,5,-1,7,9,11,-1,-1,-1,-1,-1,-1],"loss_changes":[3.5126213E1,2.1009375E1,1.3219851E1,0E0,8.811642E0,3.6528316E0,9.417355E0,0E0,0E0,0E0,0E0,0E0,0E0],"parents":[2147483647,0,0,1,1,2,2,4,4,5,5,6,6],"right_children":[2,4,6,-1,8,10,12,-1,-1,-1,-1,-1,-1],"split_conditions":[8.607661E-3,1E0,1.2512904E1,1.3475356E-4,1.4739689E-1,6.602954E-2,1.3489096E-1,-1.3412453E-3,-1.0099778E-5,1.3475356E-4,1.8099843E-3,5.8184454E-4,2.085402E-3],"split_indices":[0,17,14,0,7,0,7,0,0,0,0,0,0],"split_type":[0,0,0,0,0,0,0,0,0,0,0,0,0],"sum_hessian":[2.119906E3,1.2724911E3,8.4741504E2,2.7909174E2,9.9339935E2,2.8045282E2,5.669622E2,7.613769E2,2.3202245E2,2.592465E2,2.1206316E1,2.7718204E2,2.8978018E2],"tree_param":{"num_deleted":"0","num_feature":"36","num_nodes":"13","size_leaf_vector":"1"}},{"base_weights":[2.161781E-2,2.320259E-1,-6.10047E-2,-2.0877155E-3,2.5393787E-1,-2.9948613E-1,-1.0211098E-2,2.7410835E-3,1.0561638E-3,-3.2009466E-3,-9.3309575E-4,-2.114641E-4,1.9298503E-3],"categories":[],"categories_nodes":[],"categories_segments":[],"categories_sizes":[],"default_left":[0,0,0,0,0,0,0,0,0,0,0,0,0],"id":71,"left_children":[1,3,5,-1,7,9,11,-1,-1,-1,-1,-1,-1],"loss_changes":[3.8309486E1,9.918205E0,1.8630043E1,0E0,9.157303E0,8.80896E0,1.24978695E1,0E0,0E0,0E0,0E0,0E0,0E0],"parents":[2147483647,0,0,1,1,2,2,4,4,5,5,6,6],"right_children":[2,4,6,-1,8,10,12,-1,-1,-1,-1,-1,-1],"split_conditions":[-2.1798096E0,-9.274364E0,-6.689205E0,-2.0877155E-3,-5.228678E0,2.370165E1,1.6432104E1,2.7410835E-3,1.0561638E-3,-3.2009466E-3,-9.3309575E-4,-2.114641E-4,1.9298503E-3],"split_indices":[3,3,29,0,28,11,15,0,0,0,0,0,0],"split_type":[0,0,0,0,0,0,0,0,0,0,0,0,0],"sum_hessian":[2.0909055E3,5.957749E2,1.4951306E3,1.4466048E1,5.8130884E2,2.496703E2,1.2454603E3,1.2635742E2,4.5495142E2,7.62014E1,1.734689E2,1.16756E3,7.790032E1],"tree_param":{"num_deleted":"0","num_feature":"36","num_nodes":"13","size_leaf_vector":"1"}},{"base_weights":[-5.813429E-4,-1.3570191E-1,1.09391905E-1,-2.2291693E-1,-1.3155002E-2,3.4045994E-1,1.9027183E-2,-2.6807578E-3,-7.820203E-4,-7.598049E-5,-2.3114078E-3,4.486287E-4,2.4489036E-3,1.2266412E-3,-7.598049E-5],"categories":[],"categories_nodes":[],"categories_segments":[],"categories_sizes":[],"default_left":[0,0,0,0,0,0,0,0,0,0,0,0,0,0,0],"id":72,"left_children":[1,3,5,7,9,11,13,-1,-1,-1,-1,-1,-1,-1,-1],"loss_changes":[3.2945587E1,1.21405525E1,2.462003E1,1.2662415E1,6.782487E0,6.389591E0,9.646031E0,0E0,0E0,0E0,0E0,0E0,0E0,0E0,0E0],"parents":[2147483647,0,0,1,1,2,2,3,3,4,4,5,5,6,6],"right_children":[2,4,6,8,10,12,14,-1,-1,-1,-1,-1,-1,-1,-1],"split_conditions":[-2.7832336E1,1.4065525E-1,-2.2546976E0,2.0984025E-1,5.2292457E0,2.1081893E-1,1E0,-2.6807578E-3,-7.820203E-4,-7.598049E-5,-2.3114078E-3,4.486287E-4,2.4489036E-3,1.2266412E-3,-7.598049E-5],"split_indices":[34,7,3,9,3,8,17,0,0,0,0,0,0,0,0],"split_type":[0,0,0,0,0,0,0,0,0,0,0,0,0,0,0],"sum_hessian":[2.1196626E3,9.6093567E2,1.1587269E3,5.907304E2,3.7020526E2,3.141611E2,8.445658E2,1.4410246E2,4.466279E2,3.4278552E2,2.7419739E1,8.5315674E1,2.2884543E2,1.829134E2,6.616524E2],"tree_param":{"num_deleted":"0","num_feature":"36","num_nodes":"15","size_leaf_vector":"1"}},{"base_weights":[6.1638574E-3,-1.9214146E-1,9.3908854E-2,-3.2943162E-1,-4.9116302E-2,2.8739232E-1,1.3697024E-2,-2.6121575E-3,-1.0932061E-3,-1.0932061E-3,-2.836853E-4,2.760731E-3,4.3228792E-4,-2.836853E-4,1.14956E-3],"categories":[],"categories_nodes":[],"categories_segments":[],"categories_sizes":[],"default_left":[0,0,0,0,0,0,0,0,0,0,0,0,0,0,0],"id":73,"left_children":[1,3,5,7,9,11,13,-1,-1,-1,-1,-1,-1,-1,-1],"loss_changes":[3.758158E1,1.9327473E1,2.2916595E1,1.1042606E1,1.8556345E0,1.6714298E1,1.5835806E1,0E0,0E0,0E0,0E0,0E0,0E0,0E0,0E0],"parents":[2147483647,0,0,1,1,2,2,3,3,4,4,5,5,6,6],"right_children":[2,4,6,8,10,12,14,-1,-1,-1,-1,-1,-1,-1,-1],"split_conditions":[-2.0046806E-2,2.704336E1,-2.1798096E0,2.6809618E-1,-9.689871E0,-1.0517375E0,2.9198017E-2,-2.6121575E-3,-1.0932061E-3,-1.0932061E-3,-2.836853E-4,2.760731E-3,4.3228792E-4,-2.836853E-4,1.14956E-3],"split_indices":[0,11,3,10,4,28,0,0,0,0,0,0,0,0,0],"split_type":[0,0,0,0,0,0,0,0,0,0,0,0,0,0,0],"sum_hessian":[2.0828672E3,6.2831067E2,1.4545565E3,3.973041E2,2.3100655E2,4.1341812E2,1.0411384E3,2.62562E2,1.3474213E2,1.58408165E1,2.1516573E2,2.0854259E2,2.0487553E2,7.367905E2,3.0434787E2],"tree_param":{"num_deleted":"0","num_feature":"36","num_nodes":"15","size_leaf_vector":"1"}},{"base_weights":[1.305302E-2,1.7533638E-1,-4.3263298E-2,2.1823737E-1,-1.6878043E-1,-6.4758494E-2,2.8622404E-1,1.14409755E-4,2.0505602E-3,-2.558047E-3,-0E0,-1.0590916E-3,-4.377862E-5,3.1507018E-3,6.1990874E-4],"categories":[],"categories_nodes":[],"categories_segments":[],"categories_sizes":[],"default_left":[0,0,0,0,0,0,0,0,0,0,0,0,0,0,0],"id":74,"left_children":[1,3,5,7,9,11,13,-1,-1,-1,-1,-1,-1,-1,-1],"loss_changes":[2.074952E1,9.606165E0,1.2156242E1,1.350172E1,4.3342214E0,1.0174736E1,4.0703716E0,0E0,0E0,0E0,0E0,0E0,0E0,0E0,0E0],"parents":[2147483647,0,0,1,1,2,2,3,3,4,4,5,5,6,6],"right_children":[2,4,6,8,10,12,14,-1,-1,-1,-1,-1,-1,-1,-1],"split_conditions":[-2.4024987E0,1.6181087E1,8.204633E0,1.2988143E1,-2.0948079E0,1.2206521E1,1.2782574E1,1.14409755E-4,2.0505602E-3,-2.558047E-3,-0E0,-1.0590916E-3,-4.377862E-5,3.1507018E-3,6.1990874E-4],"split_indices":[3,15,4,14,4,14,15,0,0,0,0,0,0,0,0],"split_type":[0,0,0,0,0,0,0,0,0,0,0,0,0,0,0],"sum_hessian":[2.110971E3,5.5284247E2,1.5581285E3,4.9966013E2,5.3182312E1,1.4735197E3,8.460892E1,2.136802E2,2.8597992E2,1.8663303E1,3.451901E1,4.6145203E2,1.0120676E3,2.47735E1,5.983542E1],"tree_param":{"num_deleted":"0","num_feature":"36","num_nodes":"15","size_leaf_vector":"1"}},{"base_weights":[-1.5766485E-2,-1.19488716E-1,1.3758415E-1,-3.470757E-1,-3.896233E-2,4.993114E-1,8.623765E-2,-1.6145085E-3,-3.5501681E-3,-3.010672E-3,-8.722422E-5,1.6910033E-3,3.3461635E-3,1.5213687E-4,1.2903863E-3],"categories":[],"categories_nodes":[],"categories_segments":[],"categories_sizes":[],"default_left":[0,0,0,0,0,0,0,0,0,0,0,0,0,0,0],"id":75,"left_children":[1,3,5,7,9,11,13,-1,-1,-1,-1,-1,-1,-1,-1],"loss_changes":[3.4825405E1,2.3608732E1,1.6255764E1,5.535328E0,1.2088415E1,1.8361492E0,6.3374467E0,0E0,0E0,0E0,0E0,0E0,0E0,0E0,0E0],"parents":[2147483647,0,0,1,1,2,2,3,3,4,4,5,5,6,6],"right_children":[2,4,6,8,10,12,14,-1,-1,-1,-1,-1,-1,-1,-1],"split_conditions":[8.607661E-3,-4.8218684E0,-8.094372E0,2.5929072E-1,-9.968709E0,-5.0133377E-2,1E0,-1.6145085E-3,-3.5501681E-3,-3.010672E-3,-8.722422E-5,1.6910033E-3,3.3461635E-3,1.5213687E-4,1.2903863E-3],"split_indices":[0,29,28,9,4,2,18,0,0,0,0,0,0,0,0],"split_type":[0,0,0,0,0,0,0,0,0,0,0,0,0,0,0],"sum_hessian":[2.1057341E3,1.266616E3,8.391183E2,3.1868567E2,9.479303E2,9.300374E1,7.4611456E2,2.6979395E2,4.889172E1,3.4998093E1,9.129322E2,2.4595732E1,6.8408005E1,5.361615E2,2.0995303E2],"tree_param":{"num_deleted":"0","num_feature":"36","num_nodes":"15","size_leaf_vector":"1"}},{"base_weights":[1.82732E-2,-8.476295E-2,1.441778E-1,-2.6241893E-1,-2.9705072E-2,2.970742E-2,2.4866024E-1,-2.4233472E-3,-5.356548E-4,-1.1505514E-3,1.7158373E-4,1.7158373E-4,2.1965213E-3,1.7158373E-4,1.6812186E-3],"categories":[],"categories_nodes":[],"categories_segments":[],"categories_sizes":[],"default_left":[0,0,0,0,0,0,0,0,0,0,0,0,0,0,0],"id":76,"left_children":[1,3,5,7,9,11,13,-1,-1,-1,-1,-1,-1,-1,-1],"loss_changes":[2.8612598E1,1.1529491E1,1.2623222E1,6.7358475E0,1.1657681E1,4.5521817E0,7.6753235E0,0E0,0E0,0E0,0E0,0E0,0E0,0E0,0E0],"parents":[2147483647,0,0,1,1,2,2,3,3,4,4,5,5,6,6],"right_children":[2,4,6,8,10,12,14,-1,-1,-1,-1,-1,-1,-1,-1],"split_conditions":[2.6443304E1,2.0984025E-1,2.259055E-1,3.55201E-1,-3.7976978E0,3.319645E1,-7.1289997E0,-2.4233472E-3,-5.356548E-4,-1.1505514E-3,1.7158373E-4,1.7158373E-4,2.1965213E-3,1.7158373E-4,1.6812186E-3],"split_indices":[34,9,9,5,29,12,4,0,0,0,0,0,0,0,0],"split_type":[0,0,0,0,0,0,0,0,0,0,0,0,0,0,0],"sum_hessian":[2.1023816E3,1.1459718E3,9.5640967E2,2.5598766E2,8.899842E2,4.461091E2,5.1030057E2,1.21500824E2,1.3448683E2,2.6166412E2,6.2832007E2,4.282655E2,1.78436E1,4.435649E1,4.6594406E2],"tree_param":{"num_deleted":"0","num_feature":"36","num_nodes":"15","size_leaf_vector":"1"}},{"base_weights":[-4.747945E-5,-9.7455814E-2,1.9291584E-1,-2.5606075E-1,3.4165993E-2,5.358549E-1,1.4009301E-1,-2.8832213E-3,-7.82682E-4,-6.4080843E-4,2.7567838E-4,4.0124897E-3,1.9520655E-3,2.7567838E-4,1.427133E-3],"categories":[],"categories_nodes":[],"categories_segments":[],"categories_sizes":[],"default_left":[0,0,0,0,0,0,0,0,0,0,0,0,0,0,0],"id":77,"left_children":[1,3,5,7,9,11,13,-1,-1,-1,-1,-1,-1,-1,-1],"loss_changes":[4.0899017E1,3.1042261E1,1.3045082E1,1.9019405E1,1.016988E1,4.241337E0,8.418252E0,0E0,0E0,0E0,0E0,0E0,0E0,0E0,0E0],"parents":[2147483647,0,0,1,1,2,2,3,3,4,4,5,5,6,6],