{"learner":{"attributes":{"scikit_learn":"{\"_estimator_type\": \"classifier\"}"},"feature_names":["ewma_efg_diff","ewma_tov_diff","ewma_orb_diff","ewma_pace_diff","ewma_vol_3p_diff","home_ewma_3p_pct","away_ewma_3p_pct","away_ewma_tov_pct","home_orb","away_orb","away_ewma_fta_rate","ewma_foul_synergy_home","ewma_foul_synergy_away","total_foul_environment","ewma_chaos_home","ewma_net_chaos","home_rest_days","away_rest_days","rest_advantage","fatigue_mismatch","home_back_to_back","away_back_to_back","home_3in4","away_3in4","home_composite_elo","altitude_game","injury_impact_diff","injury_impact_abs","injury_shock_home","injury_shock_away","injury_shock_diff","home_star_missing","away_star_missing","star_mismatch","off_elo_diff","def_elo_diff","is_season_opener","season_year","season_year_normalized","games_into_season","season_progress","endgame_phase","season_month"],"feature_types":["float","float","float","float","float","float","float","float","float","float","float","float","float","float","float","float","int","int","int","int","int","int","int","int","float","int","float","float","float","float","float","int","int","int","float","float","int","int","float","int","float","int","int"],"gradient_booster":{"model":{"cats":{"enc":[],"feature_segments":[],"sorted_idx":[]},"gbtree_model_param":{"num_parallel_tree":"1","num_trees":"800"},"iteration_indptr":[0,1,2,3,4,5,6,7,8,9,10,11,12,13,14,15,16,17,18,19,20,21,22,23,24,25,26,27,28,29,30,31,32,33,34,35,36,37,38,39,40,41,42,43,44,45,46,47,48,49,50,51,52,53,54,55,56,57,58,59,60,61,62,63,64,65,66,67,68,69,70,71,72,73,74,75,76,77,78,79,80,81,82,83,84,85,86,87,88,89,90,91,92,93,94,95,96,97,98,99,100,101,102,103,104,105,106,107,108,109,110,111,112,113,114,115,116,117,118,119,120,121,122,123,124,125,126,127,128,129,130,131,132,133,134,135,136,137,138,139,140,141,142,143,144,145,146,147,148,149,150,151,152,153,154,155,156,157,158,159,160,161,162,163,164,165,166,167,168,169,170,171,172,173,174,175,176,177,178,179,180,181,182,183,184,185,186,187,188,189,190,191,192,193,194,195,196,197,198,199,200,201,202,203,204,205,206,207,208,209,210,211,212,213,214,215,216,217,218,219,220,221,222,223,224,225,226,227,228,229,230,231,232,233,234,235,236,237,238,239,240,241,242,243,244,245,246,247,248,249,250,251,252,253,254,255,256,257,258,259,260,261,262,263,264,265,266,267,268,269,270,271,272,273,274,275,276,277,278,279,280,281,282,283,284,285,286,287,288,289,290,291,292,293,294,295,296,297,298,299,300,301,302,303,304,305,306,307,308,309,310,311,312,313,314,315,316,317,318,319,320,321,322,323,324,325,326,327,328,329,330,331,332,333,334,335,336,337,338,339,340,341,342,343,344,345,346,347,348,349,350,351,352,353,354,355,356,357,358,359,360,361,362,363,364,365,366,367,368,369,370,371,372,373,374,375,376,377,378,379,380,381,382,383,384,385,386,387,388,389,390,391,392,393,394,395,396,397,398,399,400,401,402,403,404,405,406,407,408,409,410,411,412,413,414,415,416,417,418,419,420,421,422,423,424,425,426,427,428,429,430,431,432,433,434,435,436,437,438,439,440,441,442,443,444,445,446,447,448,449,450,451,452,453,454,455,456,457,458,459,460,461,462,463,464,465,466,467,468,469,470,471,472,473,474,475,476,477,478,479,480,481,482,483,484,485,486,487,488,489,490,491,492,493,494,495,496,497,498,499,500,501,502,503,504,505,506,507,508,509,510,511,512,513,514,515,516,517,518,519,520,521,522,523,524,525,526,527,528,529,530,531,532,533,534,535,536,537,538,539,540,541,542,543,544,545,546,547,548,549,550,551,552,553,554,555,556,557,558,559,560,561,562,563,564,565,566,567,568,569,570,571,572,573,574,575,576,577,578,579,580,581,582,583,584,585,586,587,588,589,590,591,592,593,594,595,596,597,598,599,600,601,602,603,604,605,606,607,608,609,610,611,612,613,614,615,616,617,618,619,620,621,622,623,624,625,626,627,628,629,630,631,632,633,634,635,636,637,638,639,640,641,642,643,644,645,646,647,648,649,650,651,652,653,654,655,656,657,658,659,660,661,662,663,664,665,666,667,668,669,670,671,672,673,674,675,676,677,678,679,680,681,682,683,684,685,686,687,688,689,690,691,692,693,694,695,696,697,698,699,700,701,702,703,704,705,706,707,708,709,710,711,712,713,714,715,716,717,718,719,720,721,722,723,724,725,726,727,728,729,730,731,732,733,734,735,736,737,738,739,740,741,742,743,744,745,746,747,748,749,750,751,752,753,754,755,756,757,758,759,760,761,762,763,764,765,766,767,768,769,770,771,772,773,774,775,776,777,778,779,780,781,782,783,784,785,786,787,788,789,790,791,792,793,794,795,796,797,798,799,800],"tree_info":[0,0,0,0,0,0,0,0,0,0,0,0,0,0,0,0,0,0,0,0,0,0,0,0,0,0,0,0,0,0,0,0,0,0,0,0,0,0,0,0,0,0,0,0,0,0,0,0,0,0,0,0,0,0,0,0,0,0,0,0,0,0,0,0,0,0,0,0,0,0,0,0,0,0,0,0,0,0,0,0,0,0,0,0,0,0,0,0,0,0,0,0,0,0,0,0,0,0,0,0,0,0,0,0,0,0,0,0,0,0,0,0,0,0,0,0,0,0,0,0,0,0,0,0,0,0,0,0,0,0,0,0,0,0,0,0,0,0,0,0,0,0,0,0,0,0,0,0,0,0,0,0,0,0,0,0,0,0,0,0,0,0,0,0,0,0,0,0,0,0,0,0,0,0,0,0,0,0,0,0,0,0,0,0,0,0,0,0,0,0,0,0,0,0,0,0,0,0,0,0,0,0,0,0,0,0,0,0,0,0,0,0,0,0,0,0,0,0,0,0,0,0,0,0,0,0,0,0,0,0,0,0,0,0,0,0,0,0,0,0,0,0,0,0,0,0,0,0,0,0,0,0,0,0,0,0,0,0,0,0,0,0,0,0,0,0,0,0,0,0,0,0,0,0,0,0,0,0,0,0,0,0,0,0,0,0,0,0,0,0,0,0,0,0,0,0,0,0,0,0,0,0,0,0,0,0,0,0,0,0,0,0,0,0,0,0,0,0,0,0,0,0,0,0,0,0,0,0,0,0,0,0,0,0,0,0,0,0,0,0,0,0,0,0,0,0,0,0,0,0,0,0,0,0,0,0,0,0,0,0,0,0,0,0,0,0,0,0,0,0,0,0,0,0,0,0,0,0,0,0,0,0,0,0,0,0,0,0,0,0,0,0,0,0,0,0,0,0,0,0,0,0,0,0,0,0,0,0,0,0,0,0,0,0,0,0,0,0,0,0,0,0,0,0,0,0,0,0,0,0,0,0,0,0,0,0,0,0,0,0,0,0,0,0,0,0,0,0,0,0,0,0,0,0,0,0,0,0,0,0,0,0,0,0,0,0,0,0,0,0,0,0,0,0,0,0,0,0,0,0,0,0,0,0,0,0,0,0,0,0,0,0,0,0,0,0,0,0,0,0,0,0,0,0,0,0,0,0,0,0,0,0,0,0,0,0,0,0,0,0,0,0,0,0,0,0,0,0,0,0,0,0,0,0,0,0,0,0,0,0,0,0,0,0,0,0,0,0,0,0,0,0,0,0,0,0,0,0,0,0,0,0,0,0,0,0,0,0,0,0,0,0,0,0,0,0,0,0,0,0,0,0,0,0,0,0,0,0,0,0,0,0,0,0,0,0,0,0,0,0,0,0,0,0,0,0,0,0,0,0,0,0,0,0,0,0,0,0,0,0,0,0,0,0,0,0,0,0,0,0,0,0,0,0,0,0,0,0,0,0,0,0,0,0,0,0,0,0,0,0,0,0,0,0,0,0,0,0,0,0,0,0,0,0,0,0,0,0,0,0,0,0,0,0,0,0,0,0,0,0,0,0,0,0,0,0,0,0,0,0,0,0,0,0,0,0,0,0,0,0,0,0,0,0,0,0,0,0,0,0,0,0,0,0,0,0,0,0,0,0,0,0,0,0,0,0,0,0,0,0,0,0,0,0,0,0,0,0,0,0,0,0,0,0,0,0,0,0,0,0,0,0,0,0,0,0,0,0,0,0,0,0,0,0,0,0,0,0,0,0,0,0,0,0,0,0,0,0,0,0,0,0,0,0,0,0,0,0,0,0,0,0,0,0,0,0,0,0,0,0],"trees":[{"base_weights":[1.30240405E-2,-1.2591857E-1,2.4853067E-1,6.1306052E-2,-3.2439417E-1,6.1306052E-2,4.4044596E-1,-1.1248475E-1,6.1306052E-2,-6.4283496E-1,-1.4051037E-1,6.1306052E-2,3.5903397E-1,2.7857625E-1,6.649311E-1,-1.9144889E-3,-2.558935E-2,-1.2821921E-4,3.0718299E-4,-1.9625337E-3,-7.677735E-1,6.1306052E-2,-2.3907103E-1,3.0718299E-4,8.726419E-4,1.0530878E-3,2.85782E-3,2.3637912E-3,1.4541923E-1,8.07626E-1,2.3637912E-3,-1.2593202E-3,-1.2821921E-4,-1.0087298E0,-6.0480654E-1,-1.0285645E-3,3.0718299E-4,-3.9167267E-1,-1.0878278E-1,3.3893156E-1,3.0718299E-4,5.679804E-3,6.0968405E-1,-5.861905E-3,-4.042431E-3,-4.042431E-3,-4.430233E-1,-3.9167267E-1,-1.2538028E-3,-1.2538028E-3,2.718724E-3,1.47157E-1,2.3637912E-3,2.3637912E-3,3.8947791E-3,-3.1694223E-3,-1.9625337E-3,-1.9625337E-3,-1.2538028E-3,3.0718299E-4,-1.2538028E-3,1.922227E-3,3.0718299E-4],"categories":[],"categories_nodes":[],"categories_segments":[],"categories_sizes":[],"default_left":[0,0,0,0,0,0,0,0,0,0,0,0,0,0,0,0,0,0,0,0,0,0,0,0,0,0,0,0,0,0,0,0,0,0,0,0,0,0,0,0,0,0,0,0,0,0,0,0,0,0,0,0,0,0,0,0,0,0,0,0,0,0,0],"id":0,"left_children":[1,3,5,7,9,11,13,15,17,19,21,23,25,27,29,-1,31,-1,-1,-1,33,35,37,-1,-1,-1,-1,-1,39,41,-1,-1,-1,43,45,-1,-1,47,49,51,-1,-1,53,-1,-1,-1,55,57,-1,-1,59,61,-1,-1,-1,-1,-1,-1,-1,-1,-1,-1,-1],"loss_changes":[6.893557E1,7.029784E1,4.0573784E1,5.146928E0,4.5473007E1,7.826504E0,1.6687866E1,4.7762327E0,1.0616789E0,1.531739E1,1.3811072E1,9.167366E-1,5.121256E0,8.993561E0,6.1362E0,0E0,2.3731768E0,0E0,0E0,0E0,7.976532E0,2.9428763E0,7.6195564E0,0E0,0E0,0E0,0E0,0E0,6.4307566E0,6.357193E0,0E0,0E0,0E0,2.5187607E0,6.466614E0,0E0,0E0,2.1998978E0,5.9222794E0,4.1890297E0,0E0,0E0,3.0189056E0,0E0,0E0,0E0,2.9347115E0,1.4562035E0,0E0,0E0,6.3836713E0,3.4435844E0,0E0,0E0,0E0,0E0,0E0,0E0,0E0,0E0,0E0,0E0,0E0],"parents":[2147483647,0,0,1,1,2,2,3,3,4,4,5,5,6,6,7,7,8,8,9,9,10,10,11,11,12,12,13,13,14,14,16,16,20,20,21,21,22,22,28,28,29,29,33,33,34,34,37,37,38,38,39,39,42,42,46,46,47,47,50,50,51,51],"right_children":[2,4,6,8,10,12,14,16,18,20,22,24,26,28,30,-1,32,-1,-1,-1,34,36,38,-1,-1,-1,-1,-1,40,42,-1,-1,-1,44,46,-1,-1,48,50,52,-1,-1,54,-1,-1,-1,56,58,-1,-1,60,62,-1,-1,-1,-1,-1,-1,-1,-1,-1,-1,-1],"split_conditions":[1.105259E-2,2.019E3,2.019E3,-1.2385496E2,-2.8628595E-2,1.3741182E2,3.8783643E-2,1.2135484E1,1.0028116E1,-3.266669E0,-2.45921E0,2.018E3,5.136952E1,2.3895006E-1,5.7700914E-1,-1.9144889E-3,3.16E2,-1.2821921E-4,3.0718299E-4,-1.9625337E-3,-8.1246315E1,-1.8832811E2,-3.0399986E1,3.0718299E-4,8.726419E-4,1.0530878E-3,2.85782E-3,2.3637912E-3,-7.717042E-2,2.926761E0,2.3637912E-3,-1.2593202E-3,-1.2821921E-4,5.1801567E1,-4.999697E0,-1.0285645E-3,3.0718299E-4,2E0,2.021E3,3.7479448E0,3.0718299E-4,5.679804E-3,1.2877056E1,-5.861905E-3,-4.042431E-3,-4.042431E-3,5.0839222E1,1.3608884E1,-1.2538028E-3,-1.2538028E-3,2.3108366E0,5.4E2,2.3637912E-3,2.3637912E-3,3.8947791E-3,-3.1694223E-3,-1.9625337E-3,-1.9625337E-3,-1.2538028E-3,3.0718299E-4,-1.2538028E-3,1.922227E-3,3.0718299E-4],"split_indices":[0,37,37,34,0,34,0,15,14,3,3,37,13,10,3,0,39,0,0,0,34,34,34,0,0,0,0,0,3,27,0,0,0,13,4,0,0,16,37,4,0,0,14,0,0,0,13,14,0,0,3,39,0,0,0,0,0,0,0,0,0,0,0],"split_type":[0,0,0,0,0,0,0,0,0,0,0,0,0,0,0,0,0,0,0,0,0,0,0,0,0,0,0,0,0,0,0,0,0,0,0,0,0,0,0,0,0,0,0,0,0,0,0,0,0,0,0,0,0,0,0,0,0,0,0,0,0,0,0],"sum_hessian":[2.076059E3,1.3036177E3,7.724414E2,5.282281E2,7.7538965E2,3.061266E2,4.6631482E2,1.5674861E2,3.7147946E2,2.7983804E2,4.9555164E2,2.2676953E2,7.9357056E1,2.763984E2,1.8991641E2,4.0538433E1,1.16210175E2,3.0219559E1,3.412599E2,4.7417683E1,2.3242035E2,1.22106674E2,3.7344495E2,1.7443811E2,5.2331432E1,3.0710934E1,4.864612E1,8.943024E1,1.8696817E2,1.17438614E2,7.2477806E1,3.5378994E1,8.083118E1,8.672768E1,1.4569267E2,3.1693684E1,9.041299E1,1.6362785E2,2.098171E2,9.3606926E1,9.336124E1,3.8572933E1,7.886568E1,5.2577118E1,3.415056E1,4.0292744E1,1.05399925E2,1.3095142E2,3.2676434E1,6.3633053E1,1.4618405E2,6.1913242E1,3.1693684E1,3.0710934E1,4.8154743E1,5.2331432E1,5.3068493E1,7.272349E1,5.8227932E1,9.3606926E1,5.2577118E1,3.0956621E1,3.0956621E1],"tree_param":{"num_deleted":"0","num_feature":"43","num_nodes":"63","size_leaf_vector":"1"}},{"base_weights":[-1.5692111E-2,-2.780272E-1,9.6935496E-2,-9.0545855E-2,-6.134142E-1,-7.523946E-2,2.3363784E-1,-4.5369333E-4,-2.4976678E-1,-3.131947E-1,-7.245637E-1,-4.5369333E-4,5.4636627E-2,4.8971105E-1,1.3021368E-1,-2.5624502E-3,-4.5369333E-4,-5.344187E-1,-4.5369333E-4,-8.781472E-1,-4.4239634E-1,-9.0545855E-2,7.9199195E-2,2.4249436E-1,6.2316567E-1,7.9199195E-2,3.4323832E-1,-3.8051268E-3,-1.2424991E-3,-1.0570328E0,-7.233321E-1,-3.0990385E-3,-7.642722E-4,-4.5369333E-4,-2.8427057E-5,-2.8427057E-5,3.9683923E-4,3.9683923E-4,2.1687585E-3,4.8319E-1,4.231647E-3,7.9199195E-2,1.0583428E-3,2.1121876E-1,6.058775E-1,-6.201992E-3,-3.7758057E-3,-8.6153203E-1,-1.6180418E-3,3.050713E-3,2.1687585E-3,7.27591E-4,3.9683923E-4,2.0470906E-3,1.0583428E-3,2.0470906E-3,3.9148545E-3,-2.9674375E-3,-5.255826E-3],"categories":[],"categories_nodes":[],"categories_segments":[],"categories_sizes":[],"default_left":[0,0,0,0,0,0,0,0,0,0,0,0,0,0,0,0,0,0,0,0,0,0,0,0,0,0,0,0,0,0,0,0,0,0,0,0,0,0,0,0,0,0,0,0,0,0,0,0,0,0,0,0,0,0,0,0,0,0,0],"id":1,"left_children":[1,3,5,7,9,11,13,-1,15,17,19,-1,21,23,25,-1,-1,27,-1,29,31,33,35,37,39,41,43,-1,-1,45,47,-1,-1,-1,-1,-1,-1,-1,-1,49,-1,51,-1,53,55,-1,-1,57,-1,-1,-1,-1,-1,-1,-1,-1,-1,-1,-1],"loss_changes":[6.2483913E1,8.580092E1,3.4885864E1,1.9012184E0,1.2405182E1,9.3141365E0,2.1604305E1,0E0,4.658705E0,7.5937243E0,1.125679E1,0E0,1.3244433E1,7.1743126E0,1.324248E1,0E0,0E0,3.6932774E0,0E0,3.3106232E0,5.0971336E0,2.121369E0,8.1519985E-1,9.028871E0,3.7235947E0,2.6990829E0,9.317385E0,0E0,0E0,1.9732208E0,4.9640083E0,0E0,0E0,0E0,0E0,0E0,0E0,0E0,0E0,1.2339039E0,0E0,1.1807027E0,0E0,3.2458606E0,3.6331043E0,0E0,0E0,3.1880646E0,0E0,0E0,0E0,0E0,0E0,0E0,0E0,0E0,0E0,0E0,0E0],"parents":[2147483647,0,0,1,1,2,2,3,3,4,4,5,5,6,6,8,8,9,9,10,10,12,12,13,13,14,14,17,17,19,19,20,20,21,21,22,22,23,23,24,24,25,25,26,26,29,29,30,30,39,39,41,41,43,43,44,44,47,47],"right_children":[2,4,6,8,10,12,14,-1,16,18,20,-1,22,24,26,-1,-1,28,-1,30,32,34,36,38,40,42,44,-1,-1,46,48,-1,-1,-1,-1,-1,-1,-1,-1,50,-1,52,-1,54,56,-1,-1,58,-1,-1,-1,-1,-1,-1,-1,-1,-1,-1,-1],"split_conditions":[-2.0046806E-2,2.019E3,-2.8736115E1,2.018E3,-1.7921451E0,2.018E3,-2.1798096E0,-4.5369333E-4,1.4923096E3,5.174948E1,-8.926223E-3,-4.5369333E-4,1.2738855E-2,2.4258635E1,2.587527E-2,-2.5624502E-3,-4.5369333E-4,-4.042389E-2,-4.5369333E-4,9.5220125E-1,-3.506266E-2,2.9587812E1,-2.9845157E2,1E0,2.021E3,3.1137888E2,1.9537555E2,-3.8051268E-3,-1.2424991E-3,2.5308035E1,4.7197018E-2,-3.0990385E-3,-7.642722E-4,-4.5369333E-4,-2.8427057E-5,-2.8427057E-5,3.9683923E-4,3.9683923E-4,2.1687585E-3,-5.6148076E-1,4.231647E-3,1E0,1.0583428E-3,-5.5882964E0,2.3322508E-1,-6.201992E-3,-3.7758057E-3,2.2397563E-1,-1.6180418E-3,3.050713E-3,2.1687585E-3,7.27591E-4,3.9683923E-4,2.0470906E-3,1.0583428E-3,2.0470906E-3,3.9148545E-3,-2.9674375E-3,-5.255826E-3],"split_indices":[0,37,34,37,3,37,3,0,24,13,29,0,0,11,0,0,0,0,0,3,0,11,34,32,37,34,34,0,0,11,2,0,0,0,0,0,0,0,0,28,0,17,0,28,9,0,0,9,0,0,0,0,0,0,0,0,0,0,0],"split_type":[0,0,0,0,0,0,0,0,0,0,0,0,0,0,0,0,0,0,0,0,0,0,0,0,0,0,0,0,0,0,0,0,0,0,0,0,0,0,0,0,0,0,0,0,0,0,0,0,0,0,0,0,0,0,0,0,0,0,0],"sum_hessian":[2.0795151E3,6.2640247E2,1.4531125E3,2.363517E2,3.9005078E2,6.402321E2,8.1288043E2,1.7566663E2,6.0685066E1,1.1009925E2,2.7995154E2,2.0809926E2,4.3213287E2,2.2869707E2,5.8418335E2,3.0219313E1,3.0465752E1,6.242355E1,4.76757E1,1.7598561E2,1.0396593E2,2.1942636E2,2.1270651E2,8.499168E1,1.437054E2,3.8056213E2,2.0362125E2,3.0969225E1,3.1454325E1,7.2754005E1,1.03231606E2,6.096008E1,4.3005848E1,1.8502534E2,3.440103E1,3.3650063E1,1.7905646E2,5.1830475E1,3.31612E1,9.5069885E1,4.863551E1,3.4198953E2,3.857261E1,1.25762215E2,7.7859024E1,3.9328003E1,3.3426E1,7.299955E1,3.0232061E1,5.036055E1,4.4709335E1,6.9036446E1,2.7295306E2,3.1683826E1,9.407839E1,3.1439089E1,4.6419933E1,3.1952984E1,4.1046562E1],"tree_param":{"num_deleted":"0","num_feature":"43","num_nodes":"59","size_leaf_vector":"1"}},{"base_weights":[4.007693E-3,2.1631649E-1,-6.4136215E-2,2.661143E-1,-7.484521E-4,-1.7627986E-1,7.108236E-2,4.532119E-1,2.067749E-1,-5.259875E-2,-3.534882E-1,3.2220212E-1,-3.7667593E-3,7.0705794E-4,3.4689244E-3,1.4242284E-1,2.4752314E-3,-5.259875E-2,-2.870307E-3,-6.259748E-1,-2.635603E-1,1.5921769E-1,4.7556832E-1,1.5921769E-1,-5.259875E-2,-8.104984E-2,2.3794776E-1,-1.1729567E-3,-2.6355378E-4,-7.424181E-1,-1.2314488E-3,-5.259875E-2,-3.709336E-1,2.2639316E-3,7.9778366E-4,3.6674282E-3,1.4408273E-3,-5.259875E-2,7.9778366E-4,-2.6355378E-4,7.9778366E-4,3.767714E-4,-1.6816062E-3,9.0937026E-2,5.2237606E-1,-4.504195E-3,-2.4757222E-3,-2.6355378E-4,-1.5099819E-3,-7.280556E-1,-2.576851E-1,7.36019E-4,-2.6355378E-4,1.1196323E-3,-6.886594E-4,3.695815E-3,1.5365478E-3,-2.303829E-3,-4.713628E-3,-9.050235E-4,-3.2376056E-3],"categories":[],"categories_nodes":[],"categories_segments":[],"categories_sizes":[],"default_left":[0,0,0,0,0,0,0,0,0,0,0,0,0,0,0,0,0,0,0,0,0,0,0,0,0,0,0,0,0,0,0,0,0,0,0,0,0,0,0,0,0,0,0,0,0,0,0,0,0,0,0,0,0,0,0,0,0,0,0,0,0],"id":2,"left_children":[1,3,5,7,-1,9,11,13,15,17,19,21,23,-1,-1,25,-1,27,-1,29,31,33,35,37,39,41,43,-1,-1,45,-1,47,49,-1,-1,-1,-1,51,-1,-1,-1,-1,-1,53,55,-1,-1,-1,-1,57,59,-1,-1,-1,-1,-1,-1,-1,-1,-1,-1],"loss_changes":[3.0793535E1,9.876198E0,2.4316734E1,4.935459E0,0E0,3.4389E1,1.4179562E1,7.37311E0,6.5545607E0,9.821087E0,1.2615501E1,5.1365566E0,8.355415E0,0E0,0E0,6.802608E0,0E0,1.4642501E0,0E0,4.874012E0,1.1473846E1,3.462796E0,4.089239E0,3.9510508E0,2.6446903E0,4.412952E0,8.756677E0,0E0,0E0,3.4608383E0,0E0,2.9476848E0,1.142268E1,0E0,0E0,0E0,0E0,1.9448462E0,0E0,0E0,0E0,0E0,0E0,5.0171895E0,4.0765076E0,0E0,0E0,0E0,0E0,2.7517815E0,6.738513E0,0E0,0E0,0E0,0E0,0E0,0E0,0E0,0E0,0E0,0E0],"parents":[2147483647,0,0,1,1,2,2,3,3,5,5,6,6,7,7,8,8,9,9,10,10,11,11,12,12,15,15,17,17,19,19,20,20,21,21,22,22,23,23,24,24,25,25,26,26,29,29,31,31,32,32,37,37,43,43,44,44,49,49,50,50],"right_children":[2,4,6,8,-1,10,12,14,16,18,20,22,24,-1,-1,26,-1,28,-1,30,32,34,36,38,40,42,44,-1,-1,46,-1,48,50,-1,-1,-1,-1,52,-1,-1,-1,-1,-1,54,56,-1,-1,-1,-1,58,60,-1,-1,-1,-1,-1,-1,-1,-1,-1,-1],"split_conditions":[-2.6585238E0,1.59790745E1,3.612204E-1,1E0,-7.484521E-4,2.019E3,-5.5882964E0,3.5610336E-1,3.002914E1,2.9010667E-2,2.1023251E-1,1.3607126E1,2.4273884E1,7.0705794E-4,3.4689244E-3,2.018E3,2.4752314E-3,1.0973328E1,-2.870307E-3,1.10752045E2,-3.3291486E-1,1.220968E1,2.2683245E-1,2.1819414E-1,7.896811E0,2.4249639E-1,3.719603E-1,-1.1729567E-3,-2.6355378E-4,2.184463E0,-1.2314488E-3,2.7012835E1,4.709369E1,2.2639316E-3,7.9778366E-4,3.6674282E-3,1.4408273E-3,7.97561E0,7.9778366E-4,-2.6355378E-4,7.9778366E-4,3.767714E-4,-1.6816062E-3,9.02439E0,-1.4771026E0,-4.504195E-3,-2.4757222E-3,-2.6355378E-4,-1.5099819E-3,4.495701E1,5.757521E1,7.36019E-4,-2.6355378E-4,1.1196323E-3,-6.886594E-4,3.695815E-3,1.5365478E-3,-2.303829E-3,-4.713628E-3,-9.050235E-4,-3.2376056E-3],"split_indices":[3,15,5,17,0,37,28,5,12,1,9,15,12,0,0,37,0,15,0,35,3,15,9,9,30,9,5,0,0,3,0,12,13,0,0,0,0,40,0,0,0,0,0,40,28,0,0,0,0,13,13,0,0,0,0,0,0,0,0,0,0],"split_type":[0,0,0,0,0,0,0,0,0,0,0,0,0,0,0,0,0,0,0,0,0,0,0,0,0,0,0,0,0,0,0,0,0,0,0,0,0,0,0,0,0,0,0,0,0,0,0,0,0,0,0,0,0,0,0,0,0,0,0,0,0],"sum_hessian":[2.0743713E3,5.0653696E2,1.5678345E3,4.488053E2,5.773164E1,8.608227E2,7.070118E2,1.0047195E2,3.4833337E2,3.412611E2,5.195616E2,1.6384814E2,5.4316364E2,4.6925125E1,5.354682E1,2.9011743E2,5.8215946E1,3.1104047E2,3.0220636E1,1.2291154E2,3.9665005E2,7.3204666E1,9.064347E1,1.8768666E2,3.5547696E2,8.376701E1,2.063504E2,3.1203337E1,2.7983713E2,9.046256E1,3.2448975E1,1.1254412E2,2.8410596E2,3.1934338E1,4.1270332E1,3.3411568E1,5.7231903E1,6.977887E1,1.1790779E2,3.115028E2,4.397413E1,5.0357197E1,3.3409817E1,1.4028366E2,6.606674E1,5.5066288E1,3.5396275E1,7.519279E1,3.735133E1,6.341106E1,2.2069489E2,3.6607563E1,3.317131E1,9.1638E1,4.8645657E1,3.561157E1,3.0455175E1,3.318014E1,3.0230917E1,1.8899197E2,3.1702915E1],"tree_param":{"num_deleted":"0","num_feature":"43","num_nodes":"61","size_leaf_vector":"1"}},{"base_weights":[-8.085674E-5,-1.6578268E-1,1.3297325E-1,-2.4542981E-1,-1.640471E-2,3.7883914E-1,3.852287E-2,-1.5807585E-1,-5.345871E-1,-1.3091727E-1,-1.640471E-2,1.2396739E-1,5.0796723E-1,-0E0,3.0963654E-3,-3.6882383E-1,-1.3091727E-1,-8.1506E-1,-1.5891142E-1,-8.219822E-5,-6.5598026E-4,-6.5598026E-4,-1.640471E-2,-1.640471E-2,1.5832008E-3,3.9836127E-1,4.7000786E-3,1.7542903E-1,-1.640471E-2,-5.0690883E-1,-6.5598026E-4,-1.3091727E-1,-2.20757E-3,-2.943389E-3,-5.455718E-3,-6.5598026E-4,-2.0625251E-3,-6.5598026E-4,-8.219822E-5,-8.219822E-5,7.505013E-4,1.5832008E-3,6.37825E-1,3.492075E-1,2.9043725E-2,-1.640471E-2,1.4767345E-3,-1.5979607E-3,-3.396857E-3,-1.2629887E-3,-6.5598026E-4,4.093712E-3,1.7229185E-3,4.901292E-1,9.4764173E-4,-1.640471E-2,9.4764173E-4,6.972681E-4,-1.640471E-2,9.4764173E-4,3.3356112E-3,4.3272178E-4,-8.219822E-5,-8.219822E-5,3.0753494E-4],"categories":[],"categories_nodes":[],"categories_segments":[],"categories_sizes":[],"default_left":[0,0,0,0,0,0,0,0,0,0,0,0,0,0,0,0,0,0,0,0,0,0,0,0,0,0,0,0,0,0,0,0,0,0,0,0,0,0,0,0,0,0,0,0,0,0,0,0,0,0,0,0,0,0,0,0,0,0,0,0,0,0,0,0,0],"id":3,"left_children":[1,3,5,7,9,11,13,15,17,19,21,23,25,27,-1,29,31,33,35,-1,-1,-1,37,39,-1,41,-1,43,45,47,-1,49,-1,-1,-1,-1,-1,-1,-1,-1,-1,-1,51,53,55,57,-1,-1,-1,-1,-1,-1,-1,59,-1,61,-1,-1,63,-1,-1,-1,-1,-1,-1],"loss_changes":[4.657752E1,1.3811567E1,2.687761E1,1.6604237E1,3.263372E0,1.0151989E1,2.0179337E1,7.527213E0,1.52880745E1,1.9390578E0,1.204274E0,5.7548857E0,9.266212E0,1.1358551E1,0E0,6.628044E0,5.492145E0,3.8437881E0,3.018376E0,0E0,0E0,0E0,1.0222663E0,2.4914048E0,0E0,7.1000023E0,0E0,7.722576E0,5.6938677E0,3.590805E0,0E0,8.7735605E-1,0E0,0E0,0E0,0E0,0E0,0E0,0E0,0E0,0E0,0E0,3.3356743E0,4.3953896E0,4.263824E0,1.6540825E0,0E0,0E0,0E0,0E0,0E0,0E0,0E0,4.5581055E0,0E0,1.3615918E0,0E0,0E0,7.618234E-1,0E0,0E0,0E0,0E0,0E0,0E0],"parents":[2147483647,0,0,1,1,2,2,3,3,4,4,5,5,6,6,7,7,8,8,9,9,10,10,11,11,12,12,13,13,15,15,16,16,17,17,18,18,22,22,23,23,25,25,27,27,28,28,29,29,31,31,42,42,43,43,44,44,45,45,53,53,55,55,58,58],"right_children":[2,4,6,8,10,12,14,16,18,20,22,24,26,28,-1,30,32,34,36,-1,-1,-1,38,40,-1,42,-1,44,46,48,-1,50,-1,-1,-1,-1,-1,-1,-1,-1,-1,-1,52,54,56,58,-1,-1,-1,-1,-1,-1,-1,60,-1,62,-1,-1,64,-1,-1,-1,-1,-1,-1],"split_conditions":[-3.0399986E1,3.729742E-1,-2.2546976E0,2.023E3,2.018E3,2.4214079E1,2.8329214E-1,2.1053953E-1,2.5269331E1,-7.775983E-3,1.23031035E-1,3.7799475E-1,1.5112776E-1,2.019E3,3.0963654E-3,1.0178351E2,2.6929036E-1,-3.8909808E-1,-4.6120828E-1,-8.219822E-5,-6.5598026E-4,-6.5598026E-4,2.1460436E-1,2.2731814E-1,1.5832008E-3,5.3700846E-1,4.7000786E-3,-6.2175295E-3,3.9618433E-1,2.019E3,-6.5598026E-4,1E0,-2.20757E-3,-2.943389E-3,-5.455718E-3,-6.5598026E-4,-2.0625251E-3,-6.5598026E-4,-8.219822E-5,-8.219822E-5,7.505013E-4,1.5832008E-3,-5.082424E-1,1.2929088E-1,4.1980598E-2,-9.657895E0,1.4767345E-3,-1.5979607E-3,-3.396857E-3,-1.2629887E-3,-6.5598026E-4,4.093712E-3,1.7229185E-3,1.15056075E-1,9.4764173E-4,1E0,9.4764173E-4,6.972681E-4,1.4902349E-1,9.4764173E-4,3.3356112E-3,4.3272178E-4,-8.219822E-5,-8.219822E-5,3.0753494E-4],"split_indices":[34,5,3,37,37,11,9,9,11,1,7,5,7,37,0,35,9,28,3,0,0,0,9,9,0,4,0,1,5,37,0,16,0,0,0,0,0,0,0,0,0,0,28,7,2,28,0,0,0,0,0,0,0,7,0,17,0,0,7,0,0,0,0,0,0],"split_type":[0,0,0,0,0,0,0,0,0,0,0,0,0,0,0,0,0,0,0,0,0,0,0,0,0,0,0,0,0,0,0,0,0,0,0,0,0,0,0,0,0,0,0,0,0,0,0,0,0,0,0,0,0,0,0,0,0,0,0,0,0,0,0,0,0],"sum_hessian":[2.0790637E3,9.2912164E2,1.149942E3,6.5423834E2,2.748833E2,3.1434448E2,8.355976E2,5.0772614E2,1.4651222E2,9.262733E1,1.8225597E2,1.0978965E2,2.0455482E2,7.847583E2,5.083928E1,1.3051376E2,3.7721237E2,8.088287E1,6.562935E1,3.1203697E1,6.142363E1,4.0529175E1,1.4172678E2,7.713225E1,3.2657402E1,1.6821268E2,3.6342155E1,3.0117944E2,4.8357886E2,9.61081E1,3.440566E1,3.283138E2,4.889856E1,4.990378E1,3.0979088E1,3.489917E1,3.0730179E1,3.6602543E1,1.0512424E2,3.733973E1,3.9792522E1,9.331842E1,7.489425E1,1.3314456E2,1.6803488E2,4.3348264E2,5.0096203E1,4.4474705E1,5.1633396E1,4.3252556E1,2.8506125E2,4.1988266E1,3.290598E1,8.229381E1,5.085076E1,1.3732361E2,3.0711264E1,3.660486E1,3.9687778E2,3.193533E1,5.035848E1,3.5620846E1,1.0170277E2,3.2020255E2,7.667525E1],"tree_param":{"num_deleted":"0","num_feature":"43","num_nodes":"65","size_leaf_vector":"1"}},{"base_weights":[-1.07482895E-2,-2.6134422E-1,9.760474E-2,-8.1869744E-2,-5.67765E-1,-6.829229E-2,1.8185718E-1,-4.102204E-4,-2.409571E-1,-2.2140835E-1,-6.5622294E-1,2.3153295E-1,-8.1869744E-2,3.0466664E-1,7.558432E-2,-3.0153608E-3,-4.102204E-4,-2.701658E-3,-4.102204E-4,-7.9517984E-1,-3.8548928E-1,2.904987E-3,2.8854849E-2,-8.1869744E-2,8.508105E-4,5.206065E-2,3.987102E-1,1.3334387E-2,2.73883E-1,-5.750941E-3,-6.509312E-1,-5.5315566E-1,-4.102204E-4,1.2143649E-3,-4.102204E-4,-8.1869744E-2,2.2029506E-4,1.3942878E-3,-8.1869744E-2,6.802597E-2,5.514823E-1,3.3249435E-1,-4.301859E-2,4.1099533E-1,-0E0,-4.621438E-3,-4.85635E-1,-3.981594E-3,-1.6624031E-3,2.2029506E-4,-8.1869744E-2,-4.102204E-4,4.9203367E-4,1.2647363E-3,-3.8178122E-4,3.1070977E-1,7.109982E-1,7.252305E-4,2.961557E-3,-8.1869744E-2,1.0767692E-1,9.416713E-4,2.907628E-3,-3.5246671E-3,-1.1928333E-3,-4.102204E-4,1.358069E-4,2.5597091E-3,1.5520687E-3,2.5597091E-3,4.983231E-3,-4.102204E-4,2.089587E-4,-4.102204E-4,7.252305E-4],"categories":[],"categories_nodes":[],"categories_segments":[],"categories_sizes":[],"default_left":[0,0,0,0,0,0,0,0,0,0,0,0,0,0,0,0,0,0,0,0,0,0,0,0,0,0,0,0,0,0,0,0,0,0,0,0,0,0,0,0,0,0,0,0,0,0,0,0,0,0,0,0,0,0,0,0,0,0,0,0,0,0,0,0,0,0,0,0,0,0,0,0,0,0,0],"id":4,"left_children":[1,3,5,7,9,11,13,-1,15,17,19,21,23,25,27,-1,-1,-1,-1,29,31,-1,33,35,-1,37,39,41,43,-1,45,47,-1,-1,-1,49,-1,-1,51,53,55,57,59,61,-1,-1,63,-1,-1,-1,65,-1,-1,-1,-1,67,69,-1,-1,71,73,-1,-1,-1,-1,-1,-1,-1,-1,-1,-1,-1,-1,-1,-1],"loss_changes":[5.7519196E1,7.207922E1,2.0772108E1,1.9203844E0,1.1341133E1,1.1175145E1,1.260984E1,0E0,7.86833E0,5.758917E0,1.0731888E1,7.737067E0,3.23424E0,1.0345432E1,6.632148E0,0E0,0E0,0E0,0E0,8.670929E0,7.3832664E0,0E0,3.45385E0,1.4321547E0,0E0,5.0625744E0,1.5924355E1,8.388337E0,5.202095E0,0E0,5.7611427E0,3.6044006E0,0E0,0E0,0E0,1.0653505E0,0E0,0E0,2.3355136E0,3.5690591E0,7.7654114E0,4.817888E0,6.011329E0,2.8525543E0,0E0,0E0,4.923994E0,0E0,0E0,0E0,7.5339985E-1,0E0,0E0,0E0,0E0,1.9217587E0,7.071556E0,0E0,0E0,1.3517685E0,3.5447915E0,0E0,0E0,0E0,0E0,0E0,0E0,0E0,0E0,0E0,0E0,0E0,0E0,0E0,0E0],"parents":[2147483647,0,0,1,1,2,2,3,3,4,4,5,5,6,6,8,8,9,9,10,10,11,11,12,12,13,13,14,14,19,19,20,20,22,22,23,23,25,25,26,26,27,27,28,28,30,30,31,31,35,35,38,38,39,39,40,40,41,41,42,42,43,43,46,46,50,50,55,55,56,56,59,59,60,60],"right_children":[2,4,6,8,10,12,14,-1,16,18,20,22,24,26,28,-1,-1,-1,-1,30,32,-1,34,36,-1,38,40,42,44,-1,46,48,-1,-1,-1,50,-1,-1,52,54,56,58,60,62,-1,-1,64,-1,-1,-1,66,-1,-1,-1,-1,68,70,-1,-1,72,74,-1,-1,-1,-1,-1,-1,-1,-1,-1,-1,-1,-1,-1,-1],"split_conditions":[-2.0046806E-2,4E-1,1.2512299E1,3E-1,-2.45921E0,1E0,-7.1908313E-1,-4.102204E-4,1.4881113E3,1.26946125E1,-8.926223E-3,1.0494147E1,5.0867703E-2,3E-1,2E0,-3.0153608E-3,-4.102204E-4,-2.701658E-3,-4.102204E-4,4.7165024E1,-2.9561408E-2,2.904987E-3,7.055702E0,3.0390996E-1,8.508105E-4,3.6295369E0,2.2031628E-3,-7.1726108E0,5.3982525E1,-5.750941E-3,8.068692E-2,-4.3884645E0,-4.102204E-4,1.2143649E-3,-4.102204E-4,9.421173E0,2.2029506E-4,1.3942878E-3,7.6909107E-1,-3.6770314E-1,2.1643427E-1,1.6475774E-2,-7.974934E-1,1.7304925E0,-0E0,-4.621438E-3,-4.1634787E-2,-3.981594E-3,-1.6624031E-3,2.2029506E-4,2.184337E0,-4.102204E-4,4.9203367E-4,1.2647363E-3,-3.8178122E-4,1.4568476E1,-1.2214497E0,7.252305E-4,2.961557E-3,2.2322886E0,0E0,9.416713E-4,2.907628E-3,-3.5246671E-3,-1.1928333E-3,-4.102204E-4,1.358069E-4,2.5597091E-3,1.5520687E-3,2.5597091E-3,4.983231E-3,-4.102204E-4,2.089587E-4,-4.102204E-4,7.252305E-4],"split_indices":[0,38,14,38,3,17,3,0,24,14,29,14,0,38,16,0,0,0,0,13,0,0,27,10,0,27,0,28,13,0,3,30,0,0,0,14,0,0,29,4,8,0,29,3,0,0,0,0,0,0,29,0,0,0,0,14,29,0,0,26,18,0,0,0,0,0,0,0,0,0,0,0,0,0,0],"split_type":[0,0,0,0,0,0,0,0,0,0,0,0,0,0,0,0,0,0,0,0,0,0,0,0,0,0,0,0,0,0,0,0,0,0,0,0,0,0,0,0,0,0,0,0,0,0,0,0,0,0,0,0,0,0,0,0,0,0,0,0,0,0,0,0,0,0,0,0,0,0,0,0,0,0,0],"sum_hessian":[2.08176E3,6.303361E2,1.4514238E3,2.4349425E2,3.868419E2,4.8489902E2,9.6652484E2,1.8206293E2,6.1431316E1,8.258707E1,3.0425482E2,1.0586949E2,3.7902954E2,4.420451E2,5.2447974E2,3.0228222E1,3.1203093E1,3.0231441E1,5.2355625E1,1.958035E2,1.084513E2,3.5617146E1,7.025235E1,3.3802386E2,4.1005653E1,1.2378338E2,3.1826172E2,4.048488E2,1.1963092E2,5.0439526E1,1.4536398E2,7.551299E1,3.2938313E1,3.5126484E1,3.5125866E1,2.928263E2,4.5197586E1,5.0839016E1,7.294436E1,1.0367106E2,2.1459067E2,6.189558E1,3.4295322E2,8.106294E1,3.8567974E1,4.894514E1,9.641884E1,3.1238583E1,4.427441E1,3.316593E1,2.5966037E2,4.0771538E1,3.2172825E1,4.7904133E1,5.5766926E1,9.060209E1,1.2398858E2,3.0958055E1,3.0937525E1,1.7589952E2,1.670537E2,3.954673E1,4.1516216E1,4.698466E1,4.9434174E1,2.1593393E2,4.3726425E1,3.8547234E1,5.2054855E1,7.439224E1,4.959633E1,1.05144806E2,7.0754715E1,3.906034E1,1.2799335E2],"tree_param":{"num_deleted":"0","num_feature":"43","num_nodes":"75","size_leaf_vector":"1"}},{"base_weights":[-6.0201194E-3,-2.3810714E-1,1.3803661E-1,-2.5070907E-4,-5.334781E-1,-5.0035268E-2,2.2659709E-1,-7.229183E-1,-3.5953796E-1,1.2382551E-1,-2.5070907E-4,1.3050101E-2,3.952587E-1,-5.7285696E-1,-8.8986194E-1,-1.5774561E-1,-5.004539E-1,3.0006903E-1,3.6895122E-2,-5.0035268E-2,1.4117189E-1,2.041544E-1,5.837567E-1,-3.9863633E-3,-2.711903E-3,-2.7418083E-3,-1.011545E0,-3.042902E-1,-2.5070907E-4,-2.711903E-3,-6.620407E-4,3.2204142E-4,2.0892892E-3,1.8486845E-4,8.911777E-4,-2.5070907E-4,3.2609294E-4,-2.5070907E-4,2.041544E-1,1.0229457E-3,3.4766698E-1,8.147275E-1,4.9171805E-1,-3.6432564E-3,-5.816589E-3,-2.3724206E-3,-2.5070907E-4,1.0229457E-3,-2.5070907E-4,3.527992E-3,1.0229457E-3,3.273069E-3,5.5334345E-3,3.357943E-1,3.273069E-3,1.0229457E-3,2.7976958E-3],"categories":[],"categories_nodes":[],"categories_segments":[],"categories_sizes":[],"default_left":[0,0,0,0,0,0,0,0,0,0,0,0,0,0,0,0,0,0,0,0,0,0,0,0,0,0,0,0,0,0,0,0,0,0,0,0,0,0,0,0,0,0,0,0,0,0,0,0,0,0,0,0,0,0,0,0,0],"id":5,"left_children":[1,3,5,-1,7,9,11,13,15,17,-1,19,21,23,25,27,29,31,33,35,37,39,41,-1,-1,-1,43,45,-1,-1,-1,-1,-1,-1,-1,-1,-1,-1,47,-1,49,51,53,-1,-1,-1,-1,-1,-1,-1,-1,-1,-1,55,-1,-1,-1],"loss_changes":[7.1145805E1,8.806839E1,2.2716272E1,0E0,1.5816452E1,5.4269943E0,3.210143E1,4.7489014E0,7.330021E0,5.1747794E0,0E0,7.1637473E0,2.698996E1,2.2520752E0,2.8776932E0,4.2113156E0,7.4023895E0,2.242857E0,1.0213838E0,7.274072E-1,5.2578917E0,1.5831404E0,5.889946E0,0E0,0E0,0E0,1.0708466E0,4.245078E0,0E0,0E0,0E0,0E0,0E0,0E0,0E0,0E0,0E0,0E0,3.6301937E0,0E0,7.7141457E0,4.609375E0,6.8329926E0,0E0,0E0,0E0,0E0,0E0,0E0,0E0,0E0,0E0,0E0,4.8955364E0,0E0,0E0,0E0],"parents":[2147483647,0,0,1,1,2,2,4,4,5,5,6,6,7,7,8,8,9,9,11,11,12,12,13,13,14,14,15,15,16,16,17,17,18,18,19,19,20,20,21,21,22,22,26,26,27,27,38,38,40,40,41,41,42,42,53,53],"right_children":[2,4,6,-1,8,10,12,14,16,18,-1,20,22,24,26,28,30,32,34,36,38,40,42,-1,-1,-1,44,46,-1,-1,-1,-1,-1,-1,-1,-1,-1,-1,48,-1,50,52,54,-1,-1,-1,-1,-1,-1,-1,-1,-1,-1,56,-1,-1,-1],"split_conditions":[-1.176702E-2,2.019E3,2.018E3,-2.5070907E-4,-3.555468E-2,3.5737414E0,1.4823008E-2,6.21E2,5.4E2,6.97E2,-2.5070907E-4,-2.882911E0,1.3091798E-1,1.3041666E-1,2.0110035E-1,1.4429077E1,2.6319936E-1,2.2702868E-1,2.3886141E-1,8.607661E-3,3.3938485E-1,1.2563807E-1,-5.9119296E0,-3.9863633E-3,-2.711903E-3,-2.7418083E-3,1.3628595E1,-2.104064E-2,-2.5070907E-4,-2.711903E-3,-6.620407E-4,3.2204142E-4,2.0892892E-3,1.8486845E-4,8.911777E-4,-2.5070907E-4,3.2609294E-4,-2.5070907E-4,1.9360281E1,1.0229457E-3,1.2847231E-1,4.0793214E-2,1.4719412E-1,-3.6432564E-3,-5.816589E-3,-2.3724206E-3,-2.5070907E-4,1.0229457E-3,-2.5070907E-4,3.527992E-3,1.0229457E-3,3.273069E-3,5.5334345E-3,1.4244955E1,3.273069E-3,1.0229457E-3,2.7976958E-3],"split_indices":[0,37,37,0,0,27,0,39,39,39,0,29,7,7,9,15,29,9,9,0,6,7,28,0,0,0,15,0,0,0,0,0,0,0,0,0,0,0,27,0,7,0,7,0,0,0,0,0,0,0,0,0,0,14,0,0,0],"split_type":[0,0,0,0,0,0,0,0,0,0,0,0,0,0,0,0,0,0,0,0,0,0,0,0,0,0,0,0,0,0,0,0,0,0,0,0,0,0,0,0,0,0,0,0,0,0,0,0,0,0,0,0,0,0,0,0,0],"sum_hessian":[2.0979783E3,8.0567175E2,1.2923065E3,3.113157E2,4.9435608E2,4.0159656E2,8.9070996E2,2.3056375E2,2.6379233E2,1.657918E2,2.3580478E2,3.9675528E2,4.9395468E2,1.296773E2,1.0088644E2,1.13330284E2,1.5046204E2,8.571959E1,8.007221E1,1.665661E2,2.3018918E2,1.8512378E2,3.088309E2,3.74064E1,9.227091E1,3.1744593E1,6.9141846E1,7.915999E1,3.4170296E1,9.85967E1,5.186534E1,3.241926E1,5.330033E1,4.519329E1,3.4878918E1,1.3119759E2,3.5368515E1,5.625702E1,1.7393216E2,1.2031E2,6.481378E1,8.0010185E1,2.2882072E2,3.0512268E1,3.8629574E1,4.893732E1,3.0222666E1,1.3143045E2,4.2501698E1,3.1668198E1,3.3145584E1,4.7377472E1,3.2632713E1,1.3774269E2,9.107803E1,8.44653E1,5.327739E1],"tree_param":{"num_deleted":"0","num_feature":"43","num_nodes":"57","size_leaf_vector":"1"}},{"base_weights":[-1.6824583E-2,-2.677717E-1,9.221942E-2,-4.3981528E-4,-5.3207916E-1,-8.777614E-2,2.329748E-1,-2.5499395E-1,-5.961154E-1,3.6376962E-4,-8.777614E-2,1.6890608E-1,4.4236222E-1,-4.3981528E-4,-1.9342289E-3,-4.4199118E-1,-7.0968807E-1,-4.3981528E-4,-7.588405E-3,4.2447934E-1,8.839826E-2,3.6376962E-4,6.477173E-1,-6.105985E-1,-2.9629678E-1,-5.2271322E-3,-5.9587604E-1,-3.8022823E-5,-8.777614E-2,1.9354813E-1,6.552889E-1,2.839527E-1,7.259933E-2,1.8046263E-3,8.3733463E-1,-4.387921E-3,-2.2720662E-3,-2.2720662E-3,-4.3981528E-4,-3.928104E-3,-4.549914E-1,-4.3981528E-4,-3.8022823E-5,3.6376962E-4,2.1266115E-3,4.4247373E-3,2.1266115E-3,4.9457276E-1,3.6376962E-4,1.0283294E-3,3.6376962E-4,5.096529E-3,2.777673E-3,-3.0069496E-3,-1.3277673E-3,1.252034E-3,3.3857666E-3],"categories":[],"categories_nodes":[],"categories_segments":[],"categories_sizes":[],"default_left":[0,0,0,0,0,0,0,0,0,0,0,0,0,0,0,0,0,0,0,0,0,0,0,0,0,0,0,0,0,0,0,0,0,0,0,0,0,0,0,0,0,0,0,0,0,0,0,0,0,0,0,0,0,0,0,0,0],"id":6,"left_children":[1,3,5,-1,7,9,11,13,15,-1,17,19,21,-1,-1,23,25,-1,27,29,31,-1,33,35,37,-1,39,-1,41,43,45,47,49,-1,51,-1,-1,-1,-1,-1,53,-1,-1,-1,-1,-1,-1,55,-1,-1,-1,-1,-1,-1,-1,-1,-1],"loss_changes":[5.754952E1,6.9180405E1,3.7918938E1,0E0,7.4604034E0,8.801304E0,1.0984329E1,3.116106E0,5.6172943E0,0E0,2.582386E0,1.3161514E1,1.6703571E1,0E0,0E0,3.6394615E0,6.5141068E0,0E0,9.777841E-1,7.640526E0,4.969581E0,0E0,6.3893623E0,4.935032E0,5.5861797E0,0E0,3.443859E0,0E0,8.1224525E-1,4.9729147E0,4.8471985E0,7.3358965E0,1.3083481E0,0E0,2.4215202E0,0E0,0E0,0E0,0E0,0E0,2.3162289E0,0E0,0E0,0E0,0E0,0E0,0E0,2.4634876E0,0E0,0E0,0E0,0E0,0E0,0E0,0E0,0E0,0E0],"parents":[2147483647,0,0,1,1,2,2,4,4,5,5,6,6,7,7,8,8,10,10,11,11,12,12,15,15,16,16,18,18,19,19,20,20,22,22,23,23,24,24,26,26,28,28,29,29,30,30,31,31,32,32,34,34,40,40,47,47],"right_children":[2,4,6,-1,8,10,12,14,16,-1,18,20,22,-1,-1,24,26,-1,28,30,32,-1,34,36,38,-1,40,-1,42,44,46,48,50,-1,52,-1,-1,-1,-1,-1,54,-1,-1,-1,-1,-1,-1,56,-1,-1,-1,-1,-1,-1,-1,-1,-1],"split_conditions":[-2.0046806E-2,3E-1,-3.1781595E1,-4.3981528E-4,1E0,-6.2052474E0,8E-1,4.11E2,5.4E2,3.6376962E-4,1.2348005E0,1E0,7.2437944E-3,-4.3981528E-4,-1.9342289E-3,-6.0276496E-1,-5.522266E-2,-4.3981528E-4,2.385741E-1,1.2585367E2,2.3300348E-1,3.6376962E-4,1.3734658E-1,-2.1337984E1,-2.3429682E0,-5.2271322E-3,2.4478588E1,-3.8022823E-5,2.596877E-1,3E-1,7.02E2,6.68E2,-5.54044E0,1.8046263E-3,-1.2214497E0,-4.387921E-3,-2.2720662E-3,-2.2720662E-3,-4.3981528E-4,-3.928104E-3,2.3834743E-1,-4.3981528E-4,-3.8022823E-5,3.6376962E-4,2.1266115E-3,4.4247373E-3,2.1266115E-3,-1.0332925E-2,3.6376962E-4,1.0283294E-3,3.6376962E-4,5.096529E-3,2.777673E-3,-3.0069496E-3,-1.3277673E-3,1.252034E-3,3.3857666E-3],"split_indices":[0,38,34,0,17,28,38,39,39,0,29,17,0,0,0,30,0,0,9,34,10,0,7,34,29,0,11,0,9,38,39,39,28,0,29,0,0,0,0,0,8,0,0,0,0,0,0,2,0,0,0,0,0,0,0,0,0],"split_type":[0,0,0,0,0,0,0,0,0,0,0,0,0,0,0,0,0,0,0,0,0,0,0,0,0,0,0,0,0,0,0,0,0,0,0,0,0,0,0,0,0,0,0,0,0,0,0,0,0,0,0,0,0,0,0,0,0],"sum_hessian":[2.0667642E3,6.279305E2,1.4388337E3,1.7888179E2,4.4904868E2,6.2127344E2,8.1756024E2,8.9311195E1,3.597375E2,1.1813043E2,5.03143E2,6.327343E2,1.8482593E2,3.0509958E1,5.880124E1,1.6091544E2,1.9882205E2,3.7195758E2,1.3118542E2,1.4632108E2,4.8641324E2,6.042516E1,1.2440077E2,6.814978E1,9.276565E1,4.38215E1,1.5500055E2,6.903329E1,6.215214E1,7.7337364E1,6.89837E1,1.0312165E2,3.832916E2,5.301164E1,7.138914E1,3.4700676E1,3.3449104E1,6.2751396E1,3.0014254E1,5.9060154E1,9.594039E1,3.0708004E1,3.1444138E1,3.73209E1,4.001646E1,3.854238E1,3.0441324E1,6.3097916E1,4.0023735E1,5.743985E1,3.2585175E2,3.8023396E1,3.3365738E1,4.8704742E1,4.7235653E1,3.1423857E1,3.1674057E1],"tree_param":{"num_deleted":"0","num_feature":"43","num_nodes":"57","size_leaf_vector":"1"}},{"base_weights":[1.651541E-2,-1.4734605E-1,8.864471E-2,-2.9350668E-2,-3.318315E-1,1.9903147E-1,5.3991694E-3,-2.9350668E-2,-1.3280223E-3,-2.9948695E-2,-5.253186E-1,8.9000516E-2,3.6858895E-1,2.2881857E-1,-2.9350668E-2,-1.4706585E-4,-8.0498616E-4,-2.819094E-3,-1.4706585E-4,-4.9532317E-3,-3.7310454E-1,4.7210354E-2,2.2186849E-3,5.864217E-1,2.2074603E-1,3.220349E-1,-1.4706585E-4,-2.9350668E-2,1.8874711E-3,-3.2094163E-3,-1.9751395E-1,1.8245852E-1,-2.9350668E-2,1.1321584E-3,4.3474627E-3,8.268239E-2,2.9644684E-3,4.557831E-4,4.723834E-1,8.692752E-2,-2.9350668E-2,-2.2449226E-3,-1.4706585E-4,-1.4706585E-4,2.6579094E-1,-1.4706585E-4,9.22776E-4,-1.4706585E-4,1.8967745E-3,9.871834E-4,3.8285612E-3,-2.9350668E-2,3.218084E-1,4.638009E-2,-1.4706585E-4,8.0015504E-4,2.595218E-3,-1.4706585E-4,5.371801E-4,5.7091744E-4,2.426941E-3,-1.4706585E-4,2.1038055E-3],"categories":[],"categories_nodes":[],"categories_segments":[],"categories_sizes":[],"default_left":[0,0,0,0,0,0,0,0,0,0,0,0,0,0,0,0,0,0,0,0,0,0,0,0,0,0,0,0,0,0,0,0,0,0,0,0,0,0,0,0,0,0,0,0,0,0,0,0,0,0,0,0,0,0,0,0,0,0,0,0,0,0,0],"id":7,"left_children":[1,3,5,7,9,11,13,15,-1,17,19,21,23,25,27,-1,-1,-1,-1,-1,29,31,-1,33,35,37,-1,39,-1,-1,41,43,45,-1,-1,47,-1,-1,49,51,53,-1,-1,-1,55,-1,-1,-1,-1,-1,-1,57,59,61,-1,-1,-1,-1,-1,-1,-1,-1,-1],"loss_changes":[2.5192768E1,2.3635437E1,1.3452689E1,3.5891733E0,2.0367733E1,1.161042E1,1.1520257E1,1.0875623E0,0E0,1.2396077E1,1.4458416E1,5.9550333E0,7.54681E0,5.269294E0,8.757069E0,0E0,0E0,0E0,0E0,0E0,7.5479755E0,6.4474177E0,0E0,8.949131E0,7.797453E0,4.6532164E0,0E0,2.5577123E0,0E0,0E0,6.510706E0,4.610659E0,1.9319823E0,0E0,0E0,7.823919E0,0E0,0E0,6.1987667E0,6.24016E0,8.221035E-1,0E0,0E0,0E0,3.8588066E0,0E0,0E0,0E0,0E0,0E0,0E0,1.2296554E0,2.049518E0,6.6720314E0,0E0,0E0,0E0,0E0,0E0,0E0,0E0,0E0,0E0],"parents":[2147483647,0,0,1,1,2,2,3,3,4,4,5,5,6,6,7,7,9,9,10,10,11,11,12,12,13,13,14,14,20,20,21,21,23,23,24,24,25,25,27,27,30,30,31,31,32,32,35,35,38,38,39,39,40,40,44,44,51,51,52,52,53,53],"right_children":[2,4,6,8,10,12,14,16,-1,18,20,22,24,26,28,-1,-1,-1,-1,-1,30,32,-1,34,36,38,-1,40,-1,-1,42,44,46,-1,-1,48,-1,-1,50,52,54,-1,-1,-1,56,-1,-1,-1,-1,-1,-1,58,60,62,-1,-1,-1,-1,-1,-1,-1,-1,-1],"split_conditions":[3.425887E-1,2.019E3,3.5375306E-1,1.5123042E1,3.520622E-1,1.4283432E1,1E0,3.0664787E0,-1.3280223E-3,1.19001465E1,-7.1149497E0,6.9838505E0,2.2982825E-1,1.4950298E1,1E0,-1.4706585E-4,-8.0498616E-4,-2.819094E-3,-1.4706585E-4,-4.9532317E-3,1.3127479E-1,9.312056E-2,2.2186849E-3,1.3461214E-1,3.451234E-1,1.2457918E1,-1.4706585E-4,1.2557129E1,1.8874711E-3,-3.2094163E-3,3.2704714E-1,-5.7854304E0,3.909807E-1,1.1321584E-3,4.3474627E-3,3.726787E-1,2.9644684E-3,4.557831E-4,1.3534154E-1,1.1867441E1,2E0,-2.2449226E-3,-1.4706585E-4,-1.4706585E-4,2.022E3,-1.4706585E-4,9.22776E-4,-1.4706585E-4,1.8967745E-3,9.871834E-4,3.8285612E-3,5.2985527E1,5.2714115E1,3.847491E-1,-1.4706585E-4,8.0015504E-4,2.595218E-3,-1.4706585E-4,5.371801E-4,5.7091744E-4,2.426941E-3,-1.4706585E-4,2.1038055E-3],"split_indices":[5,37,6,15,6,14,17,4,0,14,29,4,9,15,25,0,0,0,0,0,7,4,0,7,6,14,0,15,0,0,5,4,5,0,0,5,0,0,7,14,42,0,0,0,37,0,0,0,0,0,0,13,13,5,0,0,0,0,0,0,0,0,0],"split_type":[0,0,0,0,0,0,0,0,0,0,0,0,0,0,0,0,0,0,0,0,0,0,0,0,0,0,0,0,0,0,0,0,0,0,0,0,0,0,0,0,0,0,0,0,0,0,0,0,0,0,0,0,0,0,0,0,0,0,0,0,0,0,0],"sum_hessian":[2.094057E3,6.3501483E2,1.459042E3,2.8599026E2,3.490246E2,6.2069244E2,8.3834955E2,2.3218161E2,5.3808643E1,1.3936322E2,2.0966138E2,3.8207346E2,2.3861899E2,1.7908511E2,6.5926447E2,1.8673259E2,4.5449017E1,3.7609325E1,1.0175389E2,4.7264366E1,1.6239702E2,3.464812E2,3.5592247E1,9.1091576E1,1.4752742E2,1.3682664E2,4.225847E1,6.1333276E2,4.593168E1,5.9797127E1,1.02599884E2,1.8098177E2,1.6549944E2,4.3218437E1,4.7873142E1,1.114381E2,3.608931E1,5.798008E1,7.8846565E1,1.6955551E2,4.4377725E2,4.8972748E1,5.362714E1,3.782276E1,1.4315901E2,1.348183E2,3.0681124E1,6.1627495E1,4.9810608E1,4.4220234E1,3.4626335E1,1.06161354E2,6.3394154E1,1.14492775E2,3.292845E2,1.0609374E2,3.706526E1,5.7261757E1,4.8899593E1,3.2189556E1,3.12046E1,8.404728E1,3.0445501E1],"tree_param":{"num_deleted":"0","num_feature":"43","num_nodes":"63","size_leaf_vector":"1"}},{"base_weights":[4.685901E-3,-2.7488858E-1,1.2371052E-1,-3.7874997E-4,-5.44573E-1,6.4326343E-3,2.2807333E-1,-1.8581542E-1,-6.281762E-1,3.4242603E-1,-3.799923E-2,7.4431136E-2,3.2810012E-1,-3.7874997E-4,-2.3808929E-3,-3.41473E-1,-7.4467486E-1,2.3951763E-3,4.7919134E-4,2.0233758E-1,-7.558903E-2,2.3946461E-1,-3.7874997E-4,1.6456285E-1,6.0944754E-1,-2.9636712E-3,-5.5445236E-4,-8.387734E-1,-4.6394938E-1,-3.7874997E-4,3.1906018E-1,-7.558903E-2,1.1484232E-3,1.6351481E-1,2.962505E-3,3.712182E-1,-0E0,4.8365514E-3,4.4489375E-1,-7.516667E-1,-5.5371737E-3,-4.226732E-4,-3.2637422E-3,1.894844E-1,2.644575E-3,-7.558903E-2,1.3729507E-3,2.5186297E-1,-3.7874997E-4,2.178575E-4,1.9391465E-3,-7.558903E-2,1.5944372E-3,1.9391465E-3,6.078091E-1,-4.387192E-3,-3.2637422E-3,-0E0,1.7949021E-3,8.0605916E-4,-3.7874997E-4,1.8909099E-3,4.4162327E-4,-3.7874997E-4,1.1793271E-3,2.492332E-3,3.8741506E-3],"categories":[],"categories_nodes":[],"categories_segments":[],"categories_sizes":[],"default_left":[0,0,0,0,0,0,0,0,0,0,0,0,0,0,0,0,0,0,0,0,0,0,0,0,0,0,0,0,0,0,0,0,0,0,0,0,0,0,0,0,0,0,0,0,0,0,0,0,0,0,0,0,0,0,0,0,0,0,0,0,0,0,0,0,0,0,0],"id":8,"left_children":[1,3,5,-1,7,9,11,13,15,17,19,21,23,-1,-1,25,27,-1,-1,29,31,33,-1,35,37,-1,-1,39,41,-1,43,45,-1,47,-1,49,51,-1,53,55,-1,-1,-1,57,-1,59,-1,61,-1,-1,-1,63,-1,-1,65,-1,-1,-1,-1,-1,-1,-1,-1,-1,-1,-1,-1],"loss_changes":[7.013243E1,7.380486E1,1.7939157E1,0E0,1.2821228E1,1.1519192E1,1.1750336E1,4.865176E0,1.1231216E1,2.6113605E0,1.0437263E1,1.3621031E1,2.1191833E1,0E0,0E0,6.22151E0,5.577484E0,0E0,0E0,6.0257654E0,4.7126555E0,5.5371075E0,0E0,1.0348525E1,9.046665E0,0E0,0E0,2.613678E0,6.5021E0,0E0,2.7260666E0,4.8682766E0,0E0,5.4058003E0,0E0,3.5482826E0,5.294736E0,0E0,2.7380924E0,2.4539185E0,0E0,0E0,0E0,2.6818607E0,0E0,2.9399576E0,0E0,4.751602E0,0E0,0E0,0E0,4.086223E0,0E0,0E0,1.480711E0,0E0,0E0,0E0,0E0,0E0,0E0,0E0,0E0,0E0,0E0,0E0,0E0],"parents":[2147483647,0,0,1,1,2,2,4,4,5,5,6,6,7,7,8,8,9,9,10,10,11,11,12,12,15,15,16,16,19,19,20,20,21,21,23,23,24,24,27,27,28,28,30,30,31,31,33,33,35,35,36,36,38,38,39,39,43,43,45,45,47,47,51,51,54,54],"right_children":[2,4,6,-1,8,10,12,14,16,18,20,22,24,-1,-1,26,28,-1,-1,30,32,34,-1,36,38,-1,-1,40,42,-1,44,46,-1,48,-1,50,52,-1,54,56,-1,-1,-1,58,-1,60,-1,62,-1,-1,-1,64,-1,-1,66,-1,-1,-1,-1,-1,-1,-1,-1,-1,-1,-1,-1],"split_conditions":[-2.0046806E-2,2.018E3,1.3368624E1,-3.7874997E-4,1E0,-4.478442E0,2.019E3,1.3523732E1,-1.8372709E0,3.5409722E-1,1E0,2.4363494E-1,2.6288675E-2,-3.7874997E-4,-2.3808929E-3,2.4726957E1,2.750003E1,2.3951763E-3,4.7919134E-4,2.124662E-1,3.124111E1,5.4393177E0,-3.7874997E-4,-8.35249E-1,2E0,-2.9636712E-3,-5.5445236E-4,5.2261116E1,2.50685E1,-3.7874997E-4,2.15512E0,6E0,1.1484232E-3,9.537171E-1,2.962505E-3,-7.172887E-3,2E0,4.8365514E-3,3.769545E-1,2.4320423E1,-5.5371737E-3,-4.226732E-4,-3.2637422E-3,4.2502692E-1,2.644575E-3,2.1332178E1,1.3729507E-3,-6.56633E-2,-3.7874997E-4,2.178575E-4,1.9391465E-3,3.607014E0,1.5944372E-3,1.9391465E-3,1.5224487E1,-4.387192E-3,-3.2637422E-3,-0E0,1.7949021E-3,8.0605916E-4,-3.7874997E-4,1.8909099E-3,4.4162327E-4,-3.7874997E-4,1.1793271E-3,2.492332E-3,3.8741506E-3],"split_indices":[0,37,14,0,17,3,37,27,3,6,17,9,0,0,0,11,11,0,0,9,12,30,0,3,42,0,0,13,12,0,4,42,0,28,0,0,16,0,5,11,0,0,0,3,0,12,0,4,0,0,0,3,0,0,14,0,0,0,0,0,0,0,0,0,0,0,0],"split_type":[0,0,0,0,0,0,0,0,0,0,0,0,0,0,0,0,0,0,0,0,0,0,0,0,0,0,0,0,0,0,0,0,0,0,0,0,0,0,0,0,0,0,0,0,0,0,0,0,0,0,0,0,0,0,0,0,0,0,0,0,0,0,0,0,0,0,0],"sum_hessian":[2.0836506E3,6.1878394E2,1.4648666E3,1.7569661E2,4.4308734E2,6.954475E2,7.6941907E2,8.7365776E1,3.557216E2,8.222666E1,6.132209E2,3.0891278E2,4.6050632E2,5.586791E1,3.1497866E1,1.0776494E2,2.4795665E2,4.909075E1,3.313591E1,1.3602512E2,4.7719574E2,2.0232623E2,1.0658654E2,2.956861E2,1.648202E2,4.798854E1,5.9776398E1,1.7977013E2,6.8186516E1,3.2414898E1,1.0361022E2,4.3520044E2,4.1995293E1,1.7138785E2,3.0938375E1,1.2840459E2,1.6728152E2,4.6839336E1,1.1798087E2,1.4456332E2,3.5206795E1,3.1014141E1,3.7172375E1,6.9486786E1,3.412344E1,4.0327478E2,3.1925684E1,1.392199E2,3.216796E1,3.660626E1,9.1798325E1,1.3363414E2,3.364738E1,5.5935783E1,6.204509E1,8.91639E1,5.5399433E1,3.338692E1,3.6099865E1,4.199283E1,3.6128195E2,5.6719906E1,8.2499985E1,9.998206E1,3.365208E1,3.1881245E1,3.0163847E1],"tree_param":{"num_deleted":"0","num_feature":"43","num_nodes":"67","size_leaf_vector":"1"}},{"base_weights":[2.5571374E-2,-1.6056108E-1,1.7436948E-1,-7.602605E-2,-4.3428114E-1,6.9041997E-3,2.9425514E-1,-3.2226628E-1,6.641409E-4,-7.7256745E-1,5.3630094E-3,7.5450155E-4,3.4594508E-5,3.875484E-3,2.703962E-1,-4.1635132E-1,-8.5497624E-5,-1.3083008E-1,6.9041997E-3,-5.4707434E-3,-5.9147286E-1,-1.6754408E-3,3.4594508E-5,1.6765198E-1,3.8735464E-1,-2.0222759E-1,-3.1791518E-3,3.4594508E-5,-2.3437932E-1,-3.0812958E-1,3.4594508E-5,-1.9220954E-3,-3.905369E-3,1.5057966E-1,3.6696267E-1,2.705146E-1,5.4850525E-1,-0E0,-1.8169392E-3,3.4594508E-5,-3.376207E-1,-2.3393945E-3,-7.5466704E-4,1.2966112E-3,7.5450155E-4,4.7307757E-1,1.2966112E-3,1.5057966E-1,3.7982494E-1,4.238899E-1,4.5096762E-3,-2.2473163E-3,-8.285518E-4,1.3603364E-3,3.2507726E-3,7.5450155E-4,1.3288351E-3,2.0519097E-3,1.3288351E-3,3.7406012E-3,2.0519097E-3],"categories":[],"categories_nodes":[],"categories_segments":[],"categories_sizes":[],"default_left":[0,0,0,0,0,0,0,0,0,0,0,0,0,0,0,0,0,0,0,0,0,0,0,0,0,0,0,0,0,0,0,0,0,0,0,0,0,0,0,0,0,0,0,0,0,0,0,0,0,0,0,0,0,0,0,0,0,0,0,0,0],"id":9,"left_children":[1,3,5,7,9,11,13,15,17,19,21,-1,-1,-1,23,25,-1,27,29,-1,31,-1,-1,33,35,37,-1,-1,39,41,-1,-1,-1,43,45,47,49,-1,-1,-1,51,-1,-1,-1,-1,53,-1,55,57,59,-1,-1,-1,-1,-1,-1,-1,-1,-1,-1,-1],"loss_changes":[5.814966E1,2.139819E1,3.6499096E1,1.4204462E1,3.3272335E1,1.4369385E1,9.526756E0,4.68775E0,4.55629E0,5.8076477E0,6.0714374E0,0E0,0E0,0E0,9.4618225E0,5.719431E0,0E0,6.096513E0,8.189195E0,0E0,4.96434E0,0E0,0E0,6.136298E0,6.6320267E0,2.4907415E0,0E0,0E0,6.544754E0,2.7428088E0,0E0,0E0,0E0,1.3607798E0,2.1218243E0,4.347849E0,5.9101562E0,0E0,0E0,0E0,3.9182777E0,0E0,0E0,0E0,0E0,2.3122845E0,0E0,1.2981379E0,2.7909546E0,4.05974E0,0E0,0E0,0E0,0E0,0E0,0E0,0E0,0E0,0E0,0E0,0E0],"parents":[2147483647,0,0,1,1,2,2,3,3,4,4,5,5,6,6,7,7,8,8,9,9,10,10,14,14,15,15,17,17,18,18,20,20,23,23,24,24,25,25,28,28,29,29,33,33,34,34,35,35,36,36,40,40,45,45,47,47,48,48,49,49],"right_children":[2,4,6,8,10,12,14,16,18,20,22,-1,-1,-1,24,26,-1,28,30,-1,32,-1,-1,34,36,38,-1,-1,40,42,-1,-1,-1,44,46,48,50,-1,-1,-1,52,-1,-1,-1,-1,54,-1,56,58,60,-1,-1,-1,-1,-1,-1,-1,-1,-1,-1,-1],"split_conditions":[-3.0399986E1,2.023E3,-2.0046806E-2,2.098398E-1,-6.4518116E-3,2.018E3,1.9772612E1,1.1717438E0,2.018E3,-2.5034172E2,2.5070713E1,7.5450155E-4,3.4594508E-5,3.875484E-3,2.3658445E-1,-2.003412E0,-8.5497624E-5,2.2522055E-1,-2.0711938E-2,-5.4707434E-3,1.37213955E1,-1.6754408E-3,3.4594508E-5,1E0,1.6951747E2,-1.2430279E0,-3.1791518E-3,3.4594508E-5,-1.4757448E-2,6.753227E-1,3.4594508E-5,-1.9220954E-3,-3.905369E-3,-8.587945E0,1E0,9.996721E-3,2.024E3,-0E0,-1.8169392E-3,3.4594508E-5,2.9161509E1,-2.3393945E-3,-7.5466704E-4,1.2966112E-3,7.5450155E-4,1.3657853E1,1.2966112E-3,1E0,-5.689851E0,-2.2120748E0,4.5096762E-3,-2.2473163E-3,-8.285518E-4,1.3603364E-3,3.2507726E-3,7.5450155E-4,1.3288351E-3,2.0519097E-3,1.3288351E-3,3.7406012E-3,2.0519097E-3],"split_indices":[34,37,0,9,0,37,12,29,37,34,11,0,0,0,9,29,0,9,0,0,15,0,0,18,34,28,0,0,1,30,0,0,0,29,17,0,37,0,0,0,12,0,0,0,0,14,0,32,28,4,0,0,0,0,0,0,0,0,0,0,0],"split_type":[0,0,0,0,0,0,0,0,0,0,0,0,0,0,0,0,0,0,0,0,0,0,0,0,0,0,0,0,0,0,0,0,0,0,0,0,0,0,0,0,0,0,0,0,0,0,0,0,0,0,0,0,0,0,0,0,0,0,0,0,0],"sum_hessian":[2.071857E3,9.173241E2,1.1545327E3,7.058288E2,2.1149532E2,3.2475964E2,8.297731E2,1.6915147E2,5.366773E2,1.1991879E2,9.157652E1,1.0073608E2,2.2402356E2,3.4110123E1,7.9566296E2,1.2613175E2,4.3019733E1,2.2360141E2,3.130759E2,3.743602E1,8.248278E1,4.3952785E1,4.7623737E1,4.3101846E2,3.646445E2,6.811253E1,5.8019215E1,5.111036E1,1.7249104E2,7.386467E1,2.3921123E2,3.0037464E1,5.2445312E1,3.0708694E2,1.2393152E2,2.1841005E2,1.4623447E2,3.196636E1,3.614617E1,3.562778E1,1.3686327E2,4.136296E1,3.250171E1,3.1419859E1,2.7566708E2,7.459392E1,4.9337593E1,8.0788536E1,1.3762152E2,1.1361904E2,3.2615417E1,9.6076195E1,4.078707E1,4.000308E1,3.4590843E1,4.911081E1,3.1677725E1,3.0396486E1,1.0722503E2,3.1167168E1,8.245187E1],"tree_param":{"num_deleted":"0","num_feature":"43","num_nodes":"61","size_leaf_vector":"1"}},{"base_weights":[-0E0,-1.3343157E-1,2.2613707E-1,4.635275E-2,-3.0297816E-1,4.635275E-2,3.9622265E-1,-1.6166304E-1,4.635275E-2,-6.245956E-1,-9.027664E-2,4.635275E-2,2.6465404E-1,6.9369847E-1,2.8104344E-1,-3.0706564E-3,-5.7655144E-2,2.3225728E-4,-2.888896E-4,-3.5743612E-1,-7.953303E-1,-3.275591E-1,-8.4263156E-4,2.3225728E-4,7.7917264E-4,7.7917264E-4,2.369078E-3,2.442044E-3,8.394746E-1,4.8737097E-1,1.3386007E-1,-1.679773E-3,-2.888896E-4,-1.7909863E-3,-2.473806E-3,-8.9739084E-1,-2.1208525E-3,-3.5743612E-1,-0E0,4.635275E-2,-1.5261532E-1,2.8377548E-3,5.0364095E-3,3.4839558E-4,2.442044E-3,4.635275E-2,2.2930992E-3,-1.0008084E0,-2.547421E-3,-8.9549314E-4,-1.7909863E-3,-5.990703E-4,2.3225728E-4,-3.2272246E-1,7.259684E-3,1.2626783E-3,2.3225728E-4,-5.5921706E-3,-3.781059E-3,-7.9033634E-4,-1.7909863E-3,-7.9033634E-4,2.3225728E-4],"categories":[],"categories_nodes":[],"categories_segments":[],"categories_sizes":[],"default_left":[0,0,0,0,0,0,0,0,0,0,0,0,0,0,0,0,0,0,0,0,0,0,0,0,0,0,0,0,0,0,0,0,0,0,0,0,0,0,0,0,0,0,0,0,0,0,0,0,0,0,0,0,0,0,0,0,0,0,0,0,0,0,0],"id":10,"left_children":[1,3,5,7,9,11,13,15,17,19,21,23,25,27,29,-1,31,-1,-1,33,35,37,39,-1,-1,-1,-1,-1,41,43,45,-1,-1,-1,-1,47,-1,49,-1,51,53,-1,-1,-1,-1,55,-1,57,-1,-1,-1,-1,-1,59,61,-1,-1,-1,-1,-1,-1,-1,-1],"loss_changes":[6.3629414E1,5.2965164E1,3.2723232E1,7.0879006E0,5.320983E1,3.911666E0,1.5833191E1,9.30809E0,1.0360374E0,1.9704742E1,1.0182128E1,1.6465032E0,3.7983074E0,4.3747635E0,1.2646896E1,0E0,4.302685E0,0E0,0E0,7.114563E-1,7.137909E0,4.0616474E0,7.8455873E0,0E0,0E0,0E0,0E0,0E0,2.3103638E0,7.2795677E0,9.05126E0,0E0,0E0,0E0,0E0,5.2914734E0,0E0,1.3756313E0,0E0,1.4694548E0,6.4036746E0,0E0,0E0,0E0,0E0,4.326767E0,0E0,3.9029236E0,0E0,0E0,0E0,0E0,0E0,4.0258055E0,4.031367E0,0E0,0E0,0E0,0E0,0E0,0E0,0E0,0E0],"parents":[2147483647,0,0,1,1,2,2,3,3,4,4,5,5,6,6,7,7,8,8,9,9,10,10,11,11,12,12,13,13,14,14,16,16,19,19,20,20,21,21,22,22,28,28,29,29,30,30,35,35,37,37,39,39,40,40,45,45,47,47,53,53,54,54],"right_children":[2,4,6,8,10,12,14,16,18,20,22,24,26,28,30,-1,32,-1,-1,34,36,38,40,-1,-1,-1,-1,-1,42,44,46,-1,-1,-1,-1,48,-1,50,-1,52,54,-1,-1,-1,-1,56,-1,58,-1,-1,-1,-1,-1,60,62,-1,-1,-1,-1,-1,-1,-1,-1],"split_conditions":[1.105259E-2,2.019E3,2.019E3,-1.2385496E2,-2.668083E-2,1.6049577E2,-6.2052474E0,-3.2528233E-2,1.4914834E1,-1.6632122E0,-5.845899E0,2.018E3,5.174948E1,2.3531787E-1,2.3935203E-1,-3.0706564E-3,-2.825564E0,2.3225728E-4,-2.888896E-4,2.023E3,1.5020528E0,1E0,-1.0252831E0,2.3225728E-4,7.7917264E-4,7.7917264E-4,2.369078E-3,2.442044E-3,-4.0720027E-2,-4.7886415E0,1E0,-1.679773E-3,-2.888896E-4,-1.7909863E-3,-2.473806E-3,1E0,-2.1208525E-3,-1.0218989E1,-0E0,2.1396114E-1,-6.4518116E-3,2.8377548E-3,5.0364095E-3,3.4839558E-4,2.442044E-3,-1.7077587E0,2.2930992E-3,-3.506266E-2,-2.547421E-3,-8.9549314E-4,-1.7909863E-3,-5.990703E-4,2.3225728E-4,2.2056161E-1,-3.1979659E0,1.2626783E-3,2.3225728E-4,-5.5921706E-3,-3.781059E-3,-7.9033634E-4,-1.7909863E-3,-7.9033634E-4,2.3225728E-4],"split_indices":[0,37,37,34,0,34,28,2,27,3,29,37,13,9,10,0,29,0,0,37,29,18,3,0,0,0,0,0,2,34,18,0,0,0,0,18,0,29,0,9,0,0,0,0,0,3,0,0,0,0,0,0,0,9,26,0,0,0,0,0,0,0,0],"split_type":[0,0,0,0,0,0,0,0,0,0,0,0,0,0,0,0,0,0,0,0,0,0,0,0,0,0,0,0,0,0,0,0,0,0,0,0,0,0,0,0,0,0,0,0,0,0,0,0,0,0,0,0,0,0,0,0,0,0,0,0,0,0,0],"sum_hessian":[2.0789292E3,1.3069888E3,7.7194055E2,5.3117175E2,7.75817E2,3.0517175E2,4.667688E2,1.5191917E2,3.7925256E2,3.052611E2,4.705559E2,2.3452086E2,7.065089E1,1.2478311E2,3.419857E2,3.0480793E1,1.2143838E2,3.2004553E2,5.920703E1,9.061308E1,2.1464801E2,1.2410594E2,3.4644995E2,1.7929073E2,5.523014E1,3.0178038E1,4.0472847E1,4.634109E1,7.8442024E1,1.1920394E2,2.2278174E2,3.2940475E1,8.8497894E1,5.4649174E1,3.596391E1,1.6389697E2,5.075104E1,9.290215E1,3.1203793E1,1.3853935E2,2.079106E2,3.5541912E1,4.2900112E1,4.7369328E1,7.183461E1,1.6513692E2,5.7644825E1,1.2471949E2,3.9177475E1,3.2431957E1,6.0470192E1,3.9062355E1,9.9477005E1,1.0276913E2,1.05141464E2,5.2733013E1,1.1240389E2,9.417027E1,3.0549215E1,3.9584713E1,6.3184414E1,3.3899517E1,7.124194E1],"tree_param":{"num_deleted":"0","num_feature":"43","num_nodes":"63","size_leaf_vector":"1"}},{"base_weights":[-2.4730248E-2,-1.6881035E-1,1.934679E-1,1.2328774E-2,-3.572416E-1,1.2328774E-2,3.3152327E-1,1.2328774E-2,-1.1888586E-3,-6.435234E-1,-1.5254954E-1,1.2328774E-2,1.4113403E-3,6.265954E-2,5.501514E-1,-1.068271E-1,6.1775136E-5,-3.9803648E-1,-7.552292E-1,-3.515668E-1,7.881429E-3,7.590263E-4,6.1775136E-5,1.2328774E-2,1.5949457E-3,4.0240395E-1,7.667631E-1,-5.635418E-4,6.1775136E-5,-3.0084348E-3,-1.9944203E-3,-5.4509114E-3,-6.19437E-1,-3.4843304E-4,-1.9944203E-3,-1.9944203E-3,1.2328774E-2,1.6431349E-3,6.1775136E-5,5.823529E-1,2.3210521E-1,8.9961386E-1,2.9291417E-3,-4.358994E-3,-4.783012E-1,-1.2150827E-3,6.1775136E-5,1.5855321E-3,2.9291417E-3,6.1775136E-5,2.5927878E-3,5.5659735E-3,3.7183948E-3,-3.4827024E-3,-1.9944203E-3],"categories":[],"categories_nodes":[],"categories_segments":[],"categories_sizes":[],"default_left":[0,0,0,0,0,0,0,0,0,0,0,0,0,0,0,0,0,0,0,0,0,0,0,0,0,0,0,0,0,0,0,0,0,0,0,0,0,0,0,0,0,0,0,0,0,0,0,0,0,0,0,0,0,0,0],"id":11,"left_children":[1,3,5,7,9,11,13,15,-1,17,19,21,-1,23,25,27,-1,29,31,33,35,-1,-1,37,-1,39,41,-1,-1,-1,-1,-1,43,-1,-1,-1,45,-1,-1,47,49,51,-1,-1,53,-1,-1,-1,-1,-1,-1,-1,-1,-1,-1],"loss_changes":[6.611719E1,6.0811596E1,3.2247467E1,2.956429E0,4.3486595E1,3.6275785E0,3.3938927E1,1.1427888E0,0E0,9.814774E0,1.4794158E1,1.2435557E0,0E0,5.429047E0,9.558571E0,7.538013E-1,0E0,1.391882E0,8.825623E0,3.8684425E0,7.3428535E0,0E0,0E0,4.7437053E0,0E0,5.7233086E0,4.601143E0,0E0,0E0,0E0,0E0,0E0,5.0701523E0,0E0,0E0,0E0,4.0293045E0,0E0,0E0,2.0489845E0,8.292107E0,1.9801788E0,0E0,0E0,2.7382393E0,0E0,0E0,0E0,0E0,0E0,0E0,0E0,0E0,0E0,0E0],"parents":[2147483647,0,0,1,1,2,2,3,3,4,4,5,5,6,6,7,7,9,9,10,10,11,11,13,13,14,14,15,15,17,17,18,18,19,19,20,20,23,23,25,25,26,26,32,32,36,36,39,39,40,40,41,41,44,44],"right_children":[2,4,6,8,10,12,14,16,-1,18,20,22,-1,24,26,28,-1,30,32,34,36,-1,-1,38,-1,40,42,-1,-1,-1,-1,-1,44,-1,-1,-1,46,-1,-1,48,50,52,-1,-1,54,-1,-1,-1,-1,-1,-1,-1,-1,-1,-1],"split_conditions":[8.607661E-3,2.019E3,2.018E3,3.246676E-2,-2.7665602E-2,3.0765763E-1,1.3412155E-1,1.0539482E1,-1.1888586E-3,-1.7921451E0,1.3446575E-1,-2.049904E-2,1.4113403E-3,1.5897675E1,3.8783643E-2,3.6564428E-1,6.1775136E-5,-5.312238E-2,4.7165024E1,-2.3670285E0,3.344641E-1,7.590263E-4,6.1775136E-5,-2.6585238E0,1.5949457E-3,-7.1908313E-1,1.6633585E1,-5.635418E-4,6.1775136E-5,-3.0084348E-3,-1.9944203E-3,-5.4509114E-3,-5.689851E0,-3.4843304E-4,-1.9944203E-3,-1.9944203E-3,-6.0678377E0,1.6431349E-3,6.1775136E-5,1.3415193E1,0E0,1.3282745E1,2.9291417E-3,-4.358994E-3,-5.235182E-2,-1.2150827E-3,6.1775136E-5,1.5855321E-3,2.9291417E-3,6.1775136E-5,2.5927878E-3,5.5659735E-3,3.7183948E-3,-3.4827024E-3,-1.9944203E-3],"split_indices":[0,37,37,1,0,10,7,14,0,3,7,1,0,14,0,6,0,0,13,3,6,0,0,3,0,3,27,0,0,0,0,0,29,0,0,0,29,0,0,14,30,15,0,0,0,0,0,0,0,0,0,0,0,0,0],"split_type":[0,0,0,0,0,0,0,0,0,0,0,0,0,0,0,0,0,0,0,0,0,0,0,0,0,0,0,0,0,0,0,0,0,0,0,0,0,0,0,0,0,0,0,0,0,0,0,0,0,0,0,0,0,0,0],"sum_hessian":[2.0775352E3,1.2544056E3,8.2312946E2,5.122777E2,7.42128E2,2.4576868E2,5.773608E2,4.7516925E2,3.7108437E1,3.0539102E2,4.3673697E2,2.05511E2,4.0257675E1,2.6227426E2,3.1508655E2,6.1183697E1,4.1398557E2,8.447042E1,2.209206E2,1.9662762E2,2.4010936E2,4.7377426E1,1.5813358E2,2.0487155E2,5.74027E1,1.9378783E2,1.2129871E2,3.0958294E1,3.0225405E1,3.0055237E1,5.4415184E1,5.7478756E1,1.6344183E2,4.618326E1,1.5044437E2,3.24376E1,2.0767175E2,3.8990696E1,1.6588086E2,8.876808E1,1.0501974E2,9.017286E1,3.1125853E1,5.2276863E1,1.1116497E2,5.186891E1,1.5580284E2,4.4155663E1,4.4612423E1,5.667448E1,4.8345253E1,3.4806526E1,5.5366337E1,3.5999737E1,7.516524E1],"tree_param":{"num_deleted":"0","num_feature":"43","num_nodes":"55","size_leaf_vector":"1"}},{"base_weights":[-6.89887E-3,-2.5151446E-1,9.624383E-2,-7.763532E-2,-5.9421444E-1,-7.763532E-2,2.391455E-1,-3.890032E-4,-8.945324E-4,-2.7736443E-1,-7.1980923E-1,-3.890032E-4,7.195948E-2,6.6200846E-1,1.7756237E-1,-3.890032E-4,-4.670681E-1,-8.7489456E-1,-4.8325646E-1,-7.763532E-2,8.075509E-2,1.5366698E-3,4.476545E-3,8.525531E-2,3.45834E-1,-2.9499049E-3,-1.2461878E-3,-7.4040306E-1,-5.448454E-3,-6.0275745E-1,-8.8883564E-4,4.0463527E-4,-3.890032E-4,8.075509E-2,-3.890032E-4,8.075509E-2,2.1778731E-1,8.075509E-2,5.788391E-1,-3.4026077E-3,-4.7433646E-3,-1.9901593E-3,-3.4026077E-3,-3.8142313E-4,8.075509E-2,7.4794533E-4,4.0463527E-4,4.3556052E-1,7.4794533E-4,4.0463527E-4,2.1588474E-3,1.5774783E-3,7.425505E-1,1.1606068E-5,4.0463527E-4,7.853397E-4,3.7996392E-3,2.6490681E-3,5.104242E-3],"categories":[],"categories_nodes":[],"categories_segments":[],"categories_sizes":[],"default_left":[0,0,0,0,0,0,0,0,0,0,0,0,0,0,0,0,0,0,0,0,0,0,0,0,0,0,0,0,0,0,0,0,0,0,0,0,0,0,0,0,0,0,0,0,0,0,0,0,0,0,0,0,0,0,0,0,0,0,0],"id":12,"left_children":[1,3,5,7,9,11,13,-1,-1,15,17,-1,19,21,23,-1,25,27,29,31,33,-1,-1,35,37,-1,-1,39,-1,41,-1,-1,-1,43,-1,45,47,49,51,-1,-1,-1,-1,-1,53,-1,-1,55,-1,-1,-1,-1,57,-1,-1,-1,-1,-1,-1],"loss_changes":[5.328025E1,8.410028E1,3.9133984E1,7.812586E-1,1.460466E1,9.816575E0,2.1644054E1,0E0,0E0,7.118164E0,8.9263E0,0E0,8.258238E0,7.6847878E0,1.130094E1,0E0,1.5665436E0,2.8620758E0,3.7644615E0,1.1591482E0,3.3872223E0,0E0,0E0,2.9000635E0,1.5770266E1,0E0,0E0,2.132183E0,0E0,1.9389629E0,0E0,0E0,0E0,1.3160791E0,0E0,1.7767185E0,6.2850895E0,4.9341927E0,5.1550064E0,0E0,0E0,0E0,0E0,0E0,7.9477406E-1,0E0,0E0,6.981268E0,0E0,0E0,0E0,0E0,5.187874E0,0E0,0E0,0E0,0E0,0E0,0E0],"parents":[2147483647,0,0,1,1,2,2,3,3,4,4,5,5,6,6,9,9,10,10,12,12,13,13,14,14,16,16,17,17,18,18,19,19,20,20,23,23,24,24,27,27,29,29,33,33,35,35,36,36,37,37,38,38,44,44,47,47,52,52],"right_children":[2,4,6,8,10,12,14,-1,-1,16,18,-1,20,22,24,-1,26,28,30,32,34,-1,-1,36,38,-1,-1,40,-1,42,-1,-1,-1,44,-1,46,48,50,52,-1,-1,-1,-1,-1,54,-1,-1,56,-1,-1,-1,-1,58,-1,-1,-1,-1,-1,-1],"split_conditions":[-2.0046806E-2,4E-1,-3.0399986E1,3E-1,-1.6632122E0,3E-1,-4.5629373E0,-3.890032E-4,-8.945324E-4,4.11E2,-3.6148943E-2,-3.890032E-4,1.240221E-1,3E-1,7E-1,-3.890032E-4,-4.8159447E1,1.4650986E1,3.8526106E-1,-1.5579003E0,9E-1,1.5366698E-3,4.476545E-3,1E0,1.3716832E-1,-2.9499049E-3,-1.2461878E-3,5.97E2,-5.448454E-3,2.6392424E-1,-8.8883564E-4,4.0463527E-4,-3.890032E-4,-9.830299E-3,-3.890032E-4,4.9583885E1,7.02E2,1E0,1.4823008E-2,-3.4026077E-3,-4.7433646E-3,-1.9901593E-3,-3.4026077E-3,-3.8142313E-4,1.43E2,7.4794533E-4,4.0463527E-4,3.83E2,7.4794533E-4,4.0463527E-4,2.1588474E-3,1.5774783E-3,3.4395754E-1,1.1606068E-5,4.0463527E-4,7.853397E-4,3.7996392E-3,2.6490681E-3,5.104242E-3],"split_indices":[0,38,34,38,3,38,3,0,0,39,0,0,7,38,38,0,34,15,6,3,38,0,0,18,7,0,0,39,0,10,0,0,0,0,0,13,39,18,0,0,0,0,0,0,39,0,0,39,0,0,0,0,6,0,0,0,0,0,0],"split_type":[0,0,0,0,0,0,0,0,0,0,0,0,0,0,0,0,0,0,0,0,0,0,0,0,0,0,0,0,0,0,0,0,0,0,0,0,0,0,0,0,0,0,0,0,0,0,0,0,0,0,0,0,0,0,0,0,0,0,0],"sum_hessian":[2.0735916E3,6.170357E2,1.4565558E3,2.3646219E2,3.8057352E2,6.320332E2,8.245226E2,1.8087148E2,5.5590706E1,1.1230658E2,2.6826694E2,2.0862764E2,4.2340555E2,1.0003135E2,7.244913E2,3.989201E1,7.241457E1,1.5591101E2,1.12355934E2,9.335234E1,3.300532E2,4.317114E1,5.686021E1,4.7387128E2,2.5062E2,4.114846E1,3.126611E1,1.04343834E2,5.1567177E1,7.6881935E1,3.5474E1,3.0450874E1,6.290147E1,2.78951E2,5.110221E1,3.3476614E2,1.3910512E2,1.19478355E2,1.3114165E2,6.3142456E1,4.1201378E1,4.583822E1,3.1043713E1,3.8848415E1,2.4010258E2,1.077264E2,2.2703975E2,7.77682E1,6.1336906E1,8.710657E1,3.2371784E1,5.499706E1,7.6144585E1,3.363555E1,2.0646703E2,4.5141525E1,3.262668E1,4.1620415E1,3.452417E1],"tree_param":{"num_deleted":"0","num_feature":"43","num_nodes":"59","size_leaf_vector":"1"}},{"base_weights":[-1.5058127E-2,-2.6574278E-1,9.3991786E-2,-4.302918E-4,-5.213651E-1,-8.5875496E-2,1.770488E-1,-5.724578E-1,-1.9054E-1,1.6958614E-1,-8.5875496E-2,3.64948E-2,4.486477E-1,-6.878724E-1,-3.934397E-1,-1.8366755E-3,-4.302918E-4,-4.302918E-4,2.4917373E-3,-4.302918E-4,5.6905754E-2,-8.5875496E-2,1.3249505E-1,2.4257125E-1,5.915307E-1,-7.4541265E-1,-2.1067588E-3,-2.1436161E-1,-5.9955996E-1,-4.302918E-4,1.3201695E-3,-4.302918E-4,5.639621E-4,-8.5875496E-2,2.1046454E-1,1.2154389E-3,2.249176E-3,4.844208E-1,4.3792403E-3,-2.920879E-3,-8.418691E-1,-2.9447384E-3,-4.302918E-4,-4.1484446E-3,-1.5436984E-3,-4.302918E-4,3.1213587E-4,1.0076492E-1,2.4257125E-1,4.3268288E-3,3.7314224E-1,-5.424868E-3,-3.7293506E-3,1.2154389E-3,3.1213587E-4,3.1213587E-4,1.2154389E-3,1.2154389E-3,4.019736E-3],"categories":[],"categories_nodes":[],"categories_segments":[],"categories_sizes":[],"default_left":[0,0,0,0,0,0,0,0,0,0,0,0,0,0,0,0,0,0,0,0,0,0,0,0,0,0,0,0,0,0,0,0,0,0,0,0,0,0,0,0,0,0,0,0,0,0,0,0,0,0,0,0,0,0,0,0,0,0,0],"id":13,"left_children":[1,3,5,-1,7,9,11,13,15,17,19,21,23,25,27,-1,-1,-1,-1,-1,29,31,33,35,37,39,-1,41,43,-1,-1,-1,-1,45,47,-1,-1,49,-1,-1,51,-1,-1,-1,-1,-1,-1,53,55,-1,57,-1,-1,-1,-1,-1,-1,-1,-1],"loss_changes":[5.8057014E1,6.609589E1,2.2867672E1,0E0,7.1606216E0,7.4573565E0,3.863351E1,7.408066E0,2.5002937E0,1.5142504E1,2.5674782E0,1.2037097E1,1.2711632E1,2.6601028E0,5.706585E0,0E0,0E0,0E0,0E0,0E0,5.179858E0,2.1480317E0,1.0134757E1,1.7541533E0,5.988037E0,4.3164597E0,0E0,7.8971214E0,4.122343E0,0E0,0E0,0E0,0E0,2.0431495E0,3.8549423E0,0E0,0E0,6.68943E0,0E0,0E0,1.8122253E0,0E0,0E0,0E0,0E0,0E0,0E0,5.0541763E0,2.1919022E0,0E0,1.1914181E1,0E0,0E0,0E0,0E0,0E0,0E0,0E0,0E0],"parents":[2147483647,0,0,1,1,2,2,4,4,5,5,6,6,7,7,8,8,9,9,10,10,11,11,12,12,13,13,14,14,20,20,21,21,22,22,23,23,24,24,25,25,27,27,28,28,33,33,34,34,37,37,40,40,47,47,48,48,50,50],"right_children":[2,4,6,-1,8,10,12,14,16,18,20,22,24,26,28,-1,-1,-1,-1,-1,30,32,34,36,38,40,-1,42,44,-1,-1,-1,-1,46,48,-1,-1,50,-1,-1,52,-1,-1,-1,-1,-1,-1,54,56,-1,58,-1,-1,-1,-1,-1,-1,-1,-1],"split_conditions":[-2.0046806E-2,2.018E3,2.018E3,-4.302918E-4,3.6846156E0,1.2368194E-1,2.6288675E-2,5.174948E1,-5.8420115E0,1.15056075E-1,2.8917626E-1,1.248823E1,1.3091798E-1,-2.7168464E-2,6.3E2,-1.8366755E-3,-4.302918E-4,-4.302918E-4,2.4917373E-3,-4.302918E-4,2.302141E-1,2.9230078E1,0E0,2.3379931E-1,1.5369606E1,2.02E3,-2.1067588E-3,-6.31818E1,1.3301611E-1,-4.302918E-4,1.3201695E-3,-4.302918E-4,5.639621E-4,1.4212865E-1,-5.1456112E-2,1.2154389E-3,2.249176E-3,1.3576493E-1,4.3792403E-3,-2.920879E-3,0E0,-2.9447384E-3,-4.302918E-4,-4.1484446E-3,-1.5436984E-3,-4.302918E-4,3.1213587E-4,5.97E2,-6.4518116E-3,4.3268288E-3,1.5188766E-1,-5.424868E-3,-3.7293506E-3,1.2154389E-3,3.1213587E-4,3.1213587E-4,1.2154389E-3,1.2154389E-3,4.019736E-3],"split_indices":[0,37,37,0,29,7,0,13,26,7,10,14,7,0,39,0,0,0,0,0,8,11,18,8,14,37,0,35,7,0,0,0,0,7,29,0,0,7,0,0,18,0,0,0,0,0,0,39,0,0,7,0,0,0,0,0,0,0,0],"split_type":[0,0,0,0,0,0,0,0,0,0,0,0,0,0,0,0,0,0,0,0,0,0,0,0,0,0,0,0,0,0,0,0,0,0,0,0,0,0,0,0,0,0,0,0,0,0,0,0,0,0,0,0,0,0,0,0,0,0,0],"sum_hessian":[2.0873894E3,6.346767E2,1.4527126E3,1.8235709E2,4.523196E2,4.454265E2,1.00728613E3,3.8776642E2,6.455319E1,1.0434889E2,3.410776E2,6.678706E2,3.394155E2,2.2856705E2,1.5919937E2,3.4488346E1,3.0064842E1,4.346462E1,6.0884274E1,2.3084445E2,1.1023316E2,2.1098141E2,4.568892E2,1.1942122E2,2.1999428E2,1.8177647E2,4.6790565E1,9.0196075E1,6.900329E1,5.450525E1,5.5727917E1,1.6849026E2,4.249115E1,9.600743E1,3.6088177E2,8.73028E1,3.2118412E1,1.6637561E2,5.3618668E1,3.9154133E1,1.4262234E2,3.2288567E1,5.790751E1,3.4498512E1,3.4504776E1,6.3362164E1,3.2645267E1,2.2562541E2,1.3525636E2,3.2362396E1,1.3401321E2,3.1833551E1,1.10788795E2,1.2815794E2,9.746747E1,3.832464E1,9.6931725E1,9.3118095E1,4.089512E1],"tree_param":{"num_deleted":"0","num_feature":"43","num_nodes":"59","size_leaf_vector":"1"}},{"base_weights":[6.854609E-4,-1.4892818E-1,1.2292149E-1,-2.45695E-1,-1.3003346E-2,3.4672135E-1,3.5314735E-2,-1.4301385E-1,-5.553957E-1,-6.481231E-4,-1.3003346E-2,2.3796463E-1,5.958708E-1,-1.3003346E-2,2.5002256E-1,-2.6911898E-3,-1.2934917E-1,-1.0877732E-3,-7.229989E-1,-6.481231E-4,-6.5155175E-5,1.14984766E-1,5.239092E-1,4.366408E-3,1.8049417E-3,1.18509606E-1,-6.5155175E-5,1.18509606E-1,4.3295977E-1,-3.1265336E-1,-1.2934917E-1,-1.3130112E-3,-4.673649E-3,1.9912122E-1,-6.5155175E-5,6.457258E-4,4.178447E-3,5.938098E-4,-0E0,1.18509606E-1,1.5128227E-3,5.938098E-4,6.369072E-1,-1.6696564E-3,-1.1073594E-3,-2.2100127E-1,-6.481231E-4,9.305894E-2,2.0109734E-3,1.0533162E-3,5.938098E-4,2.106029E-3,4.384408E-3,-6.481231E-4,-1.1073594E-3,1.1260209E-3,4.662855E-4],"categories":[],"categories_nodes":[],"categories_segments":[],"categories_sizes":[],"default_left":[0,0,0,0,0,0,0,0,0,0,0,0,0,0,0,0,0,0,0,0,0,0,0,0,0,0,0,0,0,0,0,0,0,0,0,0,0,0,0,0,0,0,0,0,0,0,0,0,0,0,0,0,0,0,0,0,0],"id":14,"left_children":[1,3,5,7,9,11,13,15,17,-1,19,21,23,25,27,-1,29,-1,31,-1,-1,33,35,-1,-1,37,-1,39,41,43,45,-1,-1,47,-1,-1,-1,-1,-1,49,-1,-1,51,-1,-1,53,-1,55,-1,-1,-1,-1,-1,-1,-1,-1,-1],"loss_changes":[3.851161E1,1.7030132E1,2.2597689E1,2.001941E1,8.820862E0,8.484577E0,1.6299253E1,6.481867E0,8.1739235E0,0E0,1.7026964E0,8.075003E0,5.38208E0,1.1973726E1,7.732626E0,0E0,3.6676846E0,0E0,8.8364105E0,0E0,0E0,3.5383618E0,7.719324E0,0E0,0E0,7.724047E-1,0E0,1.7776458E0,1.1491705E1,2.1051912E0,1.1490345E0,0E0,0E0,4.3079906E0,0E0,0E0,0E0,0E0,0E0,1.4192038E0,0E0,0E0,3.6325455E0,0E0,0E0,1.437561E0,0E0,8.9213306E-1,0E0,0E0,0E0,0E0,0E0,0E0,0E0,0E0,0E0],"parents":[2147483647,0,0,1,1,2,2,3,3,4,4,5,5,6,6,7,7,8,8,10,10,11,11,12,12,13,13,14,14,16,16,18,18,21,21,22,22,25,25,27,27,28,28,29,29,30,30,33,33,39,39,42,42,45,45,47,47],"right_children":[2,4,6,8,10,12,14,16,18,-1,20,22,24,26,28,-1,30,-1,32,-1,-1,34,36,-1,-1,38,-1,40,42,44,46,-1,-1,48,-1,-1,-1,-1,-1,50,-1,-1,52,-1,-1,54,-1,56,-1,-1,-1,-1,-1,-1,-1,-1,-1],"split_conditions":[-3.0399986E1,1.2738855E-2,-2.137384E0,2.023E3,2.018E3,2.8689376E-1,1.9807756E-2,-3.8826694E2,4.3170733E0,-6.481231E-4,1.2544657E-1,2.022E3,2.017E3,2.018E3,1.3748063E-1,-2.6911898E-3,2.0778096E-1,-1.0877732E-3,-2.4999666E0,-6.481231E-4,-6.5155175E-5,1.870314E-2,1.0395715E-2,4.366408E-3,1.8049417E-3,2.3718138E0,-6.5155175E-5,2.393742E2,2.019E3,1.3941182E-1,4.888298E1,-1.3130112E-3,-4.673649E-3,2.322366E-1,-6.5155175E-5,6.457258E-4,4.178447E-3,5.938098E-4,-0E0,1.7631422E-1,1.5128227E-3,5.938098E-4,8.787345E-1,-1.6696564E-3,-1.1073594E-3,4.579132E1,-6.481231E-4,-3.6770314E-1,2.0109734E-3,1.0533162E-3,5.938098E-4,2.106029E-3,4.384408E-3,-6.481231E-4,-1.1073594E-3,1.1260209E-3,4.662855E-4],"split_indices":[34,0,3,37,37,10,0,34,40,0,7,37,37,37,7,0,8,0,3,0,0,1,0,0,0,4,0,34,37,7,13,0,0,8,0,0,0,0,0,3,0,0,30,0,0,13,0,4,0,0,0,0,0,0,0,0,0],"split_type":[0,0,0,0,0,0,0,0,0,0,0,0,0,0,0,0,0,0,0,0,0,0,0,0,0,0,0,0,0,0,0,0,0,0,0,0,0,0,0,0,0,0,0,0,0,0,0,0,0,0,0,0,0,0,0,0,0],"sum_hessian":[2.0726223E3,9.279704E2,1.1446519E3,6.260992E2,3.0187122E2,3.1694177E2,8.277101E2,4.7504996E2,1.5104921E2,9.7294205E1,2.0457703E2,2.2642413E2,9.0517624E1,5.7260815E2,2.5510191E2,3.2734932E1,4.42315E2,5.370238E1,9.734683E1,5.3749657E1,1.5082738E2,1.6294402E2,6.3480125E1,3.7044598E1,5.3473022E1,1.6330482E2,4.0930334E2,1.3753473E2,1.1756719E2,9.691062E1,3.454044E2,3.3484005E1,6.3862827E1,1.3276659E2,3.0177422E1,3.0704403E1,3.2775723E1,1.2008254E2,4.3222282E1,9.71035E1,4.043123E1,3.434968E1,8.321751E1,5.31276E1,4.378302E1,8.7611305E1,2.577931E2,7.777942E1,5.498718E1,3.2847862E1,6.425564E1,4.8947643E1,3.4269867E1,3.740229E1,5.020902E1,3.4840973E1,4.2938442E1],"tree_param":{"num_deleted":"0","num_feature":"43","num_nodes":"57","size_leaf_vector":"1"}},{"base_weights":[-2.673584E-2,-3.902035E-1,5.243765E-2,-8.4621285E-4,-7.346298E-1,2.3592715E-1,-1.6563598E-2,-1.1425441E-3,-8.393197E-1,9.300504E-2,3.8440478E-1,-1.1982291E-1,1.3646552E-1,-1.0621625E0,-6.41731E-1,2.0857105E-1,-1.6888294E-1,-1.3165383E-4,5.0180507E-1,8.321304E-3,-1.6888294E-1,8.321304E-3,3.1641272E-1,-6.6216397E-3,-4.223309E-3,-8.3059824E-1,-1.1643184E-3,3.0542082E-1,-8.4621285E-4,-8.4621285E-4,5.4726884E-4,1.1913572E-3,5.833386E-1,4.169512E-5,-1.6888294E-1,-1.6888294E-1,4.169512E-5,1.592873E-3,4.169512E-5,8.321304E-3,5.46963E-1,-2.7101506E-3,-5.363255E-3,4.0892962E-2,5.287885E-1,1.2281438E-3,7.113318E-1,4.169512E-5,-8.4621285E-4,-8.4621285E-4,3.105917E-5,8.606193E-4,4.169512E-5,3.2138056E-1,7.265838E-1,1.3762036E-3,-6.250838E-4,1.5639238E-3,3.4790344E-3,4.352773E-3,2.5093402E-3,5.919006E-4,2.8569715E-3,2.2789342E-3,5.4400316E-3],"categories":[],"categories_nodes":[],"categories_segments":[],"categories_sizes":[],"default_left":[0,0,0,0,0,0,0,0,0,0,0,0,0,0,0,0,0,0,0,0,0,0,0,0,0,0,0,0,0,0,0,0,0,0,0,0,0,0,0,0,0,0,0,0,0,0,0,0,0,0,0,0,0,0,0,0,0,0,0,0,0,0,0,0,0],"id":15,"left_children":[1,3,5,-1,7,9,11,-1,13,15,17,19,21,23,25,27,29,-1,31,33,35,37,39,-1,-1,41,-1,43,-1,-1,-1,-1,45,-1,47,49,-1,-1,-1,51,53,-1,-1,55,57,-1,59,-1,-1,-1,-1,-1,-1,61,63,-1,-1,-1,-1,-1,-1,-1,-1,-1,-1],"loss_changes":[6.0931618E1,5.8795006E1,2.2201769E1,0E0,1.1844513E1,9.89278E0,2.003075E1,0E0,7.1640472E0,8.459125E0,1.17100525E1,1.3680333E1,2.103331E1,2.540306E0,7.977936E0,7.897135E0,3.0276036E0,0E0,4.759037E0,3.9838095E0,5.426899E0,3.804259E0,2.681303E1,0E0,0E0,3.823967E0,0E0,8.549685E0,0E0,0E0,0E0,0E0,5.613632E0,0E0,4.0303864E0,1.3351631E0,0E0,0E0,0E0,1.5116036E0,7.149292E0,0E0,0E0,3.7241695E0,2.2420845E0,0E0,2.3427582E0,0E0,0E0,0E0,0E0,0E0,0E0,4.484123E0,8.936295E0,0E0,0E0,0E0,0E0,0E0,0E0,0E0,0E0,0E0,0E0],"parents":[2147483647,0,0,1,1,2,2,4,4,5,5,6,6,8,8,9,9,10,10,11,11,12,12,13,13,14,14,15,15,16,16,18,18,19,19,20,20,21,21,22,22,25,25,27,27,32,32,34,34,35,35,39,39,40,40,43,43,44,44,46,46,53,53,54,54],"right_children":[2,4,6,-1,8,10,12,-1,14,16,18,20,22,24,26,28,30,-1,32,34,36,38,40,-1,-1,42,-1,44,-1,-1,-1,-1,46,-1,48,50,-1,-1,-1,52,54,-1,-1,56,58,-1,60,-1,-1,-1,-1,-1,-1,62,64,-1,-1,-1,-1,-1,-1,-1,-1,-1,-1],"split_conditions":[-3.4451224E-2,2.019E3,-2.2546976E0,-8.4621285E-4,-2.93003E0,2.02E3,1.5230996E-2,-1.1425441E-3,4.9343616E1,2.4546085E-1,-1.2813444E-2,2.019E3,2.019E3,1.2847231E-1,1.1342902E-1,1.6421164E1,5.4474426E1,-1.3165383E-4,-7.1726108E0,1.3930938E-1,1.5213417E-1,-3.375515E0,1.3184722E-1,-6.6216397E-3,-4.223309E-3,5.359866E1,-1.1643184E-3,1.2956741E1,-8.4621285E-4,-8.4621285E-4,5.4726884E-4,1.1913572E-3,1.3078192E-1,4.169512E-5,2.2548187E-1,5.3124156E0,4.169512E-5,1.592873E-3,4.169512E-5,2.3854534E1,1.3467693E1,-2.7101506E-3,-5.363255E-3,1.1044138E1,3.6699339E-3,1.2281438E-3,1E0,4.169512E-5,-8.4621285E-4,-8.4621285E-4,3.105917E-5,8.606193E-4,4.169512E-5,1.4801437E-1,2.5832376E-1,1.3762036E-3,-6.250838E-4,1.5639238E-3,3.4790344E-3,4.352773E-3,2.5093402E-3,5.919006E-4,2.8569715E-3,2.2789342E-3,5.4400316E-3],"split_indices":[0,37,3,0,3,37,0,0,13,9,0,37,37,7,29,14,13,0,29,7,7,4,7,0,0,13,0,14,0,0,0,0,7,0,9,3,0,0,0,12,14,0,0,14,2,0,31,0,0,0,0,0,0,7,9,0,0,0,0,0,0,0,0,0,0],"split_type":[0,0,0,0,0,0,0,0,0,0,0,0,0,0,0,0,0,0,0,0,0,0,0,0,0,0,0,0,0,0,0,0,0,0,0,0,0,0,0,0,0,0,0,0,0,0,0,0,0,0,0,0,0,0,0,0,0,0,0,0,0,0,0,0,0],"sum_hessian":[2.0721013E3,3.714261E2,1.7006752E3,1.347244E2,2.3670169E2,4.6739215E2,1.2332831E3,4.338374E1,1.9331795E2,2.4344826E2,2.2394388E2,7.406613E2,4.9262173E2,8.398846E1,1.0932949E2,1.7422339E2,6.922488E1,4.8220486E1,1.757234E2,3.1078833E2,4.29873E2,1.9147015E2,3.0115158E2,3.1380526E1,5.260793E1,7.158553E1,3.774396E1,1.4404314E2,3.0180252E1,3.8797356E1,3.0427517E1,3.4560448E1,1.4116295E2,2.0120291E2,1.0958541E2,3.6816348E2,6.170948E1,3.0931707E1,1.6053844E2,1.1328666E2,1.8786493E2,3.752555E1,3.4059982E1,6.920977E1,7.483337E1,4.2672462E1,9.849049E1,4.3486866E1,6.609854E1,3.364446E2,3.1718893E1,4.1920177E1,7.1366486E1,8.846698E1,9.939795E1,3.0676626E1,3.8533146E1,3.778116E1,3.7052204E1,4.9724773E1,4.8765717E1,5.2702663E1,3.5764317E1,6.0981525E1,3.8416424E1],"tree_param":{"num_deleted":"0","num_feature":"43","num_nodes":"65","size_leaf_vector":"1"}},{"base_weights":[1.2382026E-2,-1.6811581E-1,1.5806673E-1,-2.9510328E-1,-5.0245374E-3,-5.0245374E-3,2.6715478E-1,-1.9034193E-1,-5.9293413E-1,-1.500639E-1,-5.0245374E-3,6.567211E-4,-2.5176185E-5,6.1134064E-1,2.1741927E-1,-3.0974778E-3,-1.500639E-1,-4.797354E-3,-3.4675103E-1,-7.5191725E-4,-2.5176185E-5,-7.5191725E-4,-2.5176185E-5,4.4401702E-1,4.382812E-3,3.678712E-1,1.4939263E-1,-1.9246975E-3,-1.500639E-1,-7.5191725E-4,-2.9828895E-3,1.2731587E-3,2.7870378E-3,2.586319E-1,5.2538186E-1,1.3106513E-1,2.586319E-1,-3.1939313E-1,-7.5191725E-4,1.2959132E-3,1.9642082E-3,1.9642082E-3,6.6422945E-1,2.586319E-1,1.3106513E-1,6.567211E-4,1.2959132E-3,-7.5191725E-4,-1.9246975E-3,4.202339E-3,1.9642082E-3,1.2959132E-3,6.567211E-4,1.2959132E-3,6.567211E-4],"categories":[],"categories_nodes":[],"categories_segments":[],"categories_sizes":[],"default_left":[0,0,0,0,0,0,0,0,0,0,0,0,0,0,0,0,0,0,0,0,0,0,0,0,0,0,0,0,0,0,0,0,0,0,0,0,0,0,0,0,0,0,0,0,0,0,0,0,0,0,0,0,0,0,0],"id":16,"left_children":[1,3,5,7,9,11,13,15,17,19,21,-1,-1,23,25,-1,27,-1,29,-1,-1,-1,-1,31,-1,33,35,-1,37,-1,-1,-1,-1,39,41,43,45,47,-1,-1,-1,-1,49,51,53,-1,-1,-1,-1,-1,-1,-1,-1,-1,-1],"loss_changes":[5.466949E1,2.7524246E1,3.0720512E1,1.9086182E1,5.9493766E0,1.1045639E1,1.4069969E1,8.376671E0,1.3403992E1,9.243736E-1,1.7433183E0,0E0,0E0,3.6626663E0,7.3690643E0,0E0,4.665394E0,0E0,7.827077E0,0E0,0E0,0E0,0E0,1.0613956E0,0E0,5.589012E0,4.0434475E0,0E0,3.0694742E0,0E0,0E0,0E0,0E0,1.3264179E0,3.762371E0,2.5833282E0,3.258215E0,3.6267815E0,0E0,0E0,0E0,0E0,3.664013E0,2.4638739E0,1.11871E0,0E0,0E0,0E0,0E0,0E0,0E0,0E0,0E0,0E0,0E0],"parents":[2147483647,0,0,1,1,2,2,3,3,4,4,5,5,6,6,7,7,8,8,9,9,10,10,13,13,14,14,16,16,18,18,23,23,25,25,26,26,28,28,33,33,34,34,35,35,36,36,37,37,42,42,43,43,44,44],"right_children":[2,4,6,8,10,12,14,16,18,20,22,-1,-1,24,26,-1,28,-1,30,-1,-1,-1,-1,32,-1,34,36,-1,38,-1,-1,-1,-1,40,42,44,46,48,-1,-1,-1,-1,50,52,54,-1,-1,-1,-1,-1,-1,-1,-1,-1,-1],"split_conditions":[-3.0399986E1,1.2738855E-2,-2.0046806E-2,2.023E3,2.018E3,2.018E3,-4.5629373E0,-3.7038013E2,-3.506266E-2,2.9087234E1,1.22379564E-1,6.567211E-4,-2.5176185E-5,2.02E3,-3.75804E0,-3.0974778E-3,-5.9220457E0,-4.797354E-3,2.4181602E1,-7.5191725E-4,-2.5176185E-5,-7.5191725E-4,-2.5176185E-5,5.3770153E1,4.382812E-3,1.4823008E-2,1.4285126E-1,-1.9246975E-3,4.8693E1,-7.5191725E-4,-2.9828895E-3,1.2731587E-3,2.7870378E-3,1.9537555E2,1.2984619E-1,4.8466255E1,2.283979E1,4.50811E1,-7.5191725E-4,1.2959132E-3,1.9642082E-3,1.9642082E-3,-1.8610497E0,1.801803E0,2.016E3,6.567211E-4,1.2959132E-3,-7.5191725E-4,-1.9246975E-3,4.202339E-3,1.9642082E-3,1.2959132E-3,6.567211E-4,1.2959132E-3,6.567211E-4],"split_indices":[34,0,0,37,37,37,3,34,0,12,7,0,0,37,28,0,29,0,12,0,0,0,0,13,0,0,7,0,13,0,0,0,0,34,7,13,11,13,0,0,0,0,29,3,37,0,0,0,0,0,0,0,0,0,0],"split_type":[0,0,0,0,0,0,0,0,0,0,0,0,0,0,0,0,0,0,0,0,0,0,0,0,0,0,0,0,0,0,0,0,0,0,0,0,0,0,0,0,0,0,0,0,0,0,0,0,0,0,0,0,0,0,0],"sum_hessian":[2.0506614E3,9.126132E2,1.1380481E3,6.1102167E2,3.0159158E2,3.191442E2,8.189039E2,4.5717755E2,1.5384409E2,9.87743E1,2.0281729E2,1.0367512E2,2.1546907E2,9.7723465E1,7.211804E2,3.56987E1,4.2147885E2,5.783402E1,9.601007E1,6.831336E1,3.0460938E1,3.632482E1,1.6649248E2,6.567178E1,3.205168E1,2.169103E2,5.042701E2,5.4891525E1,3.6658734E2,4.184762E1,5.4162453E1,3.0387955E1,3.528383E1,1.06284164E2,1.1062613E2,3.459005E2,1.583696E2,9.450611E1,2.7208124E2,6.922788E1,3.7056282E1,3.4303112E1,7.632302E1,9.957921E1,2.4632129E2,3.7250755E1,1.2111885E2,3.297435E1,6.153176E1,4.5228092E1,3.1094927E1,6.302557E1,3.6553635E1,3.1899353E1,2.1442194E2],"tree_param":{"num_deleted":"0","num_feature":"43","num_nodes":"55","size_leaf_vector":"1"}},{"base_weights":[-9.3009565E-3,-1.9200827E-1,1.3747406E-1,-4.5746404E-1,-9.910881E-2,3.6270222E-1,7.254021E-2,-4.146843E-4,-5.371548E-1,-2.9625323E-2,-5.715927E-1,1.7163152E-1,5.3728426E-1,4.0289138E-2,4.6567488E-1,-6.407016E-1,-3.1236818E-1,-2.2519435E-1,-2.7267106E-2,-6.8216835E-4,-3.909871E-3,-0E0,2.5108412E-3,1.1421393E-3,7.007005E-1,2.665338E-1,-1.203307E-2,9.6076605E-4,3.3629672E-3,-2.3877483E-3,-8.0597126E-1,-7.579033E-4,-2.1346938E-3,-2.7267106E-2,-4.3300876E-1,-2.7267106E-2,-1.9448042E-3,9.0536475E-4,-1.3662585E-4,4.129552E-3,2.3265511E-3,-9.374085E-3,5.269132E-1,-2.7267106E-2,2.6699457E-1,-3.2130932E-3,-4.9914033E-3,-1.3061506E-3,-1.3662585E-4,-3.4703843E-3,-5.3811766E-4,-1.5690997E-1,-1.3662585E-4,1.0515759E-3,-1.3662585E-4,3.835292E-3,1.6122173E-3,1.409484E-1,-1.3662585E-4,-0E0,3.08373E-3,-1.3662585E-4,-1.040715E-3,2.8480843E-4,2.1361504E-3],"categories":[],"categories_nodes":[],"categories_segments":[],"categories_sizes":[],"default_left":[0,0,0,0,0,0,0,0,0,0,0,0,0,0,0,0,0,0,0,0,0,0,0,0,0,0,0,0,0,0,0,0,0,0,0,0,0,0,0,0,0,0,0,0,0,0,0,0,0,0,0,0,0,0,0,0,0,0,0,0,0,0,0,0,0],"id":17,"left_children":[1,3,5,7,9,11,13,-1,15,17,19,21,23,25,27,29,31,33,35,-1,-1,37,-1,-1,39,41,43,-1,-1,-1,45,-1,-1,47,49,51,-1,-1,-1,-1,-1,53,55,57,59,-1,-1,-1,-1,-1,-1,61,-1,-1,-1,-1,-1,63,-1,-1,-1,-1,-1,-1,-1],"loss_changes":[5.612152E1,2.2853458E1,1.6820274E1,6.6482506E0,2.3018984E1,8.179531E0,1.1654428E1,0E0,3.9121666E0,6.71027E0,7.3935375E0,8.282264E0,5.961979E0,1.0583641E1,3.3179245E0,3.572689E0,1.0551143E0,7.0895205E0,5.2440014E0,0E0,0E0,2.2153425E0,0E0,0E0,1.7988815E0,1.2566408E1,8.2262945E0,0E0,0E0,0E0,2.0585785E0,0E0,0E0,2.749575E0,6.437212E0,3.2302861E0,0E0,0E0,0E0,0E0,0E0,2.5901659E0,3.6195183E0,5.7101083E0,9.539621E0,0E0,0E0,0E0,0E0,0E0,0E0,3.3266926E0,0E0,0E0,0E0,0E0,0E0,8.005368E0,0E0,0E0,0E0,0E0,0E0,0E0,0E0],"parents":[2147483647,0,0,1,1,2,2,3,3,4,4,5,5,6,6,8,8,9,9,10,10,11,11,12,12,13,13,14,14,15,15,16,16,17,17,18,18,21,21,24,24,25,25,26,26,30,30,33,33,34,34,35,35,41,41,42,42,43,43,44,44,51,51,57,57],"right_children":[2,4,6,8,10,12,14,-1,16,18,20,22,24,26,28,30,32,34,36,-1,-1,38,-1,-1,40,42,44,-1,-1,-1,46,-1,-1,48,50,52,-1,-1,-1,-1,-1,54,56,58,60,-1,-1,-1,-1,-1,-1,62,-1,-1,-1,-1,-1,64,-1,-1,-1,-1,-1,-1,-1],"split_conditions":[-3.0399986E1,-4.486207E0,1E0,1E0,2.024E3,2.2731814E-1,2.7805758E-1,-4.146843E-4,2.7423418E1,2.017E3,4.16E2,2.7711123E-1,8.019954E1,2.017E3,1.3884439E-1,-3.8176951E0,5.11E2,1.3498498E1,6.102697E0,-6.8216835E-4,-3.909871E-3,3.6499143E-1,2.5108412E-3,1.1421393E-3,7.25E2,1.3521092E2,2.024E3,9.6076605E-4,3.3629672E-3,-2.3877483E-3,2.021E3,-7.579033E-4,-2.1346938E-3,1.2110862E1,3.598563E-1,1.3236612E-1,-1.9448042E-3,9.0536475E-4,-1.3662585E-4,4.129552E-3,2.3265511E-3,-9.776626E-1,3.5565305E-1,-4.02233E0,1.5809691E2,-3.2130932E-3,-4.9914033E-3,-1.3061506E-3,-1.3662585E-4,-3.4703843E-3,-5.3811766E-4,-2.2814207E0,-1.3662585E-4,1.0515759E-3,-1.3662585E-4,3.835292E-3,1.6122173E-3,-1.2214497E0,-1.3662585E-4,-0E0,3.08373E-3,-1.3662585E-4,-1.040715E-3,2.8480843E-4,2.1361504E-3],"split_indices":[34,29,17,17,37,9,9,0,11,37,39,10,34,37,7,28,39,15,28,0,0,6,0,0,39,34,37,0,0,0,37,0,0,15,6,7,0,0,0,0,0,28,6,28,34,0,0,0,0,0,0,29,0,0,0,0,0,29,0,0,0,0,0,0,0],"split_type":[0,0,0,0,0,0,0,0,0,0,0,0,0,0,0,0,0,0,0,0,0,0,0,0,0,0,0,0,0,0,0,0,0,0,0,0,0,0,0,0,0,0,0,0,0,0,0,0,0,0,0,0,0,0,0,0,0,0,0,0,0,0,0,0,0],"sum_hessian":[2.061981E3,9.2136346E2,1.1406176E3,2.338057E2,6.875578E2,2.4951558E2,8.911019E2,4.402641E1,1.8977928E2,6.0329285E2,8.426498E1,1.2397031E2,1.25545265E2,8.2814276E2,6.295918E1,1.24082756E2,6.5696526E1,1.5904538E2,4.4424744E2,3.0044935E1,5.422004E1,8.103034E1,4.2939964E1,4.7344627E1,7.8200645E1,1.5756306E2,6.7057965E2,3.0905125E1,3.2054054E1,6.0577316E1,6.350544E1,3.2977295E1,3.2719234E1,8.2349304E1,7.6696075E1,4.1179166E2,3.2455788E1,3.950164E1,4.15287E1,4.8051056E1,3.0149588E1,7.560101E1,8.196205E1,5.83224E2,8.7355675E1,3.1228872E1,3.227657E1,3.9577724E1,4.277158E1,3.957472E1,3.712136E1,1.7435213E2,2.3743951E2,3.509722E1,4.0503796E1,3.2872494E1,4.908956E1,1.8753299E2,3.95691E2,4.935983E1,3.7995846E1,4.0819965E1,1.3353217E2,1.254447E2,6.2088287E1],"tree_param":{"num_deleted":"0","num_feature":"43","num_nodes":"65","size_leaf_vector":"1"}},{"base_weights":[3.7094227E-3,-1.4551057E-1,2.0950459E-1,-3.198109E-1,5.2318084E-3,3.199701E-2,3.3449706E-1,-5.529269E-1,-2.0684332E-1,-1.5728955E-1,3.199701E-2,1.8324703E-1,3.199701E-2,8.368096E-1,2.5321382E-1,-7.2600746E-1,-1.9034703E-3,-3.798851E-1,-1.5728955E-1,-7.881225E-4,2.7526368E-5,-7.881225E-4,3.199701E-2,9.181862E-4,5.3925597E-4,1.6032573E-4,5.3925597E-4,2.896226E-3,5.2723843E-3,1.9642702E-1,3.3785324E-3,-1.9034703E-3,-8.645481E-1,-1.9034703E-3,-7.881225E-4,-1.5728955E-1,-3.348394E-1,1.6032573E-4,-3.1389834E-4,1.8324703E-1,5.28E-1,-5.436254E-3,-2.713686E-3,-1.778506E-3,-7.881225E-4,-7.881225E-4,-1.9034703E-3,2.661403E-3,1.8324703E-1,1.5362027E-3,3.4961873E-3,9.181862E-4,1.5779184E-3],"categories":[],"categories_nodes":[],"categories_segments":[],"categories_sizes":[],"default_left":[0,0,0,0,0,0,0,0,0,0,0,0,0,0,0,0,0,0,0,0,0,0,0,0,0,0,0,0,0,0,0,0,0,0,0,0,0,0,0,0,0,0,0,0,0,0,0,0,0,0,0,0,0],"id":18,"left_children":[1,3,5,7,9,11,13,15,17,19,21,23,25,27,29,31,-1,33,35,-1,-1,-1,37,-1,-1,-1,-1,-1,-1,39,-1,-1,41,-1,-1,43,45,-1,-1,47,49,-1,-1,-1,-1,-1,-1,-1,51,-1,-1,-1,-1],"loss_changes":[6.499904E1,3.2466827E1,1.9686039E1,1.47295685E1,1.3014431E1,5.17992E0,2.1042107E1,9.259659E0,7.2812424E0,1.1368656E0,3.6054306E0,1.5405445E0,1.5001018E0,2.5019875E0,1.0822416E1,6.7603455E0,0E0,3.1877213E0,3.2170963E0,0E0,0E0,0E0,1.3883197E0,0E0,0E0,0E0,0E0,0E0,0E0,8.211675E0,0E0,0E0,5.11055E0,0E0,0E0,1.6850853E0,3.614232E0,0E0,0E0,5.9951496E0,1.9133053E0,0E0,0E0,0E0,0E0,0E0,0E0,0E0,9.9048615E-1,0E0,0E0,0E0,0E0],"parents":[2147483647,0,0,1,1,2,2,3,3,4,4,5,5,6,6,7,7,8,8,9,9,10,10,11,11,12,12,13,13,14,14,15,15,17,17,18,18,22,22,29,29,32,32,35,35,36,36,39,39,40,40,48,48],"right_children":[2,4,6,8,10,12,14,16,18,20,22,24,26,28,30,32,-1,34,36,-1,-1,-1,38,-1,-1,-1,-1,-1,-1,40,-1,-1,42,-1,-1,44,46,-1,-1,48,50,-1,-1,-1,-1,-1,-1,-1,52,-1,-1,-1,-1],"split_conditions":[6.1291824E-3,-3.0399986E1,-3.1781595E1,-3.4451224E-2,-5.9220457E0,-4.2383447E0,-4.2988877E0,2.6809961E1,-4.569298E0,-7.883637E-3,-6.690163E-2,1.5742196E0,2.5858486E0,-5.7452273E0,2.7805758E-1,-2.7941217E0,-1.9034703E-3,3.7612712E-1,3.752681E-1,-7.881225E-4,2.7526368E-5,-7.881225E-4,1.08E3,9.181862E-4,5.3925597E-4,1.6032573E-4,5.3925597E-4,2.896226E-3,5.2723843E-3,1.4942008E-1,3.3785324E-3,-1.9034703E-3,-1.2214497E0,-1.9034703E-3,-7.881225E-4,1.0907046E1,-2.4518287E0,1.6032573E-4,-3.1389834E-4,-7.3521E0,1.2447205E2,-5.436254E-3,-2.713686E-3,-1.778506E-3,-7.881225E-4,-7.881225E-4,-1.9034703E-3,2.661403E-3,3.1137888E2,1.5362027E-3,3.4961873E-3,9.181862E-4,1.5779184E-3],"split_indices":[0,34,34,0,29,28,3,12,29,0,0,3,29,3,9,3,0,6,6,0,0,0,39,0,0,0,0,0,0,7,0,0,29,0,0,14,28,0,0,28,34,0,0,0,0,0,0,0,34,0,0,0,0],"split_type":[0,0,0,0,0,0,0,0,0,0,0,0,0,0,0,0,0,0,0,0,0,0,0,0,0,0,0,0,0,0,0,0,0,0,0,0,0,0,0,0,0,0,0,0,0,0,0,0,0,0,0,0,0],"sum_hessian":[2.0867937E3,1.2071562E3,8.796373E2,5.6185986E2,6.452964E2,3.6579684E2,5.1384045E2,1.7770512E2,3.8415475E2,1.2894553E2,5.163509E2,1.0009323E2,2.657036E2,6.702506E1,4.468154E2,1.19731606E2,5.797351E1,1.0170385E2,2.824509E2,9.875605E1,3.0189466E1,3.1037376E1,4.853135E2,6.817752E1,3.1915707E1,2.1904813E2,4.665549E1,3.6210396E1,3.0814669E1,3.9864154E2,4.8173855E1,3.0826208E1,8.89054E1,6.648277E1,3.522108E1,1.9238747E2,9.006345E1,4.4010794E2,4.5205544E1,3.3622028E2,6.2421276E1,4.793955E1,4.096585E1,3.1989174E1,1.6039828E2,3.1497469E1,5.8565983E1,4.2093132E1,2.9412714E2,3.232822E1,3.0093058E1,2.5051514E2,4.3611996E1],"tree_param":{"num_deleted":"0","num_feature":"43","num_nodes":"53","size_leaf_vector":"1"}},{"base_weights":[-8.4223235E-3,-1.9447276E-1,1.419883E-1,-3.168749E-1,-2.6242226E-2,-2.6242226E-2,2.4621843E-1,-1.7155856E-1,-4.9211994E-1,-8.596194E-4,-2.6242226E-2,5.511116E-4,-1.3149054E-4,1.7086013E-1,4.7776583E-1,-1.7155856E-1,-2.6622836E-3,-6.327579E-1,-1.7155856E-1,-8.596194E-4,-1.3149054E-4,4.7613966E-1,1.19489715E-1,1.438863E-1,7.1538645E-1,-1.7609515E-3,-1.7155856E-1,-7.889842E-1,-2.015073E-3,-2.015073E-3,-8.596194E-4,9.90051E-4,3.4538894E-3,3.1537625E-1,1.099881E-1,1.8979349E-3,5.511116E-4,4.6545714E-3,1.9750688E-3,-8.596194E-4,-1.6304818E-3,-2.3270466E-3,-8.8449854E-1,5.511116E-4,4.8885357E-1,1.099881E-1,1.9057536E-3,-5.4084715E-3,-3.4642937E-3,1.3553599E-3,3.0941577E-3,5.511116E-4,1.4691565E-3],"categories":[],"categories_nodes":[],"categories_segments":[],"categories_sizes":[],"default_left":[0,0,0,0,0,0,0,0,0,0,0,0,0,0,0,0,0,0,0,0,0,0,0,0,0,0,0,0,0,0,0,0,0,0,0,0,0,0,0,0,0,0,0,0,0,0,0,0,0,0,0,0,0],"id":19,"left_children":[1,3,5,7,9,11,13,15,17,-1,19,-1,-1,21,23,25,-1,27,29,-1,-1,31,33,35,37,-1,39,41,-1,-1,-1,-1,-1,43,45,-1,-1,-1,-1,-1,-1,-1,47,-1,49,51,-1,-1,-1,-1,-1,-1,-1],"loss_changes":[5.8713806E1,2.64514E1,2.32981E1,2.024899E1,1.1373622E1,1.5557155E1,1.3013245E1,4.8684664E0,1.773082E1,0E0,2.0311444E0,0E0,0E0,9.076883E0,1.386631E1,2.2960038E0,0E0,1.4497536E1,4.9651856E0,0E0,0E0,4.3018513E0,5.051082E0,3.828714E0,6.10672E0,0E0,1.1173E0,4.5100937E0,0E0,0E0,0E0,0E0,0E0,5.480013E0,3.3895278E0,0E0,0E0,0E0,0E0,0E0,0E0,0E0,3.4931717E0,0E0,1.4805336E0,2.4543443E0,0E0,0E0,0E0,0E0,0E0,0E0,0E0],"parents":[2147483647,0,0,1,1,2,2,3,3,4,4,5,5,6,6,7,7,8,8,10,10,13,13,14,14,15,15,17,17,18,18,21,21,22,22,23,23,24,24,26,26,27,27,33,33,34,34,42,42,44,44,45,45],"right_children":[2,4,6,8,10,12,14,16,18,-1,20,-1,-1,22,24,26,-1,28,30,-1,-1,32,34,36,38,-1,40,42,-1,-1,-1,-1,-1,44,46,-1,-1,-1,-1,-1,-1,-1,48,-1,50,52,-1,-1,-1,-1,-1,-1,-1],"split_conditions":[-2.7832336E1,1.3288795E-2,-1.2388865E-2,2.02E3,2.018E3,2.018E3,2.023E3,4.139504E0,-5.3824596E-3,-8.596194E-4,1.2281768E-1,5.511116E-4,-1.3149054E-4,-4.2988877E0,1.3716832E-1,1.8972813E-1,-2.6622836E-3,1.4801437E-1,5.056684E1,-8.596194E-4,-1.3149054E-4,2.018E3,1E0,1.3971629E0,6.8060243E-1,-1.7609515E-3,5.942103E1,-2.45921E0,-2.015073E-3,-2.015073E-3,-8.596194E-4,9.90051E-4,3.4538894E-3,2.2548187E-1,1E0,1.8979349E-3,5.511116E-4,4.6545714E-3,1.9750688E-3,-8.596194E-4,-1.6304818E-3,-2.3270466E-3,4.9583885E1,5.511116E-4,5.136952E1,9.73E2,1.9057536E-3,-5.4084715E-3,-3.4642937E-3,1.3553599E-3,3.0941577E-3,5.511116E-4,1.4691565E-3],"split_indices":[34,0,0,37,37,37,37,28,0,0,7,0,0,3,7,9,0,7,13,0,0,37,17,3,3,0,13,3,0,0,0,0,0,9,25,0,0,0,0,0,0,0,13,0,13,39,0,0,0,0,0,0,0],"split_type":[0,0,0,0,0,0,0,0,0,0,0,0,0,0,0,0,0,0,0,0,0,0,0,0,0,0,0,0,0,0,0,0,0,0,0,0,0,0,0,0,0,0,0,0,0,0,0,0,0,0,0,0,0],"sum_hessian":[2.067936E3,9.272032E2,1.1407329E3,6.1944226E2,3.077609E2,3.9617932E2,7.445535E2,2.9968094E2,3.1976135E2,1.0149869E2,2.062622E2,1.2547987E2,2.7069943E2,5.678932E2,1.7666035E2,2.6941946E2,3.026146E1,2.3566978E2,8.409156E1,4.1241478E1,1.6502072E2,7.636199E1,4.9153122E2,7.668122E1,9.9979126E1,3.1761183E1,2.3765828E2,1.7944083E2,5.6228966E1,3.663945E1,4.745211E1,3.6985092E1,3.93769E1,1.09756004E2,3.817752E2,4.580013E1,3.0881094E1,5.569187E1,4.428726E1,2.0322795E2,3.4430336E1,4.6107647E1,1.3333318E2,4.313525E1,6.662075E1,3.4476797E2,3.7007225E1,5.88012E1,7.4531975E1,3.0127462E1,3.649329E1,2.8420175E2,6.056624E1],"tree_param":{"num_deleted":"0","num_feature":"43","num_nodes":"53","size_leaf_vector":"1"}},{"base_weights":[7.976203E-3,-1.4773233E-1,1.396064E-1,-2.9468247E-1,-3.947435E-2,3.749346E-1,4.8232164E-2,-3.482945E-1,-2.0358088E-5,-3.4024623E-1,-4.0629655E-3,1.1543928E-1,4.5994425E-1,3.1239498E-1,-4.0629655E-3,-2.1896516E-1,-5.4382825E-1,-3.3599662E-3,-1.5562347E-1,-4.0629655E-3,-3.7919313E-1,1.441522E-3,-2.0358088E-5,3.0334073E-1,6.4556223E-1,5.366417E-1,5.9874237E-2,-4.0629655E-3,2.735614E-1,-1.7617872E-1,-3.281611E-3,-4.023498E-1,-3.9023403E-3,-2.0698702E-3,-2.0358088E-5,-2.2115557E-1,-4.0629655E-3,-1.8203937E-4,-3.6419968E-3,1.441522E-3,2.377309E-3,2.377309E-3,4.1194665E-3,9.874916E-4,7.0283824E-1,1.7066662E-3,-2.0358088E-5,-4.0629655E-3,1.9610403E-3,2.6690948E-3,-2.0358088E-5,-2.274733E-3,-8.827694E-4,-3.3316852E-3,-8.827694E-4,-1.904E-3,-6.3226864E-5,-2.0358088E-5,-6.074646E-4,2.3318483E-3,4.6898085E-3,8.305137E-4,-2.0358088E-5],"categories":[],"categories_nodes":[],"categories_segments":[],"categories_sizes":[],"default_left":[0,0,0,0,0,0,0,0,0,0,0,0,0,0,0,0,0,0,0,0,0,0,0,0,0,0,0,0,0,0,0,0,0,0,0,0,0,0,0,0,0,0,0,0,0,0,0,0,0,0,0,0,0,0,0,0,0,0,0,0,0,0,0],"id":20,"left_children":[1,3,5,7,9,11,13,15,-1,17,19,21,23,25,27,29,31,-1,33,35,37,-1,-1,39,41,43,45,47,49,51,-1,53,-1,-1,-1,55,57,-1,-1,-1,-1,-1,-1,-1,59,-1,-1,61,-1,-1,-1,-1,-1,-1,-1,-1,-1,-1,-1,-1,-1,-1,-1],"loss_changes":[4.306947E1,1.5072571E1,2.434916E1,8.701687E0,1.3759218E1,6.5863037E0,2.083313E1,8.803726E0,0E0,7.3896914E0,1.1200118E1,4.3505964E0,6.328514E0,1.2640581E1,8.379332E0,1.45380125E1,3.9738617E0,0E0,5.9872804E0,3.5174623E0,8.784872E0,0E0,0E0,3.2365046E0,3.9062614E0,6.111908E0,4.95662E0,6.2523985E0,1.0411833E1,5.0557947E0,0E0,8.52669E0,0E0,0E0,0E0,2.0987437E0,7.4536693E-1,0E0,0E0,0E0,0E0,0E0,0E0,0E0,3.237255E0,0E0,0E0,1.875421E0,0E0,0E0,0E0,0E0,0E0,0E0,0E0,0E0,0E0,0E0,0E0,0E0,0E0,0E0,0E0],"parents":[2147483647,0,0,1,1,2,2,3,3,4,4,5,5,6,6,7,7,9,9,10,10,11,11,12,12,13,13,14,14,15,15,16,16,18,18,19,19,20,20,23,23,24,24,25,25,26,26,27,27,28,28,29,29,31,31,35,35,36,36,44,44,47,47],"right_children":[2,4,6,8,10,12,14,16,-1,18,20,22,24,26,28,30,32,-1,34,36,38,-1,-1,40,42,44,46,48,50,52,-1,54,-1,-1,-1,56,58,-1,-1,-1,-1,-1,-1,-1,60,-1,-1,62,-1,-1,-1,-1,-1,-1,-1,-1,-1,-1,-1,-1,-1,-1,-1],"split_conditions":[-2.7832336E1,1.3219137E-1,-2.216934E0,3.1336487E1,2.017E3,2.3391136E1,2.018E3,2.401536E-1,-2.0358088E-5,-2.8035924E-1,2.024E3,4.695524E1,2.3485824E-1,1.3576493E-1,2.6287323E-1,2.022E3,1.2691633E0,-3.3599662E-3,2.2022429E-1,-6.402564E0,-6.805585E-1,1.441522E-3,-2.0358088E-5,2.02E3,1.4084833E2,1.4677211E3,2.5396626E1,2E0,5.1594784E1,2.0274664E-1,-3.281611E-3,1.4866892E3,-3.9023403E-3,-2.0698702E-3,-2.0358088E-5,-1.971309E-1,5.188565E0,-1.8203937E-4,-3.6419968E-3,1.441522E-3,2.377309E-3,2.377309E-3,4.1194665E-3,9.874916E-4,1.6049577E2,1.7066662E-3,-2.0358088E-5,2.1332178E1,1.9610403E-3,2.6690948E-3,-2.0358088E-5,-2.274733E-3,-8.827694E-4,-3.3316852E-3,-8.827694E-4,-1.904E-3,-6.3226864E-5,-2.0358088E-5,-6.074646E-4,2.3318483E-3,4.6898085E-3,8.305137E-4,-2.0358088E-5],"split_indices":[34,7,3,11,37,11,37,9,0,26,37,13,8,7,9,37,3,0,8,29,3,0,0,37,34,24,12,18,13,9,0,24,0,0,0,3,29,0,0,0,0,0,0,0,34,0,0,12,0,0,0,0,0,0,0,0,0,0,0,0,0,0,0],"split_type":[0,0,0,0,0,0,0,0,0,0,0,0,0,0,0,0,0,0,0,0,0,0,0,0,0,0,0,0,0,0,0,0,0,0,0,0,0,0,0,0,0,0,0,0,0,0,0,0,0,0,0,0,0,0,0,0,0,0,0,0,0,0,0],"sum_hessian":[2.0695566E3,9.443847E2,1.1251719E3,3.9502008E2,5.493646E2,3.0969336E2,8.154786E2,3.534481E2,4.157197E1,1.20261406E2,4.291032E2,8.064319E1,2.2905019E2,2.2280421E2,5.926744E2,2.1863766E2,1.3481044E2,3.9097187E1,8.116422E1,3.571226E2,7.198063E1,3.9205917E1,4.1437267E1,1.3030316E2,9.874702E1,1.1457856E2,1.08225655E2,4.934832E2,9.919116E1,1.5920009E2,5.9437576E1,9.0512596E1,4.429784E1,3.0007889E1,5.115633E1,6.305453E1,2.9406805E2,3.8920185E1,3.306044E1,8.259217E1,4.7710995E1,4.3127693E1,5.561932E1,4.1222073E1,7.335649E1,3.853132E1,6.9694336E1,4.6082806E2,3.265514E1,5.9258022E1,3.993314E1,5.685788E1,1.023422E2,5.141651E1,3.9096085E1,3.2001923E1,3.1052608E1,2.5939386E2,3.4674202E1,4.1713284E1,3.1643204E1,5.0832775E1,4.0999527E2],"tree_param":{"num_deleted":"0","num_feature":"43","num_nodes":"63","size_leaf_vector":"1"}},{"base_weights":[-7.499476E-3,1.9466579E-1,-6.365546E-2,-1.7389034E-1,2.657419E-1,-2.4415846E-1,-9.300395E-4,-2.333666E-3,9.1919553E-4,-3.94963E-2,3.3470225E-1,8.055278E-2,-4.6594512E-1,-1.19519085E-1,1.05014615E-1,-1.3163475E-3,1.0126443E-3,5.154427E-1,2.519143E-1,2.1807483E-1,-1.1509606E-3,-4.220909E-3,-3.566264E-1,-2.876326E-1,-1.589292E-2,6.3744955E-2,2.736463E-3,1.1988995E-3,3.947608E-3,-2.3966471E-5,3.3343837E-1,-0E0,2.4173334E-3,-3.9076847E-3,-2.5549167E-1,-1.3757231E-2,-4.027781E-1,-3.3963487E-1,-7.252235E-3,-7.252235E-3,2.042276E-1,1.4195594E-1,5.076777E-1,-1.1944361E-3,1.2086667E-3,-2.5939317E-3,-6.956903E-2,-1.6095554E-3,-3.633839E-5,-5.7110534E-4,-5.539825E-1,-3.633839E-5,-3.6502099E-3,-7.252235E-3,-2.1471001E-1,-7.252235E-3,1.7486459E-1,1.4577478E-2,4.3589425E-1,1.9928655E-3,-2.1386286E-4,2.5471428E-4,3.7751393E-3,-9.556122E-4,8.069966E-4,-1.4813886E-3,-4.0413192E-3,-3.633839E-5,-9.846842E-4,-2.7301009E-3,-3.633839E-5,4.199232E-4,-3.633839E-5,4.199232E-4,2.510237E-3,1.410465E-3,-3.633839E-5,8.866437E-4,3.1636383E-3],"categories":[],"categories_nodes":[],"categories_segments":[],"categories_sizes":[],"default_left":[0,0,0,0,0,0,0,0,0,0,0,0,0,0,0,0,0,0,0,0,0,0,0,0,0,0,0,0,0,0,0,0,0,0,0,0,0,0,0,0,0,0,0,0,0,0,0,0,0,0,0,0,0,0,0,0,0,0,0,0,0,0,0,0,0,0,0,0,0,0,0,0,0,0,0,0,0,0,0],"id":21,"left_children":[1,3,5,7,9,11,13,-1,-1,15,17,19,21,23,25,-1,-1,27,29,31,-1,-1,33,35,37,39,-1,-1,-1,-1,41,43,-1,-1,45,47,49,51,53,55,57,59,61,-1,-1,-1,63,-1,-1,-1,65,-1,-1,67,69,71,73,75,77,-1,-1,-1,-1,-1,-1,-1,-1,-1,-1,-1,-1,-1,-1,-1,-1,-1,-1,-1,-1],"loss_changes":[2.4150549E1,1.2515377E1,1.8715885E1,8.946926E0,8.58213E0,3.1293901E1,1.5893246E1,0E0,0E0,4.794317E0,4.520809E0,8.107285E0,9.969723E0,1.0224518E1,1.2052632E1,0E0,0E0,6.5669594E0,5.194401E0,7.7938037E0,0E0,0E0,8.488245E0,6.7222824E0,7.594258E0,8.39521E0,0E0,0E0,0E0,0E0,5.5895348E0,5.1304197E0,0E0,0E0,1.0000267E1,4.041558E0,6.3282204E0,1.0974834E1,3.454057E0,2.7372572E0,1.0931667E1,5.1699014E0,9.445818E0,0E0,0E0,0E0,3.796908E0,0E0,0E0,0E0,5.769682E0,0E0,0E0,1.696278E0,8.885395E0,1.1244392E0,6.27949E0,3.7291467E0,5.221874E0,0E0,0E0,0E0,0E0,0E0,0E0,0E0,0E0,0E0,0E0,0E0,0E0,0E0,0E0,0E0,0E0,0E0,0E0,0E0,0E0],"parents":[2147483647,0,0,1,1,2,2,3,3,4,4,5,5,6,6,9,9,10,10,11,11,12,12,13,13,14,14,17,17,18,18,19,19,22,22,23,23,24,24,25,25,30,30,31,31,34,34,35,35,36,36,37,37,38,38,39,39,40,40,41,41,42,42,46,46,50,50,53,53,54,54,55,55,56,56,57,57,58,58],"right_children":[2,4,6,8,10,12,14,-1,-1,16,18,20,22,24,26,-1,-1,28,30,32,-1,-1,34,36,38,40,-1,-1,-1,-1,42,44,-1,-1,46,48,50,52,54,56,58,60,62,-1,-1,-1,64,-1,-1,-1,66,-1,-1,68,70,72,74,76,78,-1,-1,-1,-1,-1,-1,-1,-1,-1,-1,-1,-1,-1,-1,-1,-1,-1,-1,-1,-1],"split_conditions":[1E0,-6.402564E0,1.2563807E-1,3.6383617E-1,2.030318E-1,2.019E3,3.5712448E-1,-2.333666E-3,9.1919553E-4,1.3534154E-1,1.2784758E-1,2.8898187E0,-5.4004335E0,1.2663635E1,7.985354E0,-1.3163475E-3,1.0126443E-3,5.231782E1,1.3461214E-1,4.354341E-1,-1.1509606E-3,-4.220909E-3,3.336592E-1,1.3548216E-1,2.0274664E-1,1.441566E-1,2.736463E-3,1.1988995E-3,3.947608E-3,-2.3966471E-5,2.019E3,2.7578894E1,2.4173334E-3,-3.9076847E-3,1.2606345E1,3.3507803E-1,1.0733406E1,2.5425452E-1,3.804222E-1,3.96684E-1,2.021E3,1.4397506E-1,3.5036308E-1,-1.1944361E-3,1.2086667E-3,-2.5939317E-3,3.776477E-1,-1.6095554E-3,-3.633839E-5,-5.7110534E-4,2.021E3,-3.633839E-5,-3.6502099E-3,3.0299747E-1,5.1594784E1,2.1332178E-1,1.3388707E1,-2.9874983E0,2.4221934E-1,1.9928655E-3,-2.1386286E-4,2.5471428E-4,3.7751393E-3,-9.556122E-4,8.069966E-4,-1.4813886E-3,-4.0413192E-3,-3.633839E-5,-9.846842E-4,-2.7301009E-3,-3.633839E-5,4.199232E-4,-3.633839E-5,4.199232E-4,2.510237E-3,1.410465E-3,-3.633839E-5,8.866437E-4,3.1636383E-3],"split_indices":[17,29,7,5,9,37,5,0,0,7,7,4,4,14,4,0,0,13,7,30,0,0,5,7,9,7,0,0,0,0,37,11,0,0,14,5,14,10,6,5,37,7,5,0,0,0,5,0,0,0,37,0,0,10,13,10,14,4,9,0,0,0,0,0,0,0,0,0,0,0,0,0,0,0,0,0,0,0,0],"split_type":[0,0,0,0,0,0,0,0,0,0,0,0,0,0,0,0,0,0,0,0,0,0,0,0,0,0,0,0,0,0,0,0,0,0,0,0,0,0,0,0,0,0,0,0,0,0,0,0,0,0,0,0,0,0,0,0,0,0,0,0,0,0,0,0,0,0,0,0,0,0,0,0,0,0,0,0,0,0,0],"sum_hessian":[2.0893696E3,4.490881E2,1.6402815E3,6.977367E1,3.7931442E2,4.1719327E2,1.2230883E3,3.9622337E1,3.0151333E1,6.733852E1,3.1197592E2,1.6799527E2,2.49198E2,5.815321E2,6.415561E2,3.710408E1,3.0234434E1,9.0587776E1,2.2138815E2,1.191289E2,4.886637E1,5.0723053E1,1.9847495E2,2.1653925E2,3.649929E2,5.9104486E2,5.051119E1,4.8857395E1,4.1730377E1,5.0826645E1,1.7056151E2,6.534032E1,5.378858E1,3.35385E1,1.6493643E2,6.743704E1,1.491022E2,6.0837856E1,3.0415503E2,3.4505533E2,2.4598956E2,8.5920456E1,8.464105E1,3.4635845E1,3.0704472E1,5.5318024E1,1.09618416E2,3.249159E1,3.4945454E1,5.486188E1,9.4240326E1,3.0045547E1,3.0792309E1,2.3591621E2,6.823881E1,2.7591217E2,6.914314E1,1.3894846E2,1.0704111E2,3.7302162E1,4.861829E1,3.1970875E1,5.2670174E1,7.501986E1,3.4598557E1,5.0902683E1,4.3337646E1,2.0152617E2,3.4390045E1,3.6733555E1,3.1505253E1,3.091359E1,2.449986E2,3.5566635E1,3.3576504E1,3.6829903E1,1.0211855E2,5.006479E1,5.697632E1],"tree_param":{"num_deleted":"0","num_feature":"43","num_nodes":"79","size_leaf_vector":"1"}},{"base_weights":[3.80148E-3,-1.684269E-1,1.4412758E-1,-1.12193994E-1,-5.6193507E-1,3.982653E-1,4.7221478E-2,-3.799765E-1,-6.608668E-2,-4.1576623E-4,-7.593471E-1,2.2093827E-4,4.738714E-1,2.3477201E-1,-1.2149662E-2,-3.5227004E-3,-1.5588908E-1,-2.8055552E-1,-1.2149662E-2,-4.911354E-3,-2.2676573E-3,6.4903194E-1,3.6287734E-1,4.7707942E-1,9.703316E-2,-1.2149662E-2,2.2107083E-3,-6.0877668E-5,-1.9054568E-3,-4.6033222E-2,-4.3374607E-1,-2.781235E-1,-1.2149662E-2,3.8735722E-3,2.1669073E-3,2.589826E-1,3.010278E-3,1.1437088E-3,3.3264158E-3,-0E0,2.2917173E-3,-1.2149662E-2,2.0691045E-3,-1.674569E-3,-6.0877668E-5,-6.5577286E-1,-3.805904E-4,-1.3276622E-1,-2.5272514E-3,-1.2149662E-2,-1.6720984E-3,3.9579323E-1,1.2976704E-3,1.0978972E-3,-1.2149662E-2,-1.2149662E-2,1.7542925E-1,-1.6566303E-3,-4.5265527E-3,-1.4758512E-3,-6.0877668E-5,-5.6654605E-4,-6.0877668E-5,3.0664846E-3,1.2976704E-3,5.0585467E-4,-6.0877668E-5,1.0041135E-3,-6.0877668E-5,-6.0877668E-5,1.0041135E-3],"categories":[],"categories_nodes":[],"categories_segments":[],"categories_sizes":[],"default_left":[0,0,0,0,0,0,0,0,0,0,0,0,0,0,0,0,0,0,0,0,0,0,0,0,0,0,0,0,0,0,0,0,0,0,0,0,0,0,0,0,0,0,0,0,0,0,0,0,0,0,0,0,0,0,0,0,0,0,0,0,0,0,0,0,0,0,0,0,0,0,0],"id":22,"left_children":[1,3,5,7,9,11,13,15,17,-1,19,-1,21,23,25,-1,27,29,31,-1,-1,33,35,37,39,41,-1,-1,-1,43,45,47,49,-1,-1,51,-1,-1,-1,53,-1,55,-1,-1,-1,57,-1,59,-1,61,-1,63,-1,-1,65,67,69,-1,-1,-1,-1,-1,-1,-1,-1,-1,-1,-1,-1,-1,-1],"loss_changes":[5.0589035E1,2.0683346E1,2.8265562E1,1.0229512E1,1.0248798E1,8.031967E0,1.1638887E1,8.25815E0,1.1188846E1,0E0,4.2509956E0,0E0,4.510769E0,7.77522E0,9.260147E0,0E0,4.01284E0,6.2514954E0,7.493282E0,0E0,0E0,1.6697884E0,5.054817E0,3.3799133E0,6.1572924E0,7.686235E0,0E0,0E0,0E0,3.8890889E0,8.053972E0,3.169176E0,4.033331E0,0E0,0E0,1.4931288E0,0E0,0E0,0E0,2.1861875E0,0E0,3.5319257E0,0E0,0E0,0E0,4.3033333E0,0E0,2.0858858E0,0E0,1.7242119E0,0E0,3.48709E0,0E0,0E0,7.5448006E-1,3.4638581E0,4.4960194E0,0E0,0E0,0E0,0E0,0E0,0E0,0E0,0E0,0E0,0E0,0E0,0E0,0E0,0E0],"parents":[2147483647,0,0,1,1,2,2,3,3,4,4,5,5,6,6,7,7,8,8,10,10,12,12,13,13,14,14,16,16,17,17,18,18,21,21,22,22,23,23,24,24,25,25,29,29,30,30,31,31,32,32,35,35,39,39,41,41,45,45,47,47,49,49,51,51,54,54,55,55,56,56],"right_children":[2,4,6,8,10,12,14,16,18,-1,20,-1,22,24,26,-1,28,30,32,-1,-1,34,36,38,40,42,-1,-1,-1,44,46,48,50,-1,-1,52,-1,-1,-1,54,-1,56,-1,-1,-1,58,-1,60,-1,62,-1,64,-1,-1,66,68,70,-1,-1,-1,-1,-1,-1,-1,-1,-1,-1,-1,-1,-1,-1],"split_conditions":[-2.8736115E1,9E-1,-2.1798096E0,1.9863881E-1,-2.4999666E0,2.0128635E-1,3E-1,-1.0701779E0,2E-1,-4.1576623E-4,-1.5347873E2,2.2093827E-4,-4.831003E0,1.2886785E-1,2.8607365E-1,-3.5227004E-3,5.6101837E0,1.3404074E-1,-6.689205E0,-4.911354E-3,-2.2676573E-3,6.68E2,1.4337668E-1,2.236925E-1,3.921833E-2,2E0,2.2107083E-3,-6.0877668E-5,-1.9054568E-3,5.68E2,2.8576416E-1,2.6392424E-1,6.102697E0,3.8735722E-3,2.1669073E-3,1.3412155E-1,3.010278E-3,1.1437088E-3,3.3264158E-3,5.0411194E1,2.2917173E-3,9E-1,2.0691045E-3,-1.674569E-3,-6.0877668E-5,5.2645855E1,-3.805904E-4,4.8003063E1,-2.5272514E-3,1.3078192E-1,-1.6720984E-3,6.21E2,1.2976704E-3,1.0978972E-3,1.4065525E-1,-9.657895E0,1.2447205E2,-1.6566303E-3,-4.5265527E-3,-1.4758512E-3,-6.0877668E-5,-5.6654605E-4,-6.0877668E-5,3.0664846E-3,1.2976704E-3,5.0585467E-4,-6.0877668E-5,1.0041135E-3,-6.0877668E-5,-6.0877668E-5,1.0041135E-3],"split_indices":[34,38,3,9,3,8,38,26,38,0,34,0,3,7,9,0,27,7,29,0,0,39,7,9,2,18,0,0,0,39,10,10,28,0,0,7,0,0,0,13,0,38,0,0,0,13,0,13,0,7,0,39,0,0,7,28,34,0,0,0,0,0,0,0,0,0,0,0,0,0,0],"split_type":[0,0,0,0,0,0,0,0,0,0,0,0,0,0,0,0,0,0,0,0,0,0,0,0,0,0,0,0,0,0,0,0,0,0,0,0,0,0,0,0,0,0,0,0,0,0,0,0,0,0,0,0,0,0,0,0,0,0,0,0,0,0,0,0,0,0,0,0,0,0,0],"sum_hessian":[2.0637803E3,9.230984E2,1.140682E3,8.1237756E2,1.1072085E2,3.1012234E2,8.305596E2,1.1377878E2,6.9859875E2,3.4721992E1,7.5998856E1,5.753722E1,2.5258514E2,2.3059268E2,5.999669E2,4.2842125E1,7.093665E1,1.7536649E2,5.232323E2,3.9499847E1,3.649901E1,9.034623E1,1.622389E2,7.89568E1,1.5163588E2,5.6157837E2,3.8388554E1,3.5723564E1,3.5213085E1,7.303579E1,1.02330696E2,9.6080086E1,4.271522E2,5.0921246E1,3.9424984E1,1.08865105E2,5.3373802E1,3.82582E1,4.06986E1,1.2095899E2,3.067689E1,5.260098E2,3.556853E1,3.0492064E1,4.2543724E1,6.0273643E1,4.2057056E1,6.3332832E1,3.2747253E1,3.966606E2,3.0491573E1,7.038261E1,3.84825E1,3.0176987E1,9.0782005E1,4.3868542E2,8.732442E1,3.0018736E1,3.025491E1,3.1801779E1,3.1531054E1,1.4689575E2,2.4976488E2,3.4332245E1,3.6050365E1,3.875469E1,5.2027317E1,3.6284878E1,4.0240054E2,4.0281704E1,4.704271E1],"tree_param":{"num_deleted":"0","num_feature":"43","num_nodes":"71","size_leaf_vector":"1"}},{"base_weights":[-1.32238455E-2,-1.5255356E-1,9.654295E-2,-1.0232422E-1,-5.024843E-1,6.797762E-2,3.233659E-3,-3.7461206E-1,-2.8005306E-2,-4.2013163E-3,-2.2894469E-1,2.668106E-1,-2.2499116E-2,-4.7958395E-1,-1.403247E-4,-2.2308055E-1,-2.8005306E-2,-1.403247E-4,-2.2609965E-3,1.8235607E-1,3.3256114E-3,-2.8005306E-2,4.0058294E-1,-1.2716755E-3,-5.78298E-1,-2.8005306E-2,-4.3781194E-1,-1.6301962E-3,-2.8005306E-2,2.1196667E-3,9.858335E-2,-2.8005306E-2,2.8305852E-1,2.9377424E-4,3.2494739E-3,-1.7117448E-3,-3.5763448E-3,-1.403247E-4,-1.8046618E-3,-3.5934537E-3,-7.815713E-4,-2.8005306E-2,-8.8526047E-4,1.1771562E-2,1.3068166E-3,1.7856464E-3,-2.8005306E-2,1.3845172E-4,2.7926934E-3,-5.925303E-4,-1.403247E-4,-1.403247E-4,1.3068166E-3,