{"learner":{"attributes":{"best_iteration":"188","best_score":"0.6274316819835004","scikit_learn":"{\"_estimator_type\": \"classifier\"}"},"feature_names":["home_composite_elo","away_composite_elo","off_elo_diff","def_elo_diff","net_fatigue_score","ewma_efg_diff","ewma_pace_diff","ewma_tov_diff","ewma_orb_diff","ewma_vol_3p_diff","injury_impact_diff","injury_shock_diff","star_mismatch","ewma_chaos_home","ewma_foul_synergy_home","total_foul_environment","league_offensive_context","season_progress","pace_efficiency_interaction","projected_possession_margin","three_point_matchup","net_free_throw_advantage","star_power_leverage","offense_vs_defense_matchup"],"feature_types":["float","float","float","float","float","float","float","float","float","float","float","float","int","float","float","float","float","float","float","float","float","float","float","float"],"gradient_booster":{"model":{"cats":{"enc":[],"feature_segments":[],"sorted_idx":[]},"gbtree_model_param":{"num_parallel_tree":"1","num_trees":"239"},"iteration_indptr":[0,1,2,3,4,5,6,7,8,9,10,11,12,13,14,15,16,17,18,19,20,21,22,23,24,25,26,27,28,29,30,31,32,33,34,35,36,37,38,39,40,41,42,43,44,45,46,47,48,49,50,51,52,53,54,55,56,57,58,59,60,61,62,63,64,65,66,67,68,69,70,71,72,73,74,75,76,77,78,79,80,81,82,83,84,85,86,87,88,89,90,91,92,93,94,95,96,97,98,99,100,101,102,103,104,105,106,107,108,109,110,111,112,113,114,115,116,117,118,119,120,121,122,123,124,125,126,127,128,129,130,131,132,133,134,135,136,137,138,139,140,141,142,143,144,145,146,147,148,149,150,151,152,153,154,155,156,157,158,159,160,161,162,163,164,165,166,167,168,169,170,171,172,173,174,175,176,177,178,179,180,181,182,183,184,185,186,187,188,189,190,191,192,193,194,195,196,197,198,199,200,201,202,203,204,205,206,207,208,209,210,211,212,213,214,215,216,217,218,219,220,221,222,223,224,225,226,227,228,229,230,231,232,233,234,235,236,237,238,239],"tree_info":[0,0,0,0,0,0,0,0,0,0,0,0,0,0,0,0,0,0,0,0,0,0,0,0,0,0,0,0,0,0,0,0,0,0,0,0,0,0,0,0,0,0,0,0,0,0,0,0,0,0,0,0,0,0,0,0,0,0,0,0,0,0,0,0,0,0,0,0,0,0,0,0,0,0,0,0,0,0,0,0,0,0,0,0,0,0,0,0,0,0,0,0,0,0,0,0,0,0,0,0,0,0,0,0,0,0,0,0,0,0,0,0,0,0,0,0,0,0,0,0,0,0,0,0,0,0,0,0,0,0,0,0,0,0,0,0,0,0,0,0,0,0,0,0,0,0,0,0,0,0,0,0,0,0,0,0,0,0,0,0,0,0,0,0,0,0,0,0,0,0,0,0,0,0,0,0,0,0,0,0,0,0,0,0,0,0,0,0,0,0,0,0,0,0,0,0,0,0,0,0,0,0,0,0,0,0,0,0,0,0,0,0,0,0,0,0,0,0,0,0,0,0,0,0,0,0,0,0,0,0,0,0,0,0,0,0,0,0,0],"trees":[{"base_weights":[-6.8104244E-3,2.1308476E-1,-9.60181E-2,4.831066E-1,-3.69346E-2,4.554117E-3,-3.3821052E-1,5.0026663E-2,1.8249918E-2,1.2468596E-2,-1.1699694E-2,-3.4909442E-2,1.3993826E-3,-4.682367E-2,-1.1975523E-2],"categories":[],"categories_nodes":[],"categories_segments":[],"categories_sizes":[],"default_left":[0,0,0,0,0,0,0,0,0,0,0,0,0,0,0],"id":0,"left_children":[1,3,5,7,9,11,13,-1,-1,-1,-1,-1,-1,-1,-1],"loss_changes":[3.2037605E1,3.1827232E1,2.830914E1,1.3789021E1,1.3859188E1,1.3562961E1,2.007845E1,0E0,0E0,0E0,0E0,0E0,0E0,0E0,0E0],"parents":[2147483647,0,0,1,1,2,2,3,3,4,4,5,5,6,6],"right_children":[2,4,6,8,10,12,14,-1,-1,-1,-1,-1,-1,-1,-1],"split_conditions":[-2.1880891E0,1.133093E2,2.3040194E-2,1.4461556E3,1.407425E3,1.9572414E1,-5.5373006E0,5.0026663E-2,1.8249918E-2,1.2468596E-2,-1.1699694E-2,-3.4909442E-2,1.3993826E-3,-4.682367E-2,-1.1975523E-2],"split_indices":[6,18,8,0,0,14,9,0,0,0,0,0,0,0,0],"split_type":[0,0,0,0,0,0,0,0,0,0,0,0,0,0,0],"sum_hessian":[1.6332621E3,4.712986E2,1.1619635E3,2.2660712E2,2.4469148E2,8.209936E2,3.4096982E2,4.1742805E1,1.8486432E2,9.9752594E1,1.4493889E2,2.645731E1,7.945363E2,4.7935284E1,2.9303455E2],"tree_param":{"num_deleted":"0","num_feature":"24","num_nodes":"15","size_leaf_vector":"1"}},{"base_weights":[1.4804492E-2,5.3729665E-1,-2.7938488E-1,7.6439273E-1,3.433357E-1,-4.474263E-1,-8.1778474E-2,5.1262956E-2,3.2829404E-2,1.5135636E-2,5.207634E-2,-2.8635375E-2,-1.0462881E-2,8.218642E-3,-1.1822703E-2],"categories":[],"categories_nodes":[],"categories_segments":[],"categories_sizes":[],"default_left":[0,0,0,0,0,0,0,0,0,0,0,0,0,0,0],"id":1,"left_children":[1,3,5,7,9,11,13,-1,-1,-1,-1,-1,-1,-1,-1],"loss_changes":[2.5500504E2,2.6298859E1,3.523307E1,7.6651306E0,9.015362E0,1.7210762E1,1.8649551E1,0E0,0E0,0E0,0E0,0E0,0E0,0E0,0E0],"parents":[2147483647,0,0,1,1,2,2,3,3,4,4,5,5,6,6],"right_children":[2,4,6,8,10,12,14,-1,-1,-1,-1,-1,-1,-1,-1],"split_conditions":[1.4772798E3,1.4263983E3,4.324788E-2,-2.6370494E0,6.6999586E4,1.0181912E-2,1.5275621E3,5.1262956E-2,3.2829404E-2,1.5135636E-2,5.207634E-2,-2.8635375E-2,-1.0462881E-2,8.218642E-3,-1.1822703E-2],"split_indices":[1,1,4,6,23,5,1,0,0,0,0,0,0,0,0],"split_type":[0,0,0,0,0,0,0,0,0,0,0,0,0,0,0],"sum_hessian":[1.6589081E3,5.9759424E2,1.0613138E3,2.7521103E2,3.2238318E2,5.735017E2,4.8781213E2,7.934212E1,1.958689E2,3.0498233E2,1.740087E1,3.744747E2,1.9902702E2,1.883794E2,2.9943274E2],"tree_param":{"num_deleted":"0","num_feature":"24","num_nodes":"15","size_leaf_vector":"1"}},{"base_weights":[-2.6049979E-2,4.6606553E-1,-3.0572644E-1,6.922072E-1,2.7967688E-1,-5.447562E-1,-2.0121756E-1,9.485849E-3,3.9676517E-2,3.558401E-2,1.0963884E-2,-3.654678E-2,-1.8446624E-2,-1.9046554E-2,-2.5216963E-3],"categories":[],"categories_nodes":[],"categories_segments":[],"categories_sizes":[],"default_left":[0,0,0,0,0,0,0,0,0,0,0,0,0,0,0],"id":2,"left_children":[1,3,5,7,9,11,13,-1,-1,-1,-1,-1,-1,-1,-1],"loss_changes":[2.2695737E2,2.5165497E1,2.6251625E1,1.3907486E1,8.498835E0,1.0478249E1,1.9883495E1,0E0,0E0,0E0,0E0,0E0,0E0,0E0,0E0],"parents":[2147483647,0,0,1,1,2,2,3,3,4,4,5,5,6,6],"right_children":[2,4,6,8,10,12,14,-1,-1,-1,-1,-1,-1,-1,-1],"split_conditions":[1.4772798E3,1.4263983E3,-2.0933013E-2,-3.0589055E-2,-4.766874E0,2.980225E0,-3.1781595E1,9.485849E-3,3.9676517E-2,3.558401E-2,1.0963884E-2,-3.654678E-2,-1.8446624E-2,-1.9046554E-2,-2.5216963E-3],"split_indices":[1,1,5,5,6,16,2,0,0,0,0,0,0,0,0],"split_type":[0,0,0,0,0,0,0,0,0,0,0,0,0,0,0],"sum_hessian":[1.6489738E3,5.975158E2,1.051458E3,2.6989847E2,3.2761734E2,3.1978763E2,7.3167035E2,4.5887512E1,2.2401094E2,3.978524E1,2.878321E2,1.543693E2,1.6541833E2,3.3294156E2,3.9872882E2],"tree_param":{"num_deleted":"0","num_feature":"24","num_nodes":"15","size_leaf_vector":"1"}},{"base_weights":[1.7519151E-3,-1.424864E-1,1.4662692E-1,-3.6028013E-2,-3.532825E-1,2.5307792E-1,-2.7437244E-2,-1.6562387E-2,4.76792E-3,-3.3655122E-2,-1.0301778E-2,-1.9621386E-3,1.6463922E-2,-7.345245E-3,1.799986E-2],"categories":[],"categories_nodes":[],"categories_segments":[],"categories_sizes":[],"default_left":[0,0,0,0,0,0,0,0,0,0,0,0,0,0,0],"id":3,"left_children":[1,3,5,7,9,11,13,-1,-1,-1,-1,-1,-1,-1,-1],"loss_changes":[3.447571E1,1.8544504E1,1.5256443E1,2.1384089E1,1.3059193E1,1.1475792E1,1.4510817E1,0E0,0E0,0E0,0E0,0E0,0E0,0E0,0E0],"parents":[2147483647,0,0,1,1,2,2,3,3,4,4,5,5,6,6],"right_children":[2,4,6,8,10,12,14,-1,-1,-1,-1,-1,-1,-1,-1],"split_conditions":[3.999108E-2,6.31818E1,1.457782E0,-2.0484589E-2,-1.06430336E2,-2.8296331E-2,7.6522207E0,-1.6562387E-2,4.76792E-3,-3.3655122E-2,-1.0301778E-2,-1.9621386E-3,1.6463922E-2,-7.345245E-3,1.799986E-2],"split_indices":[4,3,11,5,2,5,10,0,0,0,0,0,0,0,0],"split_type":[0,0,0,0,0,0,0,0,0,0,0,0,0,0,0],"sum_hessian":[1.6497787E3,8.2664795E2,8.2313074E2,5.493283E2,2.7731967E2,5.1081906E2,3.1231168E2,1.6912703E2,3.8020126E2,8.698656E1,1.9033313E2,1.0621322E2,4.0460583E2,2.3871939E2,7.359228E1],"tree_param":{"num_deleted":"0","num_feature":"24","num_nodes":"15","size_leaf_vector":"1"}},{"base_weights":[6.9808946E-3,4.7440743E-1,-2.5515446E-1,6.8416905E-1,3.0321527E-1,-3.5613185E-1,1.5351012E-1,1.9827517E-2,3.9082363E-2,1.1579118E-2,3.586932E-2,-7.485004E-3,-2.5888085E-2,1.7520651E-2,-4.9103354E-3],"categories":[],"categories_nodes":[],"categories_segments":[],"categories_sizes":[],"default_left":[0,0,0,0,0,0,0,0,0,0,0,0,0,0,0],"id":4,"left_children":[1,3,5,7,9,11,13,-1,-1,-1,-1,-1,-1,-1,-1],"loss_changes":[2.035382E2,2.1411758E1,4.392166E1,7.5808334E0,9.706472E0,2.8588982E1,1.0496391E1,0E0,0E0,0E0,0E0,0E0,0E0,0E0,0E0],"parents":[2147483647,0,0,1,1,2,2,3,3,4,4,5,5,6,6],"right_children":[2,4,6,8,10,12,14,-1,-1,-1,-1,-1,-1,-1,-1],"split_conditions":[1.4772798E3,1.4248983E3,2.6471463E-1,1.1839309E1,3.4924862E-1,1.5350457E3,1.5477148E3,1.9827517E-2,3.9082363E-2,1.1579118E-2,3.586932E-2,-7.485004E-3,-2.5888085E-2,1.7520651E-2,-4.9103354E-3],"split_indices":[1,1,4,13,4,1,1,0,0,0,0,0,0,0,0],"split_type":[0,0,0,0,0,0,0,0,0,0,0,0,0,0,0],"sum_hessian":[1.6610652E3,5.968454E2,1.0642198E3,2.6813293E2,3.287125E2,8.5339716E2,2.1082266E2,6.8804535E1,1.9932838E2,2.8067917E2,4.803333E1,3.7631348E2,4.7708365E2,1.1819298E2,9.2629684E1],"tree_param":{"num_deleted":"0","num_feature":"24","num_nodes":"15","size_leaf_vector":"1"}},{"base_weights":[5.6395405E-3,5.079773E-1,-2.2217917E-1,7.098002E-1,2.868321E-1,-4.0499982E-1,-3.226889E-2,3.9267864E-2,7.5483182E-3,3.3902433E-2,9.146131E-3,-8.7916E-3,-2.9885845E-2,1.4671525E-2,-6.1294595E-3],"categories":[],"categories_nodes":[],"categories_segments":[],"categories_sizes":[],"default_left":[0,0,0,0,0,0,0,0,0,0,0,0,0,0,0],"id":5,"left_children":[1,3,5,7,9,11,13,-1,-1,-1,-1,-1,-1,-1,-1],"loss_changes":[1.890115E2,2.2978638E1,3.9441414E1,1.1563492E1,9.981037E0,2.5657562E1,1.6461397E1,0E0,0E0,0E0,0E0,0E0,0E0,0E0,0E0],"parents":[2147483647,0,0,1,1,2,2,3,3,4,4,5,5,6,6],"right_children":[2,4,6,8,10,12,14,-1,-1,-1,-1,-1,-1,-1,-1],"split_conditions":[1.46348E3,1.4263983E3,3.999108E-2,1.8448332E2,-1.5909459E2,1.5350457E3,1.5022178E3,3.9267864E-2,7.5483182E-3,3.3902433E-2,9.146131E-3,-8.7916E-3,-2.9885845E-2,1.4671525E-2,-6.1294595E-3],"split_indices":[1,1,4,3,3,1,1,0,0,0,0,0,0,0,0],"split_type":[0,0,0,0,0,0,0,0,0,0,0,0,0,0,0],"sum_hessian":[1.6515037E3,5.153054E2,1.1361982E3,2.693557E2,2.4594969E2,5.7884595E2,5.573523E2,2.3669669E2,3.2659027E1,5.1297783E1,1.9465192E2,2.6547928E2,3.1336667E2,1.210304E2,4.3632187E2],"tree_param":{"num_deleted":"0","num_feature":"24","num_nodes":"15","size_leaf_vector":"1"}},{"base_weights":[-1.2773961E-2,4.0142468E-1,-2.5074732E-1,6.180264E-1,2.2669071E-1,-3.2902068E-1,1.2892252E-1,4.5336172E-2,2.4636138E-2,7.3320325E-3,3.3825908E-2,-7.8029768E-3,-2.3266338E-2,3.9608818E-2,1.2601337E-3],"categories":[],"categories_nodes":[],"categories_segments":[],"categories_sizes":[],"default_left":[0,0,0,0,0,0,0,0,0,0,0,0,0,0,0],"id":6,"left_children":[1,3,5,7,9,11,13,-1,-1,-1,-1,-1,-1,-1,-1],"loss_changes":[1.6123247E2,2.2572105E1,3.087883E1,9.590118E0,1.187521E1,2.0387344E1,1.2221212E1,0E0,0E0,0E0,0E0,0E0,0E0,0E0,0E0],"parents":[2147483647,0,0,1,1,2,2,3,3,4,4,5,5,6,6],"right_children":[2,4,6,8,10,12,14,-1,-1,-1,-1,-1,-1,-1,-1],"split_conditions":[1.4801943E3,1.4263983E3,2.649153E-1,-2.6370494E0,3.4924862E-1,1.5350457E3,-6.240283E0,4.5336172E-2,2.4636138E-2,7.3320325E-3,3.3825908E-2,-7.8029768E-3,-2.3266338E-2,3.9608818E-2,1.2601337E-3],"split_indices":[1,1,4,6,4,1,11,0,0,0,0,0,0,0,0],"split_type":[0,0,0,0,0,0,0,0,0,0,0,0,0,0,0],"sum_hessian":[1.6357222E3,5.9683276E2,1.0388894E3,2.664198E2,3.3041293E2,8.61358E2,1.7753146E2,7.983353E1,1.8658629E2,2.8080984E2,4.960308E1,3.8136273E2,4.799952E2,2.3910986E1,1.5362047E2],"tree_param":{"num_deleted":"0","num_feature":"24","num_nodes":"15","size_leaf_vector":"1"}},{"base_weights":[2.942178E-2,4.8067474E-1,-1.7378965E-1,6.791322E-1,2.7272308E-1,-3.4471035E-1,1.836626E-3,4.884177E-2,2.7524749E-2,1.6396234E-2,-2.8217167E-2,-1.1836589E-2,-2.5513224E-2,1.839604E-2,-3.2160925E-3],"categories":[],"categories_nodes":[],"categories_segments":[],"categories_sizes":[],"default_left":[0,0,0,0,0,0,0,0,0,0,0,0,0,0,0],"id":7,"left_children":[1,3,5,7,9,11,13,-1,-1,-1,-1,-1,-1,-1,-1],"loss_changes":[1.5138068E2,2.1133995E1,3.417199E1,9.98497E0,1.1708641E1,1.0313141E1,1.3649685E1,0E0,0E0,0E0,0E0,0E0,0E0,0E0,0E0],"parents":[2147483647,0,0,1,1,2,2,3,3,4,4,5,5,6,6],"right_children":[2,4,6,8,10,12,14,-1,-1,-1,-1,-1,-1,-1,-1],"split_conditions":[1.46348E3,1.4248983E3,3.999108E-2,-2.6370494E0,7.5359807E0,1.5488823E3,-6.240283E0,4.884177E-2,2.7524749E-2,1.6396234E-2,-2.8217167E-2,-1.1836589E-2,-2.5513224E-2,1.839604E-2,-3.2160925E-3],"split_indices":[1,1,4,6,16,1,11,0,0,0,0,0,0,0,0],"split_type":[0,0,0,0,0,0,0,0,0,0,0,0,0,0,0],"sum_hessian":[1.6507277E3,5.1256714E2,1.1381605E3,2.622017E2,2.5036546E2,5.768444E2,5.613161E2,7.827286E1,1.8392883E2,2.3477063E2,1.5594839E1,3.505387E2,2.2630571E2,8.5932205E1,4.753839E2],"tree_param":{"num_deleted":"0","num_feature":"24","num_nodes":"15","size_leaf_vector":"1"}},{"base_weights":[-1.81361E-2,4.2299342E-1,-2.1069668E-1,3.5554606E-1,7.9643244E-1,-2.867935E-1,9.556859E-2,3.9778948E-2,1.4704904E-2,4.8322316E-2,2.1052446E-2,-3.1465765E-2,-1.1598684E-2,1.4108861E-2,-1.3413815E-2],"categories":[],"categories_nodes":[],"categories_segments":[],"categories_sizes":[],"default_left":[0,0,0,0,0,0,0,0,0,0,0,0,0,0,0],"id":8,"left_children":[1,3,5,7,9,11,13,-1,-1,-1,-1,-1,-1,-1,-1],"loss_changes":[1.3940578E2,1.2534485E1,2.6630821E1,1.1337692E1,4.872059E0,1.7091461E1,1.5501244E1,0E0,0E0,0E0,0E0,0E0,0E0,0E0,0E0],"parents":[2147483647,0,0,1,1,2,2,3,3,4,4,5,5,6,6],"right_children":[2,4,6,8,10,12,14,-1,-1,-1,-1,-1,-1,-1,-1],"split_conditions":[1.46348E3,3.5141984E-1,2.6471463E-1,-2.066817E2,1.940961E-2,-4.1053806E-2,1.5535404E3,3.9778948E-2,1.4704904E-2,4.8322316E-2,2.1052446E-2,-3.1465765E-2,-1.1598684E-2,1.4108861E-2,-1.3413815E-2],"split_indices":[1,4,4,3,8,5,1,0,0,0,0,0,0,0,0],"split_type":[0,0,0,0,0,0,0,0,0,0,0,0,0,0,0],"sum_hessian":[1.6411394E3,4.9866086E2,1.1424786E3,4.224526E2,7.6208275E1,9.151503E2,2.2732826E2,5.1156113E1,3.7129648E2,5.2195023E1,2.4013254E1,1.249926E2,7.901577E2,1.5022482E2,7.710344E1],"tree_param":{"num_deleted":"0","num_feature":"24","num_nodes":"15","size_leaf_vector":"1"}},{"base_weights":[-2.1589147E-2,2.808113E-1,-2.704712E-1,4.6093297E-1,1.3024193E-1,1.2714489E-1,-3.329286E-1,2.8096875E-2,1.0939844E-2,3.8869185E-3,4.2798776E-2,1.9048102E-2,-1.0771131E-2,-2.6786309E-2,-1.1868568E-2],"categories":[],"categories_nodes":[],"categories_segments":[],"categories_sizes":[],"default_left":[0,0,0,0,0,0,0,0,0,0,0,0,0,0,0],"id":9,"left_children":[1,3,5,7,9,11,13,-1,-1,-1,-1,-1,-1,-1,-1],"loss_changes":[1.2303697E2,2.0004047E1,2.227501E1,8.269653E0,1.5294385E1,1.0629197E1,1.5007896E1,0E0,0E0,0E0,0E0,0E0,0E0,0E0,0E0],"parents":[2147483647,0,0,1,1,2,2,3,3,4,4,5,5,6,6],"right_children":[2,4,6,8,10,12,14,-1,-1,-1,-1,-1,-1,-1,-1],"split_conditions":[1.5033123E3,1.4395061E3,-6.584294E0,7.46448E1,1.2943718E1,-8.975341E-2,-2.0933013E-2,2.8096875E-2,1.0939844E-2,3.8869185E-3,4.2798776E-2,1.9048102E-2,-1.0771131E-2,-2.6786309E-2,-1.1868568E-2],"split_indices":[1,1,11,3,22,21,5,0,0,0,0,0,0,0,0],"split_type":[0,0,0,0,0,0,0,0,0,0,0,0,0,0,0],"sum_hessian":[1.6347357E3,7.37986E2,8.967497E2,3.359447E2,4.0204132E2,1.2169863E2,7.75051E2,2.3617365E2,9.977106E1,3.7508514E2,2.695616E1,6.988438E1,5.1814255E1,2.465832E2,5.2846783E2],"tree_param":{"num_deleted":"0","num_feature":"24","num_nodes":"15","size_leaf_vector":"1"}},{"base_weights":[-2.9152124E-3,2.5273138E-1,-2.5278768E-1,4.6552658E-1,9.336249E-2,-3.6592457E-1,-6.500523E-2,1.867417E-2,3.8427122E-2,-3.0202335E-3,1.2428503E-2,-3.089468E-2,-1.2097825E-2,-3.3655334E-2,4.3763583E-5],"categories":[],"categories_nodes":[],"categories_segments":[],"categories_sizes":[],"default_left":[0,0,0,0,0,0,0,0,0,0,0,0,0,0,0],"id":10,"left_children":[1,3,5,7,9,11,13,-1,-1,-1,-1,-1,-1,-1,-1],"loss_changes":[1.0408875E2,2.7302841E1,1.7499695E1,9.564827E0,1.1035299E1,1.6057335E1,1.245216E1,0E0,0E0,0E0,0E0,0E0,0E0,0E0,0E0],"parents":[2147483647,0,0,1,1,2,2,3,3,4,4,5,5,6,6],"right_children":[2,4,6,8,10,12,14,-1,-1,-1,-1,-1,-1,-1,-1],"split_conditions":[1.5120171E3,1.4411595E3,6.324342E-2,3.2290272E-2,1.5151114E-3,-2.0484589E-2,1.0357632E1,1.867417E-2,3.8427122E-2,-3.0202335E-3,1.2428503E-2,-3.089468E-2,-1.2097825E-2,-3.3655334E-2,4.3763583E-5],"split_indices":[1,1,4,5,5,5,13,0,0,0,0,0,0,0,0],"split_type":[0,0,0,0,0,0,0,0,0,0,0,0,0,0,0],"sum_hessian":[1.6294187E3,8.053702E2,8.240485E2,3.4481256E2,4.6055765E2,5.1416034E2,3.0988818E2,2.6529187E2,7.9520676E1,2.3155623E2,2.2900142E2,1.6857002E2,3.455903E2,3.024058E1,2.796476E2],"tree_param":{"num_deleted":"0","num_feature":"24","num_nodes":"15","size_leaf_vector":"1"}},{"base_weights":[-4.2308373E-3,3.065793E-1,-2.0628895E-1,4.3258446E-1,1.627194E-1,-3.2716042E-1,-2.4989396E-2,2.7283816E-2,1.0438779E-2,-1.5270691E-2,1.3775437E-2,2.6607364E-2,-1.7566858E-2,1.0762193E-2,-1.0740699E-2],"categories":[],"categories_nodes":[],"categories_segments":[],"categories_sizes":[],"default_left":[0,0,0,0,0,0,0,0,0,0,0,0,0,0,0],"id":11,"left_children":[1,3,5,7,9,11,13,-1,-1,-1,-1,-1,-1,-1,-1],"loss_changes":[1.0324821E2,1.1729038E1,2.1828327E1,8.783058E0,1.6064014E1,1.2760117E1,1.8246597E1,0E0,0E0,0E0,0E0,0E0,0E0,0E0,0E0],"parents":[2147483647,0,0,1,1,2,2,3,3,4,4,5,5,6,6],"right_children":[2,4,6,8,10,12,14,-1,-1,-1,-1,-1,-1,-1,-1],"split_conditions":[1.4950973E3,1.4411595E3,5.998662E-2,6.31818E1,-1.7504008E2,-1.2354855E1,1.5373088E3,2.7283816E-2,1.0438779E-2,-1.5270691E-2,1.3775437E-2,2.6607364E-2,-1.7566858E-2,1.0762193E-2,-1.0740699E-2],"split_indices":[1,1,4,3,2,11,1,0,0,0,0,0,0,0,0],"split_type":[0,0,0,0,0,0,0,0,0,0,0,0,0,0,0],"sum_hessian":[1.6440142E3,6.476656E2,9.963486E2,3.451703E2,3.0249527E2,5.9773193E2,3.9861667E2,2.2843091E2,1.1673939E2,5.8847115E1,2.4364816E2,1.6723396E1,5.810085E2,1.7594798E2,2.2266869E2],"tree_param":{"num_deleted":"0","num_feature":"24","num_nodes":"15","size_leaf_vector":"1"}},{"base_weights":[-1.1446406E-2,4.296662E-1,-1.4579052E-1,5.47932E-1,1.882104E-1,-1.6059494E-2,-3.879539E-1,2.3083132E-2,4.91347E-2,3.4445833E-2,5.0138957E-3,-5.6956457E-3,9.618663E-3,-4.8700504E-2,-1.6655581E-2],"categories":[],"categories_nodes":[],"categories_segments":[],"categories_sizes":[],"default_left":[0,0,0,0,0,0,0,0,0,0,0,0,0,0,0],"id":12,"left_children":[1,3,5,7,9,11,13,-1,-1,-1,-1,-1,-1,-1,-1],"loss_changes":[9.740451E1,1.0942436E1,3.957809E1,9.568481E0,5.5453596E0,1.6798143E1,1.3982979E1,0E0,0E0,0E0,0E0,0E0,0E0,0E0,0E0],"parents":[2147483647,0,0,1,1,2,2,3,3,4,4,5,5,6,6],"right_children":[2,4,6,8,10,12,14,-1,-1,-1,-1,-1,-1,-1,-1],"split_conditions":[1.44727E3,1.4263983E3,1.5488823E3,4.260918E-2,-1.5638121E2,1.097481E-1,-1.2593009E-1,2.3083132E-2,4.91347E-2,3.4445833E-2,5.0138957E-3,-5.6956457E-3,9.618663E-3,-4.8700504E-2,-1.6655581E-2],"split_indices":[1,1,1,5,3,4,4,0,0,0,0,0,0,0,0],"split_type":[0,0,0,0,0,0,0,0,0,0,0,0,0,0,0],"sum_hessian":[1.6436881E3,3.8368823E2,1.2599999E3,2.5747586E2,1.2621237E2,8.205254E2,4.3947446E2,2.1540582E2,4.2070026E1,1.872837E1,1.07484E2,5.5836554E2,2.6215982E2,3.706634E1,4.024081E2],"tree_param":{"num_deleted":"0","num_feature":"24","num_nodes":"15","size_leaf_vector":"1"}},{"base_weights":[-1.2111326E-3,-9.872093E-2,1.8523355E-1,-2.2905283E-1,1.0355193E-2,3.512846E-1,1.4946159E-2,-1.7146762E-2,-9.028425E-4,-8.092627E-3,6.8842857E-3,1.130462E-2,3.443095E-2,-4.6253093E-3,2.5215507E-2],"categories":[],"categories_nodes":[],"categories_segments":[],"categories_sizes":[],"default_left":[0,0,0,0,0,0,0,0,0,0,0,0,0,0,0],"id":13,"left_children":[1,3,5,7,9,11,13,-1,-1,-1,-1,-1,-1,-1,-1],"loss_changes":[2.9882996E1,1.5348226E1,1.5953432E1,1.18745575E1,1.2930704E1,1.2051968E1,1.4714676E1,0E0,0E0,0E0,0E0,0E0,0E0,0E0,0E0],"parents":[2147483647,0,0,1,1,2,2,3,3,4,4,5,5,6,6],"right_children":[2,4,6,8,10,12,14,-1,-1,-1,-1,-1,-1,-1,-1],"split_conditions":[1.3379263E-2,-3.0399986E1,1.5058104E3,6.324342E-2,2.980225E0,1.01076085E-2,5.2128806E0,-1.7146762E-2,-9.028425E-4,-8.092627E-3,6.8842857E-3,1.130462E-2,3.443095E-2,-4.6253093E-3,2.5215507E-2],"split_indices":[5,2,0,4,16,7,11,0,0,0,0,0,0,0,0],"split_type":[0,0,0,0,0,0,0,0,0,0,0,0,0,0,0],"sum_hessian":[1.643745E3,1.0793505E3,5.643945E2,4.9181866E2,5.8753186E2,2.856888E2,2.7870563E2,3.1873074E2,1.730879E2,2.4973137E2,3.3780048E2,2.0881783E2,7.687099E1,2.2852704E2,5.01786E1],"tree_param":{"num_deleted":"0","num_feature":"24","num_nodes":"15","size_leaf_vector":"1"}},{"base_weights":[6.3674026E-3,-1.1996069E-1,1.5086415E-1,-1.4663827E-1,5.569918E-1,4.505194E-1,1.0072348E-1,1.0532028E-2,-9.544884E-3,4.6243384E-2,1.3349967E-2,3.296908E-2,1.0007376E-2,1.7503796E-2,8.653842E-4],"categories":[],"categories_nodes":[],"categories_segments":[],"categories_sizes":[],"default_left":[0,0,0,0,0,0,0,0,0,0,0,0,0,0,0],"id":14,"left_children":[1,3,5,7,9,11,13,-1,-1,-1,-1,-1,-1,-1,-1],"loss_changes":[2.9830189E1,1.5739731E1,1.1443436E1,1.3382292E1,3.5084171E0,5.7179947E0,1.360797E1,0E0,0E0,0E0,0E0,0E0,0E0,0E0,0E0],"parents":[2147483647,0,0,1,1,2,2,3,3,4,4,5,5,6,6],"right_children":[2,4,6,8,10,12,14,-1,-1,-1,-1,-1,-1,-1,-1],"split_conditions":[4.324788E-2,9.6378E0,-1.5909459E2,-4.5216007E0,1.3406577E1,9.82385E-3,-4.026836E0,1.0532028E-2,-9.544884E-3,4.6243384E-2,1.3349967E-2,3.296908E-2,1.0007376E-2,1.7503796E-2,8.653842E-4],"split_indices":[4,9,3,6,13,19,11,0,0,0,0,0,0,0,0],"split_type":[0,0,0,0,0,0,0,0,0,0,0,0,0,0,0],"sum_hessian":[1.634097E3,8.718014E2,7.622956E2,8.3878955E2,3.3011826E1,1.09194145E2,6.5310144E2,9.295581E1,7.4583374E2,1.445291E1,1.8558916E1,5.928114E1,4.9913002E1,1.6328857E2,4.8981287E2],"tree_param":{"num_deleted":"0","num_feature":"24","num_nodes":"15","size_leaf_vector":"1"}},{"base_weights":[2.3470737E-2,3.2004508E-1,-1.3839315E-1,5.378427E-1,2.0848177E-1,-2.1768767E-1,1.658803E-1,4.2698192E-3,3.1975813E-2,8.482309E-3,5.072455E-2,2.6800148E-2,-1.1905855E-2,2.0126937E-2,-1.5978862E-3],"categories":[],"categories_nodes":[],"categories_segments":[],"categories_sizes":[],"default_left":[0,0,0,0,0,0,0,0,0,0,0,0,0,0,0],"id":15,"left_children":[1,3,5,7,9,11,13,-1,-1,-1,-1,-1,-1,-1,-1],"loss_changes":[7.819424E1,1.3959564E1,2.5424337E1,9.043915E0,1.181646E1,1.3156834E1,1.0238154E1,0E0,0E0,0E0,0E0,0E0,0E0,0E0,0E0],"parents":[2147483647,0,0,1,1,2,2,3,3,4,4,5,5,6,6],"right_children":[2,4,6,8,10,12,14,-1,-1,-1,-1,-1,-1,-1,-1],"split_conditions":[1.4772798E3,1.4109761E3,2.6471463E-1,-4.3686647E0,6.6999586E4,-1.2354855E1,-8.025215E-1,4.2698192E-3,3.1975813E-2,8.482309E-3,5.072455E-2,2.6800148E-2,-1.1905855E-2,2.0126937E-2,-1.5978862E-3],"split_indices":[1,1,4,9,23,11,11,0,0,0,0,0,0,0,0],"split_type":[0,0,0,0,0,0,0,0,0,0,0,0,0,0,0],"sum_hessian":[1.6287786E3,5.751123E2,1.0536663E3,1.9472398E2,3.8038834E2,8.358924E2,2.1777388E2,3.6108322E1,1.5861566E2,3.6311932E2,1.7269003E1,2.244585E1,8.1344653E2,9.903587E1,1.1873801E2],"tree_param":{"num_deleted":"0","num_feature":"24","num_nodes":"15","size_leaf_vector":"1"}},{"base_weights":[-6.039344E-4,-1.9131279E-1,7.701826E-2,-3.9370862E-1,6.7252375E-2,2.2137957E-2,3.7595356E-1,-1.6594173E-2,-3.8425054E-2,1.7773535E-2,-3.3210192E-2,-5.531321E-3,6.376068E-3,5.0822742E-2,1.4252761E-2],"categories":[],"categories_nodes":[],"categories_segments":[],"categories_sizes":[],"default_left":[0,0,0,0,0,0,0,0,0,0,0,0,0,0,0],"id":16,"left_children":[1,3,5,7,9,11,13,-1,-1,-1,-1,-1,-1,-1,-1],"loss_changes":[2.381632E1,2.4363348E1,1.8749647E1,5.9893074E0,4.3246567E1,1.3566467E1,1.0263884E1,0E0,0E0,0E0,0E0,0E0,0E0,0E0,0E0],"parents":[2147483647,0,0,1,1,2,2,3,3,4,4,5,5,6,6],"right_children":[2,4,6,8,10,12,14,-1,-1,-1,-1,-1,-1,-1,-1],"split_conditions":[-2.0933013E-2,3.376035E0,3.5250542E-1,3.0431342E-1,7.5359807E0,-4.5662518E1,2.1822346E1,-1.6594173E-2,-3.8425054E-2,1.7773535E-2,-3.3210192E-2,-5.531321E-3,6.376068E-3,5.0822742E-2,1.4252761E-2],"split_indices":[5,16,4,20,16,2,14,0,0,0,0,0,0,0,0],"split_type":[0,0,0,0,0,0,0,0,0,0,0,0,0,0,0],"sum_hessian":[1.6086814E3,4.6540826E2,1.1432731E3,2.6108926E2,2.0431902E2,9.660092E2,1.7726385E2,2.246204E2,3.646887E1,1.4656772E2,5.7751293E1,4.2756216E2,5.384471E2,2.1812994E1,1.5545087E2],"tree_param":{"num_deleted":"0","num_feature":"24","num_nodes":"15","size_leaf_vector":"1"}},{"base_weights":[-9.412039E-3,3.174313E-1,-1.8231176E-1,5.316593E-1,2.0503597E-1,3.207327E-2,-2.0261744E-1,-6.3392855E-3,2.9173205E-2,-5.063606E-4,1.6219566E-2,-5.31533E-3,-1.6975727E-2],"categories":[],"categories_nodes":[],"categories_segments":[],"categories_sizes":[],"default_left":[0,0,0,0,0,0,0,0,0,0,0,0,0],"id":17,"left_children":[1,3,5,7,9,-1,11,-1,-1,-1,-1,-1,-1],"loss_changes":[9.141794E1,1.3460815E1,1.77193E1,6.7124214E0,9.481678E0,0E0,1.3641033E1,0E0,0E0,0E0,0E0,0E0,0E0],"parents":[2147483647,0,0,1,1,2,2,3,3,4,4,6,6],"right_children":[2,4,6,8,10,-1,12,-1,-1,-1,-1,-1,-1],"split_conditions":[1.4772798E3,1.408952E3,-1.2354855E1,-6.0924165E-2,-5.0916294E1,3.207327E-2,1.5488823E3,-6.3392855E-3,2.9173205E-2,-5.063606E-4,1.6219566E-2,-5.31533E-3,-1.6975727E-2],"split_indices":[1,1,11,19,2,0,1,0,0,0,0,0,0],"split_type":[0,0,0,0,0,0,0,0,0,0,0,0,0],"sum_hessian":[1.6176903E3,5.596435E2,1.0580468E3,1.9249852E2,3.6714496E2,2.5380583E1,1.0326663E3,1.4274266E1,1.7822426E2,1.3135966E2,2.357853E2,6.079072E2,4.2475897E2],"tree_param":{"num_deleted":"0","num_feature":"24","num_nodes":"13","size_leaf_vector":"1"}},{"base_weights":[2.1229312E-2,3.1260324E-1,-1.3447581E-1,4.998368E-1,1.5147382E-1,-1.9792624E-1,1.24230295E-1,3.977391E-2,1.966864E-2,4.0090024E-2,4.512777E-3,-1.1085581E-2,1.0472021E-2,2.5174327E-3,5.265964E-2],"categories":[],"categories_nodes":[],"categories_segments":[],"categories_sizes":[],"default_left":[0,0,0,0,0,0,0,0,0,0,0,0,0,0,0],"id":18,"left_children":[1,3,5,7,9,11,13,-1,-1,-1,-1,-1,-1,-1,-1],"loss_changes":[7.4263626E1,1.7186523E1,1.7512312E1,8.255043E0,1.2179904E1,8.44976E0,1.4409106E1,0E0,0E0,0E0,0E0,0E0,0E0,0E0,0E0],"parents":[2147483647,0,0,1,1,2,2,3,3,4,4,5,5,6,6],"right_children":[2,4,6,8,10,12,14,-1,-1,-1,-1,-1,-1,-1,-1],"split_conditions":[1.4772798E3,1.4277855E3,2.6471463E-1,-1.13107445E2,-5.3601294E0,1.7771828E1,7.9199457E0,3.977391E-2,1.966864E-2,4.0090024E-2,4.512777E-3,-1.1085581E-2,1.0472021E-2,2.5174327E-3,5.265964E-2],"split_indices":[1,1,4,3,6,13,9,0,0,0,0,0,0,0,0],"split_type":[0,0,0,0,0,0,0,0,0,0,0,0,0,0,0],"sum_hessian":[1.6367897E3,5.700773E2,1.0667124E3,2.6360825E2,3.0646906E2,8.5667444E2,2.1003793E2,6.912129E1,1.9448695E2,2.6201298E1,2.8026776E2,8.0875446E2,4.7919968E1,1.946509E2,1.5387045E1],"tree_param":{"num_deleted":"0","num_feature":"24","num_nodes":"15","size_leaf_vector":"1"}},{"base_weights":[1.7083699E-2,2.4633248E-1,-2.0945449E-1,4.66597E-1,1.5102422E-1,-2.6960993E-1,1.5072705E-1,-2.0176934E-3,2.715227E-2,-1.3059569E-3,1.3528999E-2,-2.1823352E-2,-9.59963E-3,-4.596909E-4,3.2204747E-2],"categories":[],"categories_nodes":[],"categories_segments":[],"categories_sizes":[],"default_left":[0,0,0,0,0,0,0,0,0,0,0,0,0,0,0],"id":19,"left_children":[1,3,5,7,9,11,13,-1,-1,-1,-1,-1,-1,-1,-1],"loss_changes":[8.405122E1,1.687548E1,1.7639557E1,9.544407E0,1.1949317E1,9.023449E0,9.222694E0,0E0,0E0,0E0,0E0,0E0,0E0,0E0,0E0],"parents":[2147483647,0,0,1,1,2,2,3,3,4,4,5,5,6,6],"right_children":[2,4,6,8,10,12,14,-1,-1,-1,-1,-1,-1,-1,-1],"split_conditions":[1.5131483E3,1.4248983E3,3.5141984E-1,1.0853904E1,-4.797287E1,-2.0484589E-2,1.6921637E2,-2.0176934E-3,2.715227E-2,-1.3059569E-3,1.3528999E-2,-2.1823352E-2,-9.59963E-3,-4.596909E-4,3.2204747E-2],"split_indices":[1,1,4,13,2,5,2,0,0,0,0,0,0,0,0],"split_type":[0,0,0,0,0,0,0,0,0,0,0,0,0,0,0],"sum_hessian":[1.6183767E3,8.044119E2,8.1396484E2,2.428646E2,5.6154736E2,6.975215E2,1.1644332E2,3.2147766E1,2.1071683E2,2.2674332E2,3.3480402E2,2.1996323E2,4.775583E2,8.797913E1,2.8464186E1],"tree_param":{"num_deleted":"0","num_feature":"24","num_nodes":"15","size_leaf_vector":"1"}},{"base_weights":[-1.1270254E-2,2.4703446E-1,-1.3885345E-1,3.8169926E-1,1.2299167E-1,5.820049E-2,-2.0259956E-1,2.18122E-2,-3.6003187E-3,1.4999097E-3,2.205968E-2,3.7108924E-2,2.8683047E-4,-6.6439104E-3,-2.1930058E-2],"categories":[],"categories_nodes":[],"categories_segments":[],"categories_sizes":[],"default_left":[0,0,0,0,0,0,0,0,0,0,0,0,0,0,0],"id":20,"left_children":[1,3,5,7,9,11,13,-1,-1,-1,-1,-1,-1,-1,-1],"loss_changes":[5.3256237E1,8.91486E0,1.3591679E1,6.4377556E0,8.2397E0,9.490833E0,1.3438309E1,0E0,0E0,0E0,0E0,0E0,0E0,0E0,0E0],"parents":[2147483647,0,0,1,1,2,2,3,3,4,4,5,5,6,6],"right_children":[2,4,6,8,10,12,14,-1,-1,-1,-1,-1,-1,-1,-1],"split_conditions":[1.4724484E3,1.4277855E3,-4.026836E0,1.685219E1,6.758496E0,-4.526576E4,1.5708917E3,2.18122E-2,-3.6003187E-3,1.4999097E-3,2.205968E-2,3.7108924E-2,2.8683047E-4,-6.6439104E-3,-2.1930058E-2],"split_indices":[1,1,11,13,22,23,1,0,0,0,0,0,0,0,0],"split_type":[0,0,0,0,0,0,0,0,0,0,0,0,0,0,0],"sum_hessian":[1.616019E3,5.3424115E2,1.081778E3,2.5606445E2,2.781767E2,2.6434985E2,8.1742804E2,2.2827109E2,2.7793365E1,2.1547693E2,6.2699783E1,1.8749449E1,2.4560042E2,6.320705E2,1.8535759E2],"tree_param":{"num_deleted":"0","num_feature":"24","num_nodes":"15","size_leaf_vector":"1"}},{"base_weights":[3.2805894E-3,2.4924155E-1,-1.2578614E-1,6.2713735E-2,3.663928E-1,-1.9311078E-1,1.4872608E-1,1.490155E-2,-8.096805E-3,1.61721E-2,4.27385E-2,1.641467E-3,-1.2947353E-2,3.2218066E-3,3.97307E-2],"categories":[],"categories_nodes":[],"categories_segments":[],"categories_sizes":[],"default_left":[0,0,0,0,0,0,0,0,0,0,0,0,0,0,0],"id":21,"left_children":[1,3,5,7,9,11,13,-1,-1,-1,-1,-1,-1,-1,-1],"loss_changes":[5.195142E1,1.2299896E1,1.9835882E1,1.1535385E1,7.1529503E0,1.2919292E1,1.1499281E1,0E0,0E0,0E0,0E0,0E0,0E0,0E0,0E0],"parents":[2147483647,0,0,1,1,2,2,3,3,4,4,5,5,6,6],"right_children":[2,4,6,8,10,12,14,-1,-1,-1,-1,-1,-1,-1,-1],"split_conditions":[1.4772798E3,-4.5662518E1,2.6471463E-1,3.376035E0,9.861297E0,-4.310051E0,2.5928727E4,1.490155E-2,-8.096805E-3,1.61721E-2,4.27385E-2,1.641467E-3,-1.2947353E-2,3.2218066E-3,3.97307E-2],"split_indices":[1,2,4,16,10,11,23,0,0,0,0,0,0,0,0],"split_type":[0,0,0,0,0,0,0,0,0,0,0,0,0,0,0],"sum_hessian":[1.6363909E3,5.6320526E2,1.0731855E3,2.17339E2,3.4586627E2,8.618769E2,2.1130864E2,1.0612854E2,1.11210464E2,3.1840552E2,2.7460733E1,1.9544698E2,6.6642993E2,1.8703943E2,2.426921E1],"tree_param":{"num_deleted":"0","num_feature":"24","num_nodes":"15","size_leaf_vector":"1"}},{"base_weights":[-2.297724E-3,2.63305E-1,-4.1715603E-2,3.5328415E-1,-3.445207E-2,-1.493747E-1,3.4725077E-2,-1.6055971E-2,2.0379819E-2,-9.398493E-3,1.9370912E-2,-1.2316159E-3,9.483234E-3],"categories":[],"categories_nodes":[],"categories_segments":[],"categories_sizes":[],"default_left":[0,0,0,0,0,0,0,0,0,0,0,0,0],"id":22,"left_children":[1,3,5,7,-1,9,11,-1,-1,-1,-1,-1,-1],"loss_changes":[1.6814417E1,1.780772E1,1.1513969E1,7.0523605E0,0E0,1.2155307E1,7.5477886E0,0E0,0E0,0E0,0E0,0E0,0E0],"parents":[2147483647,0,0,1,1,2,2,3,3,5,5,6,6],"right_children":[2,4,6,8,-1,10,12,-1,-1,-1,-1,-1,-1],"split_conditions":[-4.2628417E0,1.1632578E3,-4.797287E1,-2.7814948E2,-3.445207E-2,1.3069854E1,1.4007959E-1,-1.6055971E-2,2.0379819E-2,-9.398493E-3,1.9370912E-2,-1.2316159E-3,9.483234E-3],"split_indices":[6,18,2,2,0,22,4,0,0,0,0,0,0],"split_type":[0,0,0,0,0,0,0,0,0,0,0,0,0],"sum_hessian":[1.6063461E3,2.0751584E2,1.3988302E3,1.8965312E2,1.7862715E1,5.8089484E2,8.1793536E2,1.4269147E1,1.7538397E2,5.41702E2,3.9192795E1,5.915533E2,2.2638205E2],"tree_param":{"num_deleted":"0","num_feature":"24","num_nodes":"13","size_leaf_vector":"1"}},{"base_weights":[-8.342063E-3,-1.2239244E-1,9.269511E-2,-1.6205554E-1,2.966777E-1,2.7227086E-1,1.8877478E-2,-1.2261236E-2,6.1903556E-4,-1.3914127E-2,2.444173E-2,1.1074023E-2,3.9883956E-2,4.7806418E-3,-1.4244674E-2],"categories":[],"categories_nodes":[],"categories_segments":[],"categories_sizes":[],"default_left":[0,0,0,0,0,0,0,0,0,0,0,0,0,0,0],"id":23,"left_children":[1,3,5,7,9,11,13,-1,-1,-1,-1,-1,-1,-1,-1],"loss_changes":[1.8869375E1,1.2785362E1,1.1503481E1,1.0255737E1,7.3923597E0,6.6912384E0,1.4398084E1,0E0,0E0,0E0,0E0,0E0,0E0,0E0,0E0],"parents":[2147483647,0,0,1,1,2,2,3,3,4,4,5,5,6,6],"right_children":[2,4,6,8,10,12,14,-1,-1,-1,-1,-1,-1,-1,-1],"split_conditions":[-1.9396946E1,4.6666316E4,-2.1519928E0,1.5355425E-2,-2.921259E-2,1.2866666E1,-6.056993E-2,-1.2261236E-2,6.1903556E-4,-1.3914127E-2,2.444173E-2,1.1074023E-2,3.9883956E-2,4.7806418E-3,-1.4244674E-2],"split_indices":[2,23,6,5,5,22,21,0,0,0,0,0,0,0,0],"split_type":[0,0,0,0,0,0,0,0,0,0,0,0,0,0,0],"sum_hessian":[1.637403E3,7.692443E2,8.681587E2,7.0278375E2,6.646058E1,2.528238E2,6.1533484E2,4.7514816E2,2.2763559E2,1.6669659E1,4.9790924E1,2.3081343E2,2.2010376E1,4.9124457E2,1.240903E2],"tree_param":{"num_deleted":"0","num_feature":"24","num_nodes":"15","size_leaf_vector":"1"}},{"base_weights":[1.5045928E-2,-8.300783E-2,1.1325539E-1,-4.1650018E-1,-3.2576304E-2,1.3258952E-1,-3.4864414E-2,-1.432775E-2,-4.8729073E-2,-7.900314E-3,4.836619E-3,-2.7965391E-2,7.7564484E-3],"categories":[],"categories_nodes":[],"categories_segments":[],"categories_sizes":[],"default_left":[0,0,0,0,0,0,0,0,0,0,0,0,0],"id":24,"left_children":[1,3,5,7,9,11,-1,-1,-1,-1,-1,-1,-1],"loss_changes":[1.5506313E1,1.3541962E1,1.2620342E1,7.6369934E0,1.1394246E1,1.2421256E1,0E0,0E0,0E0,0E0,0E0,0E0,0E0],"parents":[2147483647,0,0,1,1,2,2,3,3,4,4,5,5],"right_children":[2,4,6,8,10,12,-1,-1,-1,-1,-1,-1,-1],"split_conditions":[3.999108E-2,-4.383252E-2,3.454012E1,3.26031E-1,-1.3881974E1,-3.509832E2,-3.4864414E-2,-1.432775E-2,-4.8729073E-2,-7.900314E-3,4.836619E-3,-2.7965391E-2,7.7564484E-3],"split_indices":[4,5,14,20,2,2,0,0,0,0,0,0,0],"split_type":[0,0,0,0,0,0,0,0,0,0,0,0,0],"sum_hessian":[1.6101416E3,8.056256E2,8.045159E2,1.05758995E2,6.9986664E2,7.8584076E2,1.8675173E1,8.595371E1,1.9805277E1,3.5516333E2,3.4470328E2,2.5013681E1,7.608271E2],"tree_param":{"num_deleted":"0","num_feature":"24","num_nodes":"13","size_leaf_vector":"1"}},{"base_weights":[1.03367325E-2,1.605084E-1,-1.6254766E-1,3.415843E-1,7.6077804E-2,-2.3296963E-1,1.2025658E-1,1.346364E-2,3.643586E-2,-3.5371275E-3,1.1548949E-2,-2.855933E-2,-9.367095E-3,-1.1044732E-2,1.3397413E-2],"categories":[],"categories_nodes":[],"categories_segments":[],"categories_sizes":[],"default_left":[0,0,0,0,0,0,0,0,0,0,0,0,0,0,0],"id":25,"left_children":[1,3,5,7,9,11,13,-1,-1,-1,-1,-1,-1,-1,-1],"loss_changes":[4.160876E1,1.3105471E1,1.4838522E1,7.5864677E0,1.3356345E1,9.149178E0,7.516958E0,0E0,0E0,0E0,0E0,0E0,0E0,0E0,0E0],"parents":[2147483647,0,0,1,1,2,2,3,3,4,4,5,5,6,6],"right_children":[2,4,6,8,10,12,14,-1,-1,-1,-1,-1,-1,-1,-1],"split_conditions":[1.5195526E3,1.431435E3,2.6386344E-1,4.260918E-2,4.324788E-2,1.085439E-2,-2.2821203E-2,1.346364E-2,3.643586E-2,-3.5371275E-3,1.1548949E-2,-2.855933E-2,-9.367095E-3,-1.1044732E-2,1.3397413E-2],"split_indices":[1,1,4,5,4,4,19,0,0,0,0,0,0,0,0],"split_type":[0,0,0,0,0,0,0,0,0,0,0,0,0,0,0],"sum_hessian":[1.6026122E3,8.5769556E2,7.449166E2,2.7265927E2,5.8503625E2,5.9645514E2,1.4846149E2,2.3018172E2,4.2477554E1,3.0056943E2,2.8446686E2,7.0171814E1,5.262833E2,4.488188E1,1.0357961E2],"tree_param":{"num_deleted":"0","num_feature":"24","num_nodes":"15","size_leaf_vector":"1"}},{"base_weights":[-1.4594408E-2,1.6028875E-1,-1.7672575E-1,1.295964E-1,6.985262E-1,-2.4154788E-1,1.3560064E-1,-1.2085165E-3,1.1705339E-2,1.4653897E-2,4.688944E-2,-5.332822E-2,-1.118994E-2,1.9168248E-2,-2.184273E-3],"categories":[],"categories_nodes":[],"categories_segments":[],"categories_sizes":[],"default_left":[0,0,0,0,0,0,0,0,0,0,0,0,0,0,0],"id":26,"left_children":[1,3,5,7,9,11,13,-1,-1,-1,-1,-1,-1,-1,-1],"loss_changes":[4.530253E1,1.268088E1,1.6789133E1,1.1740332E1,4.0147953E0,9.821899E0,6.355627E0,0E0,0E0,0E0,0E0,0E0,0E0,0E0,0E0],"parents":[2147483647,0,0,1,1,2,2,3,3,4,4,5,5,6,6],"right_children":[2,4,6,8,10,12,14,-1,-1,-1,-1,-1,-1,-1,-1],"split_conditions":[1.5120171E3,5.8693438E4,2.649153E-1,-4.5662518E1,-8.500002E-3,-8.854859E-2,1.5457086E3,-1.2085165E-3,1.1705339E-2,1.4653897E-2,4.688944E-2,-5.332822E-2,-1.118994E-2,1.9168248E-2,-2.184273E-3],"split_indices":[1,23,4,2,7,8,1,0,0,0,0,0,0,0,0],"split_type":[0,0,0,0,0,0,0,0,0,0,0,0,0,0,0],"sum_hessian":[1.5976879E3,7.685679E2,8.2912006E2,7.27163E2,4.140483E1,6.866647E2,1.4245538E2,2.9484265E2,4.3232037E2,1.5492607E1,2.5912224E1,1.4057176E1,6.726075E2,5.9752594E1,8.27028E1],"tree_param":{"num_deleted":"0","num_feature":"24","num_nodes":"15","size_leaf_vector":"1"}},{"base_weights":[-7.420614E-3,2.4777627E-1,-1.1502649E-1,7.199202E-1,2.0177373E-1,-1.3958E-1,4.9536157E-1,2.772859E-2,5.059523E-2,1.51366E-2,2.766549E-4,-5.323487E-4,-1.1501748E-2,1.3755646E-2,4.4178545E-2],"categories":[],"categories_nodes":[],"categories_segments":[],"categories_sizes":[],"default_left":[0,0,0,0,0,0,0,0,0,0,0,0,0,0,0],"id":27,"left_children":[1,3,5,7,9,11,13,-1,-1,-1,-1,-1,-1,-1,-1],"loss_changes":[4.4469086E1,1.0412586E1,1.7068676E1,2.0171719E0,8.713099E0,1.282518E1,3.7464046E0,0E0,0E0,0E0,0E0,0E0,0E0,0E0,0E0],"parents":[2147483647,0,0,1,1,2,2,3,3,4,4,5,5,6,6],"right_children":[2,4,6,8,10,12,14,-1,-1,-1,-1,-1,-1,-1,-1],"split_conditions":[1.46348E3,4.491784E1,9.6378E0,4.370585E1,1.649166E-2,-1.2249026E0,1.0211198E0,2.772859E-2,5.059523E-2,1.51366E-2,2.766549E-4,-5.323487E-4,-1.1501748E-2,1.3755646E-2,4.4178545E-2],"split_indices":[1,15,9,15,19,11,11,0,0,0,0,0,0,0,0],"split_type":[0,0,0,0,0,0,0,0,0,0,0,0,0,0,0],"sum_hessian":[1.6194056E3,4.802538E2,1.1391519E3,4.2574898E1,4.3767892E2,1.0951444E3,4.4007435E1,2.7383615E1,1.5191282E1,2.88399E2,1.4927994E2,4.5287814E2,6.422663E2,2.819585E1,1.5811583E1],"tree_param":{"num_deleted":"0","num_feature":"24","num_nodes":"15","size_leaf_vector":"1"}},{"base_weights":[1.4058906E-2,1.817696E-1,-1.15397684E-1,1.3616247E-1,6.8687654E-1,-4.2953447E-2,-3.375133E-1,1.8193794E-2,2.7257984E-3,6.19615E-2,2.2931244E-2,8.3252145E-3,-7.1684653E-3,-2.6125174E-2,-3.933781E-3],"categories":[],"categories_nodes":[],"categories_segments":[],"categories_sizes":[],"default_left":[0,0,0,0,0,0,0,0,0,0,0,0,0,0,0],"id":28,"left_children":[1,3,5,7,9,11,13,-1,-1,-1,-1,-1,-1,-1,-1],"loss_changes":[3.4980953E1,1.6153805E1,1.4623425E1,1.198311E1,7.284933E0,1.4480079E1,1.0741816E1,0E0,0E0,0E0,0E0,0E0,0E0,0E0,0E0],"parents":[2147483647,0,0,1,1,2,2,3,3,4,4,5,5,6,6],"right_children":[2,4,6,8,10,12,14,-1,-1,-1,-1,-1,-1,-1,-1],"split_conditions":[1.5022178E3,1.1653254E1,1.5727122E3,1.4109761E3,4.8292685E0,-2.6891952E0,1.3981861E1,1.8193794E-2,2.7257984E-3,6.19615E-2,2.2931244E-2,8.3252145E-3,-7.1684653E-3,-2.6125174E-2,-3.933781E-3],"split_indices":[1,22,1,1,17,11,13,0,0,0,0,0,0,0,0],"split_type":[0,0,0,0,0,0,0,0,0,0,0,0,0,0,0],"sum_hessian":[1.6110918E3,7.01901E2,9.0919073E2,6.4383167E2,5.806934E1,6.856623E2,2.2352846E2,1.6933371E2,4.74498E2,1.6835196E1,4.1234146E1,2.2230388E2,4.633584E2,1.3000198E2,9.3526474E1],"tree_param":{"num_deleted":"0","num_feature":"24","num_nodes":"15","size_leaf_vector":"1"}},{"base_weights":[8.111625E-3,1.7630732E-1,-1.2252489E-1,4.0408337E-1,1.2956518E-1,-1.8218558E-1,1.1102457E-1,1.1497007E-2,3.2835152E-2,4.7912085E-3,2.735518E-2,7.336706E-3,-1.0945187E-2,1.7932464E-3,4.0099762E-2],"categories":[],"categories_nodes":[],"categories_segments":[],"categories_sizes":[],"default_left":[0,0,0,0,0,0,0,0,0,0,0,0,0,0,0],"id":29,"left_children":[1,3,5,7,9,11,13,-1,-1,-1,-1,-1,-1,-1,-1],"loss_changes":[3.5307156E1,7.4690685E0,1.2602536E1,5.252407E0,8.178228E0,8.803238E0,9.550994E0,0E0,0E0,0E0,0E0,0E0,0E0,0E0,0E0],"parents":[2147483647,0,0,1,1,2,2,3,3,4,4,5,5,6,6],"right_children":[2,4,6,8,10,12,14,-1,-1,-1,-1,-1,-1,-1,-1],"split_conditions":[1.5033123E3,1.3823757E3,2.6471463E-1,1.6128721E0,9.577399E0,-7.7755094E0,2.7568988E4,1.1497007E-2,3.2835152E-2,4.7912085E-3,2.735518E-2,7.336706E-3,-1.0945187E-2,1.7932464E-3,4.0099762E-2],"split_indices":[1,1,4,9,10,11,23,0,0,0,0,0,0,0,0],"split_type":[0,0,0,0,0,0,0,0,0,0,0,0,0,0,0],"sum_hessian":[1.606791E3,7.0247217E2,9.0431885E2,1.1951748E2,5.829547E2,7.203749E2,1.8394398E2,7.101793E1,4.849955E1,5.397347E2,4.322003E1,7.2935684E1,6.474392E2,1.6599109E2,1.7952896E1],"tree_param":{"num_deleted":"0","num_feature":"24","num_nodes":"15","size_leaf_vector":"1"}},{"base_weights":[2.1131359E-2,1.4115334E-1,-1.7701696E-1,4.33038E-1,1.0190864E-1,-2.161353E-1,2.851285E-1,2.8628765E-2,-7.0866817E-3,2.5221303E-2,3.606208E-3,-3.3502594E-2,-8.709418E-3,4.1664813E-2,-4.648348E-3],"categories":[],"categories_nodes":[],"categories_segments":[],"categories_sizes":[],"default_left":[0,0,0,0,0,0,0,0,0,0,0,0,0,0,0],"id":30,"left_children":[1,3,5,7,9,11,13,-1,-1,-1,-1,-1,-1,-1,-1],"loss_changes":[3.8270443E1,1.1470537E1,1.0973732E1,9.606033E0,1.055951E1,1.0587622E1,9.858562E0,0E0,0E0,0E0,0E0,0E0,0E0,0E0,0E0],"parents":[2147483647,0,0,1,1,2,2,3,3,4,4,5,5,6,6],"right_children":[2,4,6,8,10,12,14,-1,-1,-1,-1,-1,-1,-1,-1],"split_conditions":[1.5350457E3,1.3823757E3,2.7390959E-2,3.9005447E2,-9.149423E0,-5.424456E-2,-5.707748E-1,2.8628765E-2,-7.0866817E-3,2.5221303E-2,3.606208E-3,-3.3502594E-2,-8.709418E-3,4.1664813E-2,-4.648348E-3],"split_indices":[1,1,7,18,11,5,10,0,0,0,0,0,0,0,0],"split_type":[0,0,0,0,0,0,0,0,0,0,0,0,0,0,0],"sum_hessian":[1.609185E3,1.00221643E3,6.069686E2,1.18701294E2,8.8351514E2,5.596464E2,4.7322247E1,9.540731E1,2.3293983E1,6.0431465E1,8.230837E2,4.68388E1,5.128076E2,1.929683E1,2.8025417E1],"tree_param":{"num_deleted":"0","num_feature":"24","num_nodes":"15","size_leaf_vector":"1"}},{"base_weights":[-5.271464E-3,1.9770621E-1,-1.126818E-1,1.1045639E-1,4.350884E-1,-3.6958568E-2,-2.490952E-1,1.6301845E-3,1.9817453E-2,1.853646E-2,4.85521E-2,-6.4223125E-3,5.5249874E-3,-1.747992E-2,-3.4225197E-3],"categories":[],"categories_nodes":[],"categories_segments":[],"categories_sizes":[],"default_left":[0,0,0,0,0,0,0,0,0,0,0,0,0,0,0],"id":31,"left_children":[1,3,5,7,9,11,13,-1,-1,-1,-1,-1,-1,-1,-1],"loss_changes":[3.4788082E1,1.1425446E1,1.0774648E1,8.996426E0,5.0488167E0,9.090336E0,6.7916775E0,0E0,0E0,0E0,0E0,0E0,0E0,0E0,0E0],"parents":[2147483647,0,0,1,1,2,2,3,3,4,4,5,5,6,6],"right_children":[2,4,6,8,10,12,14,-1,-1,-1,-1,-1,-1,-1,-1],"split_conditions":[1.4772798E3,1.1332329E-1,9.439024E0,1.1536586E1,1.4643806E3,8.396202E-3,4.434216E3,1.6301845E-3,1.9817453E-2,1.853646E-2,4.85521E-2,-6.4223125E-3,5.5249874E-3,-1.747992E-2,-3.4225197E-3],"split_indices":[1,4,17,17,1,5,23,0,0,0,0,0,0,0,0],"split_type":[0,0,0,0,0,0,0,0,0,0,0,0,0,0,0],"sum_hessian":[1.595662E3,5.521206E2,1.0435414E3,4.0380704E2,1.4831357E2,6.7114276E2,3.7239856E2,3.1766797E2,8.613908E1,1.3267068E2,1.5642889E1,4.1406052E2,2.5708224E2,2.3860677E2,1.3379181E2],"tree_param":{"num_deleted":"0","num_feature":"24","num_nodes":"15","size_leaf_vector":"1"}},{"base_weights":[1.1263943E-3,1.494766E-1,-1.1197423E-1,-5.49574E-2,2.2038649E-1,-1.2791413E-1,3.4242266E-1,1.9996462E-2,-8.954014E-3,1.41328E-2,-2.1497218E-3,-2.8203866E-3,-1.3122677E-2,6.14178E-4,3.232716E-2],"categories":[],"categories_nodes":[],"categories_segments":[],"categories_sizes":[],"default_left":[0,0,0,0,0,0,0,0,0,0,0,0,0,0,0],"id":32,"left_children":[1,3,5,7,9,11,13,-1,-1,-1,-1,-1,-1,-1,-1],"loss_changes":[2.6763685E1,1.0006705E1,6.5524063E0,1.0071962E1,8.479822E0,8.423842E0,3.076797E0,0E0,0E0,0E0,0E0,0E0,0E0,0E0,0E0],"parents":[2147483647,0,0,1,1,2,2,3,3,4,4,5,5,6,6],"right_children":[2,4,6,8,10,12,14,-1,-1,-1,-1,-1,-1,-1,-1],"split_conditions":[1.5033123E3,1.1839309E1,9.6378E0,-2.9590285E0,1.639609E1,1.7740556E0,5.204226E1,1.9996462E-2,-8.954014E-3,1.41328E-2,-2.1497218E-3,-2.8203866E-3,-1.3122677E-2,6.14178E-4,3.232716E-2],"split_indices":[1,13,9,6,13,9,15,0,0,0,0,0,0,0,0],"split_type":[0,0,0,0,0,0,0,0,0,0,0,0,0,0,0],"sum_hessian":[1.5950326E3,6.900538E2,9.049788E2,1.7765129E2,5.124025E2,8.74361E2,3.0617813E1,3.8073368E1,1.3957793E2,4.1384802E2,9.855448E1,5.720037E2,3.0235727E2,1.4749068E1,1.5868746E1],"tree_param":{"num_deleted":"0","num_feature":"24","num_nodes":"15","size_leaf_vector":"1"}},{"base_weights":[-1.6654378E-2,1.4287663E-1,-8.293148E-2,4.4191056E-1,7.828523E-2,-2.212896E-1,1.882022E-2,3.4012523E-2,5.2367384E-3,6.5675816E-3,-2.1958444E-2,-2.5589809E-2,-7.733059E-3,4.917221E-2,-2.798087E-4],"categories":[],"categories_nodes":[],"categories_segments":[],"categories_sizes":[],"default_left":[0,0,0,0,0,0,0,0,0,0,0,0,0,0,0],"id":33,"left_children":[1,3,5,7,9,11,13,-1,-1,-1,-1,-1,-1,-1,-1],"loss_changes":[1.674544E1,8.968117E0,1.57576E1,6.6464176E0,1.0557429E1,9.157856E0,1.5237062E1,0E0,0E0,0E0,0E0,0E0,0E0,0E0,0E0],"parents":[2147483647,0,0,1,1,2,2,3,3,4,4,5,5,6,6],"right_children":[2,4,6,8,10,12,14,-1,-1,-1,-1,-1,-1,-1,-1],"split_conditions":[1.46348E3,-1.6149458E2,1.2997194E1,2.4595171E-2,6.1882127E-2,4.749561E1,-1.2354855E1,3.4012523E-2,5.2367384E-3,6.5675816E-3,-2.1958444E-2,-2.5589809E-2,-7.733059E-3,4.917221E-2,-2.798087E-4],"split_indices":[1,3,13,20,19,15,11,0,0,0,0,0,0,0,0],"split_type":[0,0,0,0,0,0,0,0,0,0,0,0,0,0,0],"sum_hessian":[1.5837998E3,4.647797E2,1.1190201E3,8.248867E1,3.8229102E2,4.74267E2,6.4475305E2,4.8169838E1,3.4318832E1,3.4668356E2,3.5607456E1,8.7874535E1,3.8639246E2,1.5888765E1,6.288643E2],"tree_param":{"num_deleted":"0","num_feature":"24","num_nodes":"15","size_leaf_vector":"1"}},{"base_weights":[1.5352736E-2,2.5517136E-1,-4.5944326E-2,3.500665E-1,2.9867291E-2,1.5068405E-2,-1.6459744E-1,3.9123952E-2,1.3417337E-2,1.7826645E-2,-2.8911646E-2,-7.987083E-3,4.2983633E-3,2.3247332E-3,-1.503459E-2],"categories":[],"categories_nodes":[],"categories_segments":[],"categories_sizes":[],"default_left":[0,0,0,0,0,0,0,0,0,0,0,0,0,0,0],"id":34,"left_children":[1,3,5,7,9,11,13,-1,-1,-1,-1,-1,-1,-1,-1],"loss_changes":[2.330262E1,6.8927517E0,9.140511E0,7.977482E0,1.9084635E1,1.0369511E1,1.2375902E1,0E0,0E0,0E0,0E0,0E0,0E0,0E0,0E0],"parents":[2147483647,0,0,1,1,2,2,3,3,4,4,5,5,6,6],"right_children":[2,4,6,8,10,12,14,-1,-1,-1,-1,-1,-1,-1,-1],"split_conditions":[1.4411595E3,7.885327E1,1.5488823E3,-1.4566255E-1,1.649166E-2,-2.0933013E-2,-1.5030483E0,3.9123952E-2,1.3417337E-2,1.7826645E-2,-2.8911646E-2,-7.987083E-3,4.2983633E-3,2.3247332E-3,-1.503459E-2],"split_indices":[1,3,1,21,19,5,11,0,0,0,0,0,0,0,0],"split_type":[0,0,0,0,0,0,0,0,0,0,0,0,0,0,0],"sum_hessian":[1.5849109E3,3.2267526E2,1.2622356E3,2.2698453E2,9.569073E1,8.3351306E2,4.2872256E2,3.5734753E1,1.9124977E2,6.226926E1,3.342147E1,2.405239E2,5.929892E2,1.6838011E2,2.6034244E2],"tree_param":{"num_deleted":"0","num_feature":"24","num_nodes":"15","size_leaf_vector":"1"}},{"base_weights":[-1.8924175E-2,2.5231627E-1,-6.8071395E-2,-1.5867463E-1,3.4100845E-1,-8.5328266E-2,3.9181522E-1,9.689981E-3,-3.901889E-2,-1.35010285E-2,2.0022903E-2,-8.873708E-3,-6.842165E-5,2.8886452E-2,-3.3950182E-3],"categories":[],"categories_nodes":[],"categories_segments":[],"categories_sizes":[],"default_left":[0,0,0,0,0,0,0,0,0,0,0,0,0,0,0],"id":35,"left_children":[1,3,5,7,9,11,13,-1,-1,-1,-1,-1,-1,-1,-1],"loss_changes":[2.136897E1,8.9671135E0,1.0767707E1,9.604553E0,7.4479694E0,1.0153596E1,4.2271934E0,0E0,0E0,0E0,0E0,0E0,0E0,0E0,0E0],"parents":[2147483647,0,0,1,1,2,2,3,3,4,4,5,5,6,6],"right_children":[2,4,6,8,10,12,14,-1,-1,-1,-1,-1,-1,-1,-1],"split_conditions":[1.4277855E3,-3.0086616E-2,9.6378E0,2.8167713E1,-6.33896E-2,-1.9396946E1,1.0484173E2,9.689981E-3,-3.901889E-2,-1.35010285E-2,2.0022903E-2,-8.873708E-3,-6.842165E-5,2.8886452E-2,-3.3950182E-3],"split_indices":[1,5,9,14,19,2,2,0,0,0,0,0,0,0,0],"split_type":[0,0,0,0,0,0,0,0,0,0,0,0,0,0,0],"sum_hessian":[1.6031655E3,2.4585677E2,1.3573087E3,4.3601814E1,2.0225496E2,1.3082728E3,4.9035908E1,2.7831957E1,1.5769857E1,1.8086378E1,1.8416858E2,6.2247894E2,6.857939E2,3.488363E1,1.415228E1],"tree_param":{"num_deleted":"0","num_feature":"24","num_nodes":"15","size_leaf_vector":"1"}},{"base_weights":[-1.2266027E-2,1.626109E-1,-8.0803454E-2,2.4948443E-1,-1.5499523E-2,-6.299696E-1,-6.2852055E-2,1.563236E-2,-1.2104165E-2,-3.6579974E-2,3.0436802E-3,-6.6550844E-3,-4.9589515E-2,-3.0226309E-2,-2.2860353E-3],"categories":[],"categories_nodes":[],"categories_segments":[],"categories_sizes":[],"default_left":[0,0,0,0,0,0,0,0,0,0,0,0,0,0,0],"id":36,"left_children":[1,3,5,7,9,11,13,-1,-1,-1,-1,-1,-1,-1,-1],"loss_changes":[1.9089773E1,6.9424973E0,1.1269382E1,9.455479E0,8.07678E0,6.5135584E0,1.0243526E1,0E0,0E0,0E0,0E0,0E0,0E0,0E0,0E0],"parents":[2147483647,0,0,1,1,2,2,3,3,4,4,5,5,6,6],"right_children":[2,4,6,8,10,12,14,-1,-1,-1,-1,-1,-1,-1,-1],"split_conditions":[1.4611051E3,2.0565338E0,1.9379255E1,1.8111879E2,2.5947545E0,1.5325347E3,-3.7038013E2,1.563236E-2,-1.2104165E-2,-3.6579974E-2,3.0436802E-3,-6.6550844E-3,-4.9589515E-2,-3.0226309E-2,-2.2860353E-3],"split_indices":[1,11,14,3,11,1,2,0,0,0,0,0,0,0,0],"split_type":[0,0,0,0,0,0,0,0,0,0,0,0,0,0,0],"sum_hessian":[1.5927886E3,4.4839825E2,1.1443903E3,3.014504E2,1.4694783E2,3.61689E1,1.1082214E3,2.6692017E2,3.453026E1,1.4158149E1,1.3278967E2,1.5321415E1,2.0847485E1,3.369508E1,1.0745262E3],"tree_param":{"num_deleted":"0","num_feature":"24","num_nodes":"15","size_leaf_vector":"1"}},{"base_weights":[2.4873631E-2,2.89418E-1,-6.9453223E-3,1.5964185E-1,7.159693E-1,-9.431089E-2,9.100709E-2,2.4872959E-2,9.167572E-4,4.953855E-2,1.8475456E-2,-1.2921874E-2,-6.208755E-4,-1.0638684E-2,8.615754E-3],"categories":[],"categories_nodes":[],"categories_segments":[],"categories_sizes":[],"default_left":[0,0,0,0,0,0,0,0,0,0,0,0,0,0,0],"id":37,"left_children":[1,3,5,7,9,11,13,-1,-1,-1,-1,-1,-1,-1,-1],"loss_changes":[1.3585581E1,9.57461E0,1.2324489E1,6.351449E0,3.8308086E0,1.0254299E1,1.6853235E1,0E0,0E0,0E0,0E0,0E0,0E0,0E0,0E0],"parents":[2147483647,0,0,1,1,2,2,3,3,4,4,5,5,6,6],"right_children":[2,4,6,8,10,12,14,-1,-1,-1,-1,-1,-1,-1,-1],"split_conditions":[1.408952E3,3.298018E-2,4.324788E-2,-2.4859917E-1,-2.9561237E-1,1.229794E1,4.774649E1,2.4872959E-2,9.167572E-4,4.953855E-2,1.8475456E-2,-1.2921874E-2,-6.208755E-4,-1.0638684E-2,8.615754E-3],"split_indices":[1,5,4,10,6,13,15,0,0,0,0,0,0,0,0],"split_type":[0,0,0,0,0,0,0,0,0,0,0,0,0,0,0],"sum_hessian":[1.61337E3,1.7325502E2,1.440115E3,1.328946E2,4.03604E1,7.612842E2,6.788308E2,3.906167E1,9.383295E1,2.2372252E1,1.7988148E1,2.5279942E2,5.0848474E2,1.4356644E2,5.352644E2],"tree_param":{"num_deleted":"0","num_feature":"24","num_nodes":"15","size_leaf_vector":"1"}},{"base_weights":[-2.1548541E-2,-5.570254E-2,1.835615E-1,-7.0667416E-2,3.391363E-1,-1.0719438E-1,3.262659E-1,-1.5088496E-2,-2.2444627E-3,-1.7374284E-3,3.254699E-2,2.233661E-2,-1.8249312E-2,2.025825E-2,-6.9704866E-3],"categories":[],"categories_nodes":[],"categories_segments":[],"categories_sizes":[],"default_left":[0,0,0,0,0,0,0,0,0,0,0,0,0,0,0],"id":38,"left_children":[1,3,5,7,9,11,13,-1,-1,-1,-1,-1,-1,-1,-1],"loss_changes":[1.1165836E1,8.071521E0,9.443894E0,7.832648E0,5.847742E0,1.073764E1,5.669304E0,0E0,0E0,0E0,0E0,0E0,0E0,0E0,0E0],"parents":[2147483647,0,0,1,1,2,2,3,3,4,4,5,5,6,6],"right_children":[2,4,6,8,10,12,14,-1,-1,-1,-1,-1,-1,-1,-1],"split_conditions":[3.5250542E-1,9.6378E0,-6.3206173E1,-9.332715E-2,2.453179E1,-3.7329128E0,1.6101249E3,-1.5088496E-2,-2.2444627E-3,-1.7374284E-3,3.254699E-2,2.233661E-2,-1.8249312E-2,2.025825E-2,-6.9704866E-3],"split_indices":[4,9,2,4,14,11,0,0,0,0,0,0,0,0,0],"split_type":[0,0,0,0,0,0,0,0,0,0,0,0,0,0,0],"sum_hessian":[1.5941545E3,1.3666804E3,2.2747414E2,1.3168329E3,4.984745E1,7.485251E1,1.5262164E2,1.3140117E2,1.1854318E3,2.2696764E1,2.7150688E1,2.3763847E1,5.108866E1,1.3037811E2,2.2243526E1],"tree_param":{"num_deleted":"0","num_feature":"24","num_nodes":"15","size_leaf_vector":"1"}},{"base_weights":[2.3407234E-2,-4.484661E-2,1.9652298E-1,1.0602685E-1,-1.1989845E-1,4.9272245E-1,1.2908323E-1,1.3573442E-3,2.2249546E-2,-1.7560177E-2,-2.8501172E-3,3.1028435E-2,-4.859347E-3,4.031852E-2,5.0134575E-3],"categories":[],"categories_nodes":[],"categories_segments":[],"categories_sizes":[],"default_left":[0,0,0,0,0,0,0,0,0,0,0,0,0,0,0],"id":39,"left_children":[1,3,5,7,9,11,13,-1,-1,-1,-1,-1,-1,-1,-1],"loss_changes":[1.8740881E1,1.2879217E1,8.947432E0,1.0109914E1,1.1055849E1,6.3362865E0,7.0844245E0,0E0,0E0,0E0,0E0,0E0,0E0,0E0,0E0],"parents":[2147483647,0,0,1,1,2,2,3,3,4,4,5,5,6,6],"right_children":[2,4,6,8,10,12,14,-1,-1,-1,-1,-1,-1,-1,-1],"split_conditions":[1.938734E-2,1.4801943E3,-1.6529366E2,7.055702E0,-4.4351225E0,1.5656265E3,-1.28495245E1,1.3573442E-3,2.2249546E-2,-1.7560177E-2,-2.8501172E-3,3.1028435E-2,-4.859347E-3,4.031852E-2,5.0134575E-3],"split_indices":[5,1,18,22,9,1,10,0,0,0,0,0,0,0,0],"split_type":[0,0,0,0,0,0,0,0,0,0,0,0,0,0,0],"sum_hessian":[1.5858271E3,1.1373342E3,4.4849295E2,3.7774197E2,7.5959216E2,8.3102455E1,3.653905E2,3.0666626E2,7.107573E1,1.6175175E2,5.9784045E2,6.821979E1,1.4882667E1,1.4740195E1,3.506503E2],"tree_param":{"num_deleted":"0","num_feature":"24","num_nodes":"15","size_leaf_vector":"1"}},{"base_weights":[5.535704E-4,9.3657345E-2,-1.579781E-1,1.9947338E-1,-2.1700872E-2,-2.309258E-1,1.3637662E-1,2.7509236E-3,1.7323848E-2,-3.6827803E-2,3.5231496E-5,-3.5695236E-2,-9.256302E-3,1.2148637E-2,-3.0905487E-2],"categories":[],"categories_nodes":[],"categories_segments":[],"categories_sizes":[],"default_left":[0,0,0,0,0,0,0,0,0,0,0,0,0,0,0],"id":40,"left_children":[1,3,5,7,9,11,13,-1,-1,-1,-1,-1,-1,-1,-1],"loss_changes":[2.3685776E1,1.2345419E1,1.2750669E1,1.1233175E1,7.77434E0,1.04586525E1,9.531023E0,0E0,0E0,0E0,0E0,0E0,0E0,0E0,0E0],"parents":[2147483647,0,0,1,1,2,2,3,3,4,4,5,5,6,6],"right_children":[2,4,6,8,10,12,14,-1,-1,-1,-1,-1,-1,-1,-1],"split_conditions":[1.5350457E3,-9.3015715E-2,2.6386344E-1,2.5813473E1,9.072935E0,-5.424456E-2,5.9563244E1,2.7509236E-3,1.7323848E-2,-3.6827803E-2,3.5231496E-5,-3.5695236E-2,-9.256302E-3,1.2148637E-2,-3.0905487E-2],"split_indices":[1,21,4,14,13,5,15,0,0,0,0,0,0,0,0],"split_type":[0,0,0,0,0,0,0,0,0,0,0,0,0,0,0],"sum_hessian":[1.6047643E3,1.011083E3,5.936812E2,5.274192E2,4.8366382E2,4.7582373E2,1.1785751E2,2.6674045E2,2.6067874E2,1.4672691E1,4.6899115E2,4.077666E1,4.3504706E2,1.0326753E2,1.4589979E1],"tree_param":{"num_deleted":"0","num_feature":"24","num_nodes":"15","size_leaf_vector":"1"}},{"base_weights":[1.020638E-3,2.0349406E-1,-6.660752E-2,6.9259304E-1,1.5165316E-1,-1.8197763E-1,4.953752E-4,5.148526E-2,1.7076084E-2,1.3669309E-2,-3.1025046E-3,-6.3928054E-3,-2.5991129E-2,5.10705E-3,-5.555083E-3],"categories":[],"categories_nodes":[],"categories_segments":[],"categories_sizes":[],"default_left":[0,0,0,0,0,0,0,0,0,0,0,0,0,0,0],"id":41,"left_children":[1,3,5,7,9,11,13,-1,-1,-1,-1,-1,-1,-1,-1],"loss_changes":[2.1835997E1,1.0107697E1,9.256097E0,4.509899E0,9.440804E0,8.013874E0,8.602413E0,0E0,0E0,0E0,0E0,0E0,0E0,0E0,0E0],"parents":[2147483647,0,0,1,1,2,2,3,3,4,4,5,5,6,6],"right_children":[2,4,6,8,10,12,14,-1,-1,-1,-1,-1,-1,-1,-1],"split_conditions":[1.453621E3,-2.1133157E2,-1.3818634E-2,5.353319E-1,7.9071563E-1,7.5359807E0,1.534541E3,5.148526E-2,1.7076084E-2,1.3669309E-2,-3.1025046E-3,-6.3928054E-3,-2.5991129E-2,5.10705E-3,-5.555083E-3],"split_indices":[1,3,5,11,6,16,1,0,0,0,0,0,0,0,0],"split_type":[0,0,0,0,0,0,0,0,0,0,0,0,0,0,0],"sum_hessian":[1.5944788E3,3.992766E2,1.1952021E3,3.820534E1,3.6107126E2,4.396026E2,7.5559955E2,1.937293E1,1.8832413E1,2.2978658E2,1.312847E2,3.7934268E2,6.025991E1,3.955072E2,3.6009235E2],"tree_param":{"num_deleted":"0","num_feature":"24","num_nodes":"15","size_leaf_vector":"1"}},{"base_weights":[3.1713534E-2,-2.811311E-1,6.170948E-2,-6.6969377E-1,-4.525541E-2,2.0626803E-1,5.900316E-3,-4.4225063E-2,-1.0846735E-2,-2.9423168E-2,5.9905746E-3,2.8710725E-2,7.495338E-3,-3.4871066E-3,6.995091E-3],"categories":[],"categories_nodes":[],"categories_segments":[],"categories_sizes":[],"default_left":[0,0,0,0,0,0,0,0,0,0,0,0,0,0,0],"id":42,"left_children":[1,3,5,7,9,11,13,-1,-1,-1,-1,-1,-1,-1,-1],"loss_changes":[1.4895546E1,1.2714526E1,1.1685125E1,5.109083E0,7.7876177E0,8.336023E0,1.0635369E1,0E0,0E0,0E0,0E0,0E0,0E0,0E0,0E0],"parents":[2147483647,0,0,1,1,2,2,3,3,4,4,5,5,6,6],"right_children":[2,4,6,8,10,12,14,-1,-1,-1,-1,-1,-1,-1,-1],"split_conditions":[-7.192321E0,-2.7818676E-2,-2.1880891E0,1.0914634E1,1.1241587E1,-1.8206946E2,1.4268756E1,-4.4225063E-2,-1.0846735E-2,-2.9423168E-2,5.9905746E-3,2.8710725E-2,7.495338E-3,-3.4871066E-3,6.995091E-3],"split_indices":[9,5,6,17,13,3,13,0,0,0,0,0,0,0,0],"split_type":[0,0,0,0,0,0,0,0,0,0,0,0,0,0,0],"sum_hessian":[1.587648E3,1.3884065E2,1.4488074E3,5.240227E1,8.643838E1,4.0343985E2,1.0453674E3,3.5405083E1,1.6997189E1,2.01444E1,6.6293976E1,5.3167175E1,3.5027267E2,6.681646E2,3.7720285E2],"tree_param":{"num_deleted":"0","num_feature":"24","num_nodes":"15","size_leaf_vector":"1"}},{"base_weights":[2.1268602E-2,2.9063872E-1,-2.3893608E-2,-1.4488993E-2,3.515232E-1,-1.2226568E-1,4.6341103E-2,1.0618231E-2,2.7761295E-2,-1.0280815E-3,-1.5307938E-2,3.1119646E-3,-3.1539317E-2],"categories":[],"categories_nodes":[],"categories_segments":[],"categories_sizes":[],"default_left":[0,0,0,0,0,0,0,0,0,0,0,0,0],"id":43,"left_children":[1,3,5,-1,7,9,11,-1,-1,-1,-1,-1,-1],"loss_changes":[1.9155027E1,8.000109E0,9.315715E0,0E0,5.7986298E0,1.0526922E1,8.531906E0,0E0,0E0,0E0,0E0,0E0,0E0],"parents":[2147483647,0,0,1,1,2,2,4,4,5,5,6,6],"right_children":[2,4,6,-1,8,10,12,-1,-1,-1,-1,-1,-1],"split_conditions":[1.4263983E3,-6.8974137E0,-4.797287E1,-1.4488993E-2,1.5122047E3,1.8036828E0,1.1632578E3,1.0618231E-2,2.7761295E-2,-1.0280815E-3,-1.5307938E-2,3.1119646E-3,-3.1539317E-2],"split_indices":[1,9,2,0,0,11,18,0,0,0,0,0,0],"split_type":[0,0,0,0,0,0,0,0,0,0,0,0,0],"sum_hessian":[1.5741503E3,2.2605971E2,1.3480906E3,2.1409605E1,2.046501E2,5.61652E2,7.864386E2,1.2204404E2,8.2606064E1,3.6215128E2,1.995007E2,7.683481E2,1.8090569E1],"tree_param":{"num_deleted":"0","num_feature":"24","num_nodes":"13","size_leaf_vector":"1"}},{"base_weights":[-2.3401998E-2,1.8409105E-1,-5.1877715E-2,2.8844693E-1,-1.6301805E-1,-1.7131746E-1,1.3777655E-2,1.1227965E-2,4.16519E-2,-2.4811989E-2,1.4021907E-2,-2.7118523E-2,-6.558095E-3,-1.0062418E-2,3.2251785E-3],"categories":[],"categories_nodes":[],"categories_segments":[],"categories_sizes":[],"default_left":[0,0,0,0,0,0,0,0,0,0,0,0,0,0,0],"id":44,"left_children":[1,3,5,7,9,11,13,-1,-1,-1,-1,-1,-1,-1,-1],"loss_changes":[9.506257E0,7.0352144E0,1.1100027E1,5.1536636E0,6.6600094E0,7.4430513E0,9.997336E0,0E0,0E0,0E0,0E0,0E0,0E0,0E0,0E0],"parents":[2147483647,0,0,1,1,2,2,3,3,4,4,5,5,6,6],"right_children":[2,4,6,8,10,12,14,-1,-1,-1,-1,-1,-1,-1,-1],"split_conditions":[-4.40948E0,1.5602968E1,1.2506382E1,3.16378E4,4.873885E1,1.7073171E0,-4.3686647E0,1.1227965E-2,4.16519E-2,-2.4811989E-2,1.4021907E-2,-2.7118523E-2,-6.558095E-3,-1.0062418E-2,3.2251785E-3],"split_indices":[6,13,13,23,2,17,9,0,0,0,0,0,0,0,0],"split_type":[0,0,0,0,0,0,0,0,0,0,0,0,0,0,0],"sum_hessian":[1.6092225E3,1.9410725E2,1.4151154E3,1.492798E2,4.482745E1,5.02035E2,9.130803E2,1.3379134E2,1.5488469E1,2.5597948E1,1.9229502E1,4.857801E1,4.53457E2,1.7429468E2,7.3878564E2],"tree_param":{"num_deleted":"0","num_feature":"24","num_nodes":"15","size_leaf_vector":"1"}},{"base_weights":[8.305931E-3,-1.2951203E-1,6.503693E-2,-3.182273E-1,3.8255084E-2,-2.7317422E-2,1.700855E-1,-1.3046959E-2,-5.2852273E-2,2.2171853E-2,-4.8619597E-3,1.4333863E-2,-4.314463E-3,3.9582994E-2,7.466126E-3],"categories":[],"categories_nodes":[],"categories_segments":[],"categories_sizes":[],"default_left":[0,0,0,0,0,0,0,0,0,0,0,0,0,0,0],"id":45,"left_children":[1,3,5,7,9,11,13,-1,-1,-1,-1,-1,-1,-1,-1],"loss_changes":[1.22963505E1,1.4523179E1,1.0813004E1,9.05574E0,1.3376267E1,1.1023158E1,6.638324E0,0E0,0E0,0E0,0E0,0E0,0E0,0E0,0E0],"parents":[2147483647,0,0,1,1,2,2,3,3,4,4,5,5,6,6],"right_children":[2,4,6,8,10,12,14,-1,-1,-1,-1,-1,-1,-1,-1],"split_conditions":[-2.0933013E-2,2.5783068E1,1.3617181E1,9.313618E0,-8.981635E-3,-1.67819E2,1.3370293E3,-1.3046959E-2,-5.2852273E-2,2.2171853E-2,-4.8619597E-3,1.4333863E-2,-4.314463E-3,3.9582994E-2,7.466126E-3],"split_indices":[5,14,13,11,8,3,1,0,0,0,0,0,0,0,0],"split_type":[0,0,0,0,0,0,0,0,0,0,0,0,0,0,0],"sum_hessian":[1.5728041E3,4.5853857E2,1.1142655E3,2.1583376E2,2.4270482E2,5.9288403E2,5.2138153E2,2.005088E2,1.5324951E1,6.0808723E1,1.818961E2,9.376298E1,4.9912103E2,1.654961E1,5.048319E2],"tree_param":{"num_deleted":"0","num_feature":"24","num_nodes":"15","size_leaf_vector":"1"}},{"base_weights":[8.53284E-3,2.3823844E-1,-2.0143261E-2,-2.0821565E-1,3.7321198E-1,-5.504227E-2,1.7759034E-1,2.453657E-3,-2.91243E-2,4.211756E-2,1.4335975E-2,1.893497E-2,-3.8795439E-3,1.5928185E-2,-9.252462E-3],"categories":[],"categories_nodes":[],"categories_segments":[],"categories_sizes":[],"default_left":[0,0,0,0,0,0,0,0,0,0,0,0,0,0,0],"id":46,"left_children":[1,3,5,7,9,11,13,-1,-1,-1,-1,-1,-1,-1,-1],"loss_changes":[1.0441305E1,1.060582E1,9.718834E0,3.953444E0,5.4429626E0,1.1798038E1,1.085763E1,0E0,0E0,0E0,0E0,0E0,0E0,0E0,0E0],"parents":[2147483647,0,0,1,1,2,2,3,3,4,4,5,5,6,6],"right_children":[2,4,6,8,10,12,14,-1,-1,-1,-1,-1,-1,-1,-1],"split_conditions":[1.4109761E3,-3.9172058E0,2.3628773E4,4.4514785E3,-1.4647207E-1,-2.5011288E2,2.2687554E-2,2.453657E-3,-2.91243E-2,4.211756E-2,1.4335975E-2,1.893497E-2,-3.8795439E-3,1.5928185E-2,-9.252462E-3],"split_indices":[1,9,23,23,21,3,8,0,0,0,0,0,0,0,0],"split_type":[0,0,0,0,0,0,0,0,0,0,0,0,0,0,0],"sum_hessian":[1.5845254E3,1.7590193E2,1.4086235E3,4.080223E1,1.350997E2,1.197392E3,2.1123155E2,2.4189886E1,1.6612347E1,2.0804106E1,1.142956E2,5.9376827E1,1.1380151E3,1.520039E2,5.9227654E1],"tree_param":{"num_deleted":"0","num_feature":"24","num_nodes":"15","size_leaf_vector":"1"}},{"base_weights":[-2.2966566E-3,5.786393E-2,-1.623232E-1,1.2722413E-1,-6.993511E-2,-4.525407E-2,-1.3531312E-1,1.588488E-2,2.6292955E-3,3.9449725E-3,-9.118726E-3,4.202684E-3,-1.1061685E-2],"categories":[],"categories_nodes":[],"categories_segments":[],"categories_sizes":[],"default_left":[0,0,0,0,0,0,0,0,0,0,0,0,0],"id":47,"left_children":[1,3,5,7,9,-1,11,-1,-1,-1,-1,-1,-1],"loss_changes":[1.5238634E1,1.0196505E1,8.675499E0,1.0612211E1,6.7986555E0,0E0,7.9121747E0,0E0,0E0,0E0,0E0,0E0,0E0],"parents":[2147483647,0,0,1,1,2,2,3,3,4,4,6,6],"right_children":[2,4,6,8,10,-1,12,-1,-1,-1,-1,-1,-1],"split_conditions":[1.5488823E3,1.8491573E0,1.9572414E1,1.4411595E3,-1.084989E-1,-4.525407E-2,-3.4080572E0,1.588488E-2,2.6292955E-3,3.9449725E-3,-9.118726E-3,4.202684E-3,-1.1061685E-2],"split_indices":[1,11,14,1,21,0,11,0,0,0,0,0,0],"split_type":[0,0,0,0,0,0,0,0,0,0,0,0,0],"sum_hessian":[1.5826283E3,1.1501497E3,4.3247864E2,7.4561487E2,4.0453482E2,1.5093971E1,4.1738467E2,2.091865E2,5.364284E2,1.7422581E2,2.30309E2,1.1774811E2,2.9963657E2],"tree_param":{"num_deleted":"0","num_feature":"24","num_nodes":"13","size_leaf_vector":"1"}},{"base_weights":[-3.015743E-3,5.923953E-2,-1.0930443E-1,3.994032E-2,4.7834617E-1,-4.548176E-1,-6.255224E-2,8.249159E-3,-1.1088371E-3,9.172424E-3,5.124547E-2,-6.7575076E-3,-5.7349727E-2,-2.0711427E-3,-2.9665116E-2],"categories":[],"categories_nodes":[],"categories_segments":[],"categories_sizes":[],"default_left":[0,0,0,0,0,0,0,0,0,0,0,0,0,0,0],"id":48,"left_children":[1,3,5,7,9,11,13,-1,-1,-1,-1,-1,-1,-1,-1],"loss_changes":[1.0509662E1,8.090843E0,9.468126E0,7.461524E0,7.090191E0,1.5471459E1,5.776124E0,0E0,0E0,0E0,0E0,0E0,0E0,0E0,0E0],"parents":[2147483647,0,0,1,1,2,2,3,3,4,4,5,5,6,6],"right_children":[2,4,6,8,10,12,14,-1,-1,-1,-1,-1,-1,-1,-1],"split_conditions":[1.8491573E0,-5.734576E-3,2.5257769E0,-1.6794635E0,1.2086604E-2,2.7846014E1,-1.2923295E-2,8.249159E-3,-1.1088371E-3,9.172424E-3,5.124547E-2,-6.7575076E-3,-5.7349727E-2,-2.0711427E-3,-2.9665116E-2],"split_indices":[11,21,11,6,7,14,21,0,0,0,0,0,0,0,0],"split_type":[0,0,0,0,0,0,0,0,0,0,0,0,0,0,0],"sum_hessian":[1.5881002E3,1.0014087E3,5.866915E2,9.573887E2,4.402007E1,6.985726E1,5.168342E2,3.1745886E2,6.399298E2,2.8678564E1,1.5341503E1,4.7880245E1,2.1977013E1,4.972073E2,1.9626936E1],"tree_param":{"num_deleted":"0","num_feature":"24","num_nodes":"15","size_leaf_vector":"1"}},{"base_weights":[-5.1991562E-3,-1.1488998E-1,8.4611624E-2,-7.973223E-2,-5.061088E-1,-2.3730014E-2,2.1465002E-1,1.3146174E-2,-6.1448133E-3,-3.755884E-2,9.174952E-3,5.5160765E-3,-1.482503E-2,2.2504416E-3,1.6919129E-2],"categories":[],"categories_nodes":[],"categories_segments":[],"categories_sizes":[],"default_left":[0,0,0,0,0,0,0,0,0,0,0,0,0,0,0],"id":49,"left_children":[1,3,5,7,9,11,13,-1,-1,-1,-1,-1,-1,-1,-1],"loss_changes":[1.5577083E1,9.780642E0,1.2250125E1,9.723345E0,9.985355E0,1.740107E1,8.324381E0,0E0,0E0,0E0,0E0,0E0,0E0,0E0,0E0],"parents":[2147483647,0,0,1,1,2,2,3,3,4,4,5,5,6,6],"right_children":[2,4,6,8,10,12,14,-1,-1,-1,-1,-1,-1,-1,-1],"split_conditions":[-3.0399986E1,5.2736644E-2,3.376035E0,1.4109761E3,1.01076085E-2,-7.865818E-2,5.1814434E1,1.3146174E-2,-6.1448133E-3,-3.755884E-2,9.174952E-3,5.5160765E-3,-1.482503E-2,2.2504416E-3,1.6919129E-2],"split_indices":[2,8,16,1,7,21,15,0,0,0,0,0,0,0,0],"split_type":[0,0,0,0,0,0,0,0,0,0,0,0,0,0,0],"sum_hessian":[1.5811029E3,7.1185547E2,8.6924744E2,6.532237E2,5.863176E1,4.7412216E2,3.9512527E2,7.3266464E1,5.799573E2,4.3217903E1,1.5413855E1,3.1791278E2,1.562094E2,1.6723914E2,2.2788615E2],"tree_param":{"num_deleted":"0","num_feature":"24","num_nodes":"15","size_leaf_vector":"1"}},{"base_weights":[-1.0132353E-2,9.6105985E-2,-8.9839056E-2,1.5745024E-1,-9.2191994E-2,-3.950226E-2,-7.7223554E-2,9.977271E-3,-1.4353322E-2,5.799157E-3,-2.2870757E-2,-1.5607196E-3,-1.4104772E-2],"categories":[],"categories_nodes":[],"categories_segments":[],"categories_sizes":[],"default_left":[0,0,0,0,0,0,0,0,0,0,0,0,0],"id":50,"left_children":[1,3,5,7,9,-1,11,-1,-1,-1,-1,-1,-1],"loss_changes":[1.331198E1,7.7843575E0,7.9349804E0,9.603717E0,1.2632453E1,0E0,8.32303E0,0E0,0E0,0E0,0E0,0E0,0E0],"parents":[2147483647,0,0,1,1,2,2,3,3,4,4,6,6],"right_children":[2,4,6,8,10,-1,12,-1,-1,-1,-1,-1,-1],"split_conditions":[1.5022178E3,2.2570279E2,-9.237877E-2,3.0452572E-2,1.8210016E-2,-3.950226E-2,1.4888975E-1,9.977271E-3,-1.4353322E-2,5.799157E-3,-2.2870757E-2,-1.5607196E-3,-1.4104772E-2],"split_indices":[1,18,8,7,8,0,20,0,0,0,0,0,0],"split_type":[0,0,0,0,0,0,0,0,0,0,0,0,0],"sum_hessian":[1.5720153E3,6.737633E2,8.9825195E2,5.0827063E2,1.6549266E2,1.5815987E1,8.82436E2,4.6405182E2,4.421882E1,1.0543877E2,6.00539E1,7.2118475E2,1.6125124E2],"tree_param":{"num_deleted":"0","num_feature":"24","num_nodes":"13","size_leaf_vector":"1"}},{"base_weights":[-1.9285578E-2,5.7839465E-1,-3.1040214E-2,4.426047E-2,1.499734E-2,1.5263915E-1,-7.5568005E-2,1.3354133E-2,-3.723709E-3,-7.0404094E-3,1.2156462E-3],"categories":[],"categories_nodes":[],"categories_segments":[],"categories_sizes":[],"default_left":[0,0,0,0,0,0,0,0,0,0,0],"id":51,"left_children":[1,3,5,-1,-1,7,9,-1,-1,-1,-1],"loss_changes":[1.1088431E1,2.5826836E0,1.2669164E1,0E0,0E0,7.8962483E0,8.162828E0,0E0,0E0,0E0,0E0],"parents":[2147483647,0,0,1,1,2,2,5,5,6,6],"right_children":[2,4,6,-1,-1,8,10,-1,-1,-1,-1],"split_conditions":[-1.2881533E1,-1.2265697E1,1.4411595E3,4.426047E-2,1.499734E-2,1.2043774E0,4.0441018E3,1.3354133E-2,-3.723709E-3,-7.0404094E-3,1.2156462E-3],"split_indices":[11,10,1,0,0,6,23,0,0,0,0],"split_type":[0,0,0,0,0,0,0,0,0,0,0],"sum_hessian":[1.5795348E3,3.0415972E1,1.5491188E3,1.4363287E1,1.6052685E1,3.0217917E2,1.2469397E3,2.0073264E2,1.0144655E2,7.5333453E2,4.936051E2],"tree_param":{"num_deleted":"0","num_feature":"24","num_nodes":"11","size_leaf_vector":"1"}},{"base_weights":[-2.025135E-2,1.9117194E-1,-5.4901954E-2,-2.0466742E-1,2.8056675E-1,-1.5482995E-1,2.7154543E-2,-2.6177503E-2,1.2928768E-2,2.1413269E-2,2.3070785E-4,4.8894016E-3,-1.095778E-2,-7.976705E-3,4.8751407E-3],"categories":[],"categories_nodes":[],"categories_segments":[],"categories_sizes":[],"default_left":[0,0,0,0,0,0,0,0,0,0,0,0,0,0,0],"id":52,"left_children":[1,3,5,7,9,11,13,-1,-1,-1,-1,-1,-1,-1,-1],"loss_changes":[1.1562446E1,7.86615E0,1.1124123E1,6.0762777E0,7.4215784E0,1.0010403E1,9.819417E0,0E0,0E0,0E0,0E0,0E0,0E0,0E0,0E0],"parents":[2147483647,0,0,1,1,2,2,3,3,4,4,5,5,6,6],"right_children":[2,4,6,8,10,12,14,-1,-1,-1,-1,-1,-1,-1,-1],"split_conditions":[1.4248983E3,-4.887596E0,-3.0399986E1,7.8414636E0,1.1798123E2,1.559844E0,-1.4744977E-2,-2.6177503E-2,1.2928768E-2,2.1413269E-2,2.3070785E-4,4.8894016E-3,-1.095778E-2,-7.976705E-3,4.8751407E-3],"split_indices":[1,9,2,17,18,16,7,0,0,0,0,0,0,0,0],"split_type":[0,0,0,0,0,0,0,0,0,0,0,0,0,0,0],"sum_hessian":[1.5785424E3,2.2219708E2,1.3563453E3,4.089512E1,1.8130197E2,6.116567E2,7.4468866E2,2.4221973E1,1.6673143E1,1.1782954E2,6.3472427E1,1.24622665E2,4.87034E2,2.0388164E2,5.40807E2],"tree_param":{"num_deleted":"0","num_feature":"24","num_nodes":"15","size_leaf_vector":"1"}},{"base_weights":[1.5684457E-2,1.4274535E-1,-3.3240627E-2,-3.7617925E-1,1.7955114E-1,-2.8306985E-1,-8.666149E-3,-4.010402E-2,4.0470464E-3,1.0475465E-2,-2.0636734E-2,-2.758887E-2,-5.8957366E-3,-1.7718416E-2,4.2620834E-4],"categories":[],"categories_nodes":[],"categories_segments":[],"categories_sizes":[],"default_left":[0,0,0,0,0,0,0,0,0,0,0,0,0,0,0],"id":53,"left_children":[1,3,5,7,9,11,13,-1,-1,-1,-1,-1,-1,-1,-1],"loss_changes":[9.930246E0,8.480394E0,7.0739017E0,5.7569003E0,7.459941E0,4.5779657E0,6.261989E0,0E0,0E0,0E0,0E0,0E0,0E0,0E0,0E0],"parents":[2147483647,0,0,1,1,2,2,3,3,4,4,5,5,6,6],"right_children":[2,4,6,8,10,12,14,-1,-1,-1,-1,-1,-1,-1,-1],"split_conditions":[-2.1880891E0,-3.058989E2,-4.920311E-2,4.0347728E-1,1.1632578E3,2.4978083E1,2.011339E1,-4.010402E-2,4.0470464E-3,1.0475465E-2,-2.0636734E-2,-2.758887E-2,-5.8957366E-3,-1.7718416E-2,4.2620834E-4],"split_indices":[6,2,4,9,18,14,14,0,0,0,0,0,0,0,0],"split_type":[0,0,0,0,0,0,0,0,0,0,0,0,0,0,0],"sum_hessian":[1.5970724E3,4.4407794E2,1.1529945E3,2.9366308E1,4.1471164E2,1.03173775E2,1.0498207E3,1.5189414E1,1.4176894E1,3.9457108E2,2.0140556E1,3.909308E1,6.40807E1,4.970924E1,1.00011145E3],"tree_param":{"num_deleted":"0","num_feature":"24","num_nodes":"15","size_leaf_vector":"1"}},{"base_weights":[1.959048E-2,1.0114548E-1,-1.1867467E-1,-6.4322144E-2,1.6814291E-1,-2.2530407E-1,-5.985154E-3,7.976007E-4,-4.497759E-2,2.6377525E-2,6.5083415E-3,-1.2960659E-2,1.8634537E-2,5.6743645E-3,-1.3307202E-2],"categories":[],"categories_nodes":[],"categories_segments":[],"categories_sizes":[],"default_left":[0,0,0,0,0,0,0,0,0,0,0,0,0,0,0],"id":54,"left_children":[1,3,5,7,9,11,13,-1,-1,-1,-1,-1,-1,-1,-1],"loss_changes":[1.7684406E1,1.0938621E1,6.9867992E0,1.911858E1,9.538668E0,6.150938E0,8.829418E0,0E0,0E0,0E0,0E0,0E0,0E0,0E0,0E0],"parents":[2147483647,0,0,1,1,2,2,3,3,4,4,5,5,6,6],"right_children":[2,4,6,8,10,12,14,-1,-1,-1,-1,-1,-1,-1,-1],"split_conditions":[1.534541E3,-2.0484589E-2,3.999108E-2,7.5359807E0,-2.1850476E2,7.385877E-2,3.6605566E0,7.976007E-4,-4.497759E-2,2.6377525E-2,6.5083415E-3,-1.2960659E-2,1.8634537E-2,5.6743645E-3,-1.3307202E-2],"split_indices":[1,5,4,16,3,19,22,0,0,0,0,0,0,0,0],"split_type":[0,0,0,0,0,0,0,0,0,0,0,0,0,0,0],"sum_hessian":[1.5682697E3,9.865098E2,5.817598E2,2.842443E2,7.022655E2,2.9882846E2,2.8293134E2,2.5935986E2,2.4884436E1,6.650495E1,6.3576056E2,2.8264005E2,1.6188437E1,1.9386403E2,8.9067314E1],"tree_param":{"num_deleted":"0","num_feature":"24","num_nodes":"15","size_leaf_vector":"1"}},{"base_weights":[2.0021088E-2,-6.1226584E-2,8.329306E-2,8.3222285E-2,-2.2865428E-1,2.1523975E-1,1.0965989E-2,-1.6570727E-3,1.672498E-2,2.6514896E-3,-1.7185915E-2,1.4805757E-2,-7.1847695E-3,7.176852E-3,-5.739801E-3],"categories":[],"categories_nodes":[],"categories_segments":[],"categories_sizes":[],"default_left":[0,0,0,0,0,0,0,0,0,0,0,0,0,0,0],"id":55,"left_children":[1,3,5,7,9,11,13,-1,-1,-1,-1,-1,-1,-1,-1],"loss_changes":[8.131273E0,1.6747374E1,8.483158E0,1.0903902E1,1.0460457E1,9.208873E0,9.6144495E0,0E0,0E0,0E0,0E0,0E0,0E0,0E0,0E0],"parents":[2147483647,0,0,1,1,2,2,3,3,4,4,5,5,6,6],"right_children":[2,4,6,8,10,12,14,-1,-1,-1,-1,-1,-1,-1,-1],"split_conditions":[-3.5254955E1,3.376035E0,-1.3835877E0,1.5355425E-2,-1.9162007E-2,1.9474583E-2,-2.0985584E0,-1.6570727E-3,1.672498E-2,2.6514896E-3,-1.7185915E-2,1.4805757E-2,-7.1847695E-3,7.176852E-3,-5.739801E-3],"split_indices":[2,16,6,5,5,7,3,0,0,0,0,0,0,0,0],"split_type":[0,0,0,0,0,0,0,0,0,0,0,0,0,0,0],"sum_hessian":[1.5816246E3,6.923331E2,8.892915E2,3.7162436E2,3.2070877E2,3.1477185E2,5.7451965E2,2.5411998E2,1.1750439E2,9.3305916E1,2.2740286E2,2.566533E2,5.811858E1,2.7970773E2,2.9481195E2],"tree_param":{"num_deleted":"0","num_feature":"24","num_nodes":"15","size_leaf_vector":"1"}},{"base_weights":[4.146414E-3,-8.9908995E-2,5.9260506E-2,-3.76875E-2,-4.7697732E-1,7.304281E-2,-3.5752636E-1,-6.801464E-3,5.016559E-3,-5.2471636E-3,-4.264598E-2,2.8804677E-2,3.014526E-3,7.4455286E-3,-3.9254926E-2],"categories":[],"categories_nodes":[],"categories_segments":[],"categories_sizes":[],"default_left":[0,0,0,0,0,0,0,0,0,0,0,0,0,0,0],"id":56,"left_children":[1,3,5,7,9,11,13,-1,-1,-1,-1,-1,-1,-1,-1],"loss_changes":[8.202165E0,1.1806236E1,5.727722E0,7.01917E0,9.729664E0,6.144926E0,6.9488397E0,0E0,0E0,0E0,0E0,0E0,0E0,0E0,0E0],"parents":[2147483647,0,0,1,1,2,2,3,3,4,4,5,5,6,6],"right_children":[2,4,6,8,10,12,14,-1,-1,-1,-1,-1,-1,-1,-1],"split_conditions":[1.2605231E1,1.6164049E3,7.973923E-2,2.2209374E-2,2.355398E0,1.3370293E3,1.4937814E1,-6.801464E-3,5.016559E-3,-5.2471636E-3,-4.264598E-2,2.8804677E-2,3.014526E-3,7.4455286E-3,-3.9254926E-2],"split_indices":[13,0,8,20,3,1,13,0,0,0,0,0,0,0,0],"split_type":[0,0,0,0,0,0,0,0,0,0,0,0,0,0,0],"sum_hessian":[1.5823264E3,5.845085E2,9.9781793E2,5.150851E2,6.942337E1,9.6593634E2,3.1881584E1,3.0069833E2,2.1438675E2,3.5010635E1,3.441274E1,2.3575878E1,9.423605E2,1.4605946E1,1.7275639E1],"tree_param":{"num_deleted":"0","num_feature":"24","num_nodes":"15","size_leaf_vector":"1"}},{"base_weights":[2.3569101E-3,1.0585872E-1,-7.56478E-2,8.655405E-2,4.214719E-2,3.4522608E-2,-9.5754586E-2,-2.5247693E-2,5.317271E-3,1.497433E-2,-6.481948E-3],"categories":[],"categories_nodes":[],"categories_segments":[],"categories_sizes":[],"default_left":[0,0,0,0,0,0,0,0,0,0,0],"id":57,"left_children":[1,3,5,7,-1,-1,9,-1,-1,-1,-1],"loss_changes":[1.2659468E1,9.591941E0,1.3785055E1,7.770349E0,0E0,0E0,1.1762576E1,0E0,0E0,0E0,0E0],"parents":[2147483647,0,0,1,1,2,2,3,3,6,6],"right_children":[2,4,6,8,-1,-1,10,-1,-1,-1,-1],"split_conditions":[-7.187713E-3,-8.547482E-3,-1.2354855E1,-5.2329402E-2,4.214719E-2,3.4522608E-2,1.3849683E3,-2.5247693E-2,5.317271E-3,1.497433E-2,-6.481948E-3],"split_indices":[19,19,11,5,0,0,1,0,0,0,0],"split_type":[0,0,0,0,0,0,0,0,0,0,0],"sum_hessian":[1.5678918E3,6.739102E2,8.939816E2,6.567933E2,1.7116972E1,2.2785206E1,8.711964E2,2.1385584E1,6.3540765E2,6.908752E1,8.021089E2],"tree_param":{"num_deleted":"0","num_feature":"24","num_nodes":"11","size_leaf_vector":"1"}},{"base_weights":[-2.0692524E-2,-6.577127E-2,1.13396406E-1,-1.7249486E-1,-1.6666346E-3,3.5334337E-1,7.5643864E-3,-1.4685438E-3,-2.1155205E-2,-1.7863363E-2,1.1592673E-3,3.0986432E-3,3.252224E-2,-2.0346606E-2,3.377215E-3],"categories":[],"categories_nodes":[],"categories_segments":[],"categories_sizes":[],"default_left":[0,0,0,0,0,0,0,0,0,0,0,0,0,0,0],"id":58,"left_children":[1,3,5,7,9,11,13,-1,-1,-1,-1,-1,-1,-1,-1],"loss_changes":[9.376884E0,7.9411983E0,9.90384E0,1.5659549E1,6.4402957E0,1.0359379E1,6.755024E0,0E0,0E0,0E0,0E0,0E0,0E0,0E0,0E0],"parents":[2147483647,0,0,1,1,2,2,3,3,4,4,5,5,6,6],"right_children":[2,4,6,8,10,12,14,-1,-1,-1,-1,-1,-1,-1,-1],"split_conditions":[2.164197E0,-7.7520357E-3,-2.6990507E0,9.487804E0,2.0443365E1,-1.3121692E2,1.8780488E0,-1.4685438E-3,-2.1155205E-2,-1.7863363E-2,1.1592673E-3,3.0986432E-3,3.252224E-2,-2.0346606E-2,3.377215E-3],"split_indices":[10,7,9,17,14,23,17,0,0,0,0,0,0,0,0],"split_type":[0,0,0,0,0,0,0,0,0,0,0,0,0,0,0],"sum_hessian":[1.5513724E3,1.1611487E3,3.9022372E2,4.3561664E2,7.255321E2,1.1936948E2,2.7085425E2,2.7767145E2,1.5794519E2,4.7410908E1,6.7812115E2,6.0438267E1,5.893121E1,3.4194458E1,2.3665979E2],"tree_param":{"num_deleted":"0","num_feature":"24","num_nodes":"15","size_leaf_vector":"1"}},{"base_weights":[-5.10053E-3,-9.209434E-2,6.73589E-2,-1.1380214E-1,2.3549218E-2,-2.9793265E-1,9.9000245E-2,-3.4668527E-3,-1.687529E-2,-1.4259697E-4,-3.6501627E-2,-3.0128362E-2,5.598025E-3],"categories":[],"categories_nodes":[],"categories_segments":[],"categories_sizes":[],"default_left":[0,0,0,0,0,0,0,0,0,0,0,0,0],"id":59,"left_children":[1,3,5,7,-1,9,11,-1,-1,-1,-1,-1,-1],"loss_changes":[9.970143E0,8.794907E0,9.969693E0,6.8775263E0,0E0,8.778852E0,7.3374257E0,0E0,0E0,0E0,0E0,0E0,0E0],"parents":[2147483647,0,0,1,1,2,2,3,3,5,5,6,6],"right_children":[2,4,6,8,-1,10,12,-1,-1,-1,-1,-1,-1],"split_conditions":[-3.0399986E1,9.6378E0,-7.3483696E0,1.568115E3,2.3549218E-2,1.5085156E3,8.75748E0,-3.4668527E-3,-1.687529E-2,-1.4259697E-4,-3.6501627E-2,-3.0128362E-2,5.598025E-3],"split_indices":[2,9,9,1,0,0,13,0,0,0,0,0,0],"split_type":[0,0,0,0,0,0,0,0,0,0,0,0,0],"sum_hessian":[1.581565E3,7.188041E2,8.627608E2,6.922072E2,2.6596888E1,6.871629E1,7.940445E2,5.780504E2,1.1415677E2,4.092018E1,2.7796114E1,1.4557754E1,7.7948676E2],"tree_param":{"num_deleted":"0","num_feature":"24","num_nodes":"13","size_leaf_vector":"1"}},{"base_weights":[1.1232152E-2,1.302425E-1,-3.6032505E-2,3.635E-2,1.0934401E-1,-3.5828772E-1,-9.8465085E-3,-2.607483E-3,9.008598E-3,1.9072365E-2,-2.5740642E-2,6.5170852E-3,-3.5885354E-3],"categories":[],"categories_nodes":[],"categories_segments":[],"categories_sizes":[],"default_left":[0,0,0,0,0,0,0,0,0,0,0,0,0],"id":60,"left_children":[1,3,5,-1,7,9,11,-1,-1,-1,-1,-1,-1],"loss_changes":[8.958999E0,5.6429515E0,9.610987E0,0E0,5.0328655E0,9.986474E0,9.184494E0,0E0,0E0,0E0,0E0,0E0,0E0],"parents":[2147483647,0,0,1,1,2,2,4,4,5,5,6,6],"right_children":[2,4,6,-1,8,10,12,-1,-1,-1,-1,-1,-1],"split_conditions":[-2.1519928E0,-1.8460104E-1,-1.2593009E-1,3.635E-2,2.3958384E1,2.792683E0,-1.21919766E-1,-2.607483E-3,9.008598E-3,1.9072365E-2,-2.5740642E-2,6.5170852E-3,-3.5885354E-3],"split_indices":[6,21,4,0,14,17,21,0,0,0,0,0,0],"split_type":[0,0,0,0,0,0,0,0,0,0,0,0,0],"sum_hessian":[1.5923904E3,4.527357E2,1.1396547E3,1.5231514E1,4.3750418E2,8.5576195E1,1.0540785E3,1.3368289E2,3.038213E2,1.4982228E1,7.059396E1,3.2295523E2,7.311232E2],"tree_param":{"num_deleted":"0","num_feature":"24","num_nodes":"13","size_leaf_vector":"1"}},{"base_weights":[7.05685E-3,1.3355565E-1,-3.6633655E-2,3.7816468E-1,6.1750773E-2,4.2610046E-2,-1.0430267E-1,4.0481556E-3,2.7058396E-2,-1.4828592E-2,6.4587155E-3,6.8684043E-3,-9.578321E-3,-3.7389982E-2,-4.3566762E-3],"categories":[],"categories_nodes":[],"categories_segments":[],"categories_sizes":[],"default_left":[0,0,0,0,0,0,0,0,0,0,0,0,0,0,0],"id":61,"left_children":[1,3,5,7,9,11,13,-1,-1,-1,-1,-1,-1,-1,-1],"loss_changes":[8.664782E0,7.061566E0,6.2481995E0,4.4349556E0,7.5547357E0,1.1953578E1,6.8791013E0,0E0,0E0,0E0,0E0,0E0,0E0,0E0,0E0],"parents":[2147483647,0,0,1,1,2,2,3,3,4,4,5,5,6,6],"right_children":[2,4,6,8,10,12,14,-1,-1,-1,-1,-1,-1,-1,-1],"split_conditions":[-2.4386947E0,-1.2196783E2,-1.02921404E-1,-5.7490515E-3,-6.467937E1,2.0274509E-2,-1.0187422E1,4.0481556E-3,2.7058396E-2,-1.4828592E-2,6.4587155E-3,6.8684043E-3,-9.578321E-3,-3.7389982E-2,-4.3566762E-3],"split_indices":[6,3,21,7,3,8,9,0,0,0,0,0,0,0,0],"split_type":[0,0,0,0,0,0,0,0,0,0,0,0,0,0,0],"sum_hessian":[1.5674365E3,4.02474E2,1.1649625E3,9.125859E1,3.1121542E2,5.364794E2,6.2848315E2,3.2507847E1,5.8750744E1,4.931495E1,2.6190045E2,3.8186545E2,1.5461392E2,1.6102177E1,6.12381E2],"tree_param":{"num_deleted":"0","num_feature":"24","num_nodes":"15","size_leaf_vector":"1"}},{"base_weights":[-1.1161304E-2,-7.6767355E-2,8.5066974E-2,-2.3410302E-1,-1.0618802E-2,4.1126836E-2,6.576444E-2,2.5612323E-2,-1.3728393E-2,2.3408685E-2,-1.8837191E-3,4.2497194E-3,-3.0048877E-2],"categories":[],"categories_nodes":[],"categories_segments":[],"categories_sizes":[],"default_left":[0,0,0,0,0,0,0,0,0,0,0,0,0],"id":62,"left_children":[1,3,5,7,9,-1,11,-1,-1,-1,-1,-1,-1],"loss_changes":[9.906653E0,9.7079315E0,9.056144E0,8.451501E0,8.541348E0,0E0,8.017061E0,0E0,0E0,0E0,0E0,0E0,0E0],"parents":[2147483647,0,0,1,1,2,2,3,3,4,4,6,6],"right_children":[2,4,6,8,10,-1,12,-1,-1,-1,-1,-1,-1],"split_conditions":[5.120319E-2,-2.0933013E-2,-7.418922E2,-1.5477185E-1,-1.6352465E-2,4.1126836E-2,6.83432E-2,2.5612323E-2,-1.3728393E-2,2.3408685E-2,-1.8837191E-3,4.2497194E-3,-3.0048877E-2],"split_indices":[4,5,18,21,5,0,5,0,0,0,0,0,0],"split_type":[0,0,0,0,0,0,0,0,0,0,0,0,0],"sum_hessian":[1.569181E3,9.331572E2,6.3602386E2,2.761098E2,6.5704736E2,1.6143457E1,6.198804E2,1.431247E1,2.6179733E2,3.511349E1,6.219339E2,6.0244073E2,1.7439676E1],"tree_param":{"num_deleted":"0","num_feature":"24","num_nodes":"13","size_leaf_vector":"1"}},{"base_weights":[-7.742454E-3,-6.4232536E-2,8.139654E-2,-2.8813444E-2,-3.4317744E-1,1.05864145E-1,-3.073354E-2,-7.79176E-3,4.433224E-3,-5.5149037E-2,-8.616653E-3,-1.4283695E-3,1.0072336E-2],"categories":[],"categories_nodes":[],"categories_segments":[],"categories_sizes":[],"default_left":[0,0,0,0,0,0,0,0,0,0,0,0,0],"id":63,"left_children":[1,3,5,7,9,11,-1,-1,-1,-1,-1,-1,-1],"loss_changes":[7.8732944E0,9.450642E0,1.0337469E1,1.2722337E1,1.3977299E1,7.56307E0,0E0,0E0,0E0,0E0,0E0,0E0,0E0],"parents":[2147483647,0,0,1,1,2,2,3,3,4,4,5,5],"right_children":[2,4,6,8,10,12,-1,-1,-1,-1,-1,-1,-1],"split_conditions":[8.757585E-3,7.5359807E0,1.6212793E3,2.980225E0,1.1563395E1,-4.5662518E1,-3.073354E-2,-7.79176E-3,4.433224E-3,-5.5149037E-2,-8.616653E-3,-1.4283695E-3,1.0072336E-2],"split_indices":[5,16,1,16,13,2,0,0,0,0,0,0,0],"split_type":[0,0,0,0,0,0,0,0,0,0,0,0,0],"sum_hessian":[1.5635759E3,9.571783E2,6.063976E2,8.494107E2,1.0776758E2,5.858803E2,2.0517296E1,4.080118E2,4.413989E2,1.9669987E1,8.8097595E1,2.4388318E2,3.4199713E2],"tree_param":{"num_deleted":"0","num_feature":"24","num_nodes":"13","size_leaf_vector":"1"}},{"base_weights":[-2.7226653E-2,-2.8789112E-1,-1.52917E-3,-4.6480224E-1,-1.07219696E-1,-9.907519E-2,5.680303E-2,8.091894E-3,-3.08963E-2,-3.0781195E-2,1.2576524E-3,7.0194914E-3,-8.932348E-3,6.709255E-3,-3.7890226E-3],"categories":[],"categories_nodes":[],"categories_segments":[],"categories_sizes":[],"default_left":[0,0,0,0,0,0,0,0,0,0,0,0,0,0,0],"id":64,"left_children":[1,3,5,7,9,11,13,-1,-1,-1,-1,-1,-1,-1,-1],"loss_changes":[1.0552156E1,4.507843E0,8.164392E0,6.911911E0,4.73456E0,1.0286053E1,9.249827E0,0E0,0E0,0E0,0E0,0E0,0E0,0E0,0E0],"parents":[2147483647,0,0,1,1,2,2,3,3,4,4,5,5,6,6],"right_children":[2,4,6,8,10,12,14,-1,-1,-1,-1,-1,-1,-1,-1],"split_conditions":[-2.703637E-2,5.159681E1,1.2623671E1,1.4117777E3,-1.845402E2,1.4423472E3,1.756449E0,8.091894E-3,-3.08963E-2,-3.0781195E-2,1.2576524E-3,7.0194914E-3,-8.932348E-3,6.709255E-3,-3.7890226E-3],"split_indices":[4,15,13,0,2,0,11,0,0,0,0,0,0,0,0],"split_type":[0,0,0,0,0,0,0,0,0,0,0,0,0,0,0],"sum_hessian":[1.5760244E3,1.413484E2,1.434676E3,7.135146E1,6.999693E1,5.369811E2,8.9769495E2,1.4066333E1,5.728513E1,1.4447207E1,5.554973E1,1.3417328E2,4.028078E2,5.6649457E2,3.3120035E2],"tree_param":{"num_deleted":"0","num_feature":"24","num_nodes":"15","size_leaf_vector":"1"}},{"base_weights":[-6.8045533E-3,2.9388469E-2,-1.2477922E-1,-1.3232919E-2,2.027726E-1,-1.8889342E-1,1.2763414E-1,6.345868E-4,-1.819043E-2,1.2917368E-2,-1.3090134E-2,7.8026336E-3,-1.231577E-2,3.0158563E-2,-1.2062417E-2],"categories":[],"categories_nodes":[],"categories_segments":[],"categories_sizes":[],"default_left":[0,0,0,0,0,0,0,0,0,0,0,0,0,0,0],"id":65,"left_children":[1,3,5,7,9,11,13,-1,-1,-1,-1,-1,-1,-1,-1],"loss_changes":[6.729737E0,8.913202E0,5.9899497E0,8.825643E0,6.203846E0,5.89859E0,1.3196273E1,0E0,0E0,0E0,0E0,0E0,0E0,0E0,0E0],"parents":[2147483647,0,0,1,1,2,2,3,3,4,4,5,5,6,6],"right_children":[2,4,6,8,10,12,14,-1,-1,-1,-1,-1,-1,-1,-1],"split_conditions":[1.5542156E3,2.6386344E-1,1.5225078E-2,6.1722692E-2,1.3097561E1,-1.520436E-1,3.376035E0,6.345868E-4,-1.819043E-2,1.2917368E-2,-1.3090134E-2,7.8026336E-3,-1.231577E-2,3.0158563E-2,-1.2062417E-2],"split_indices":[1,4,7,8,17,21,16,0,0,0,0,0,0,0,0],"split_type":[0,0,0,0,0,0,0,0,0,0,0,0,0,0,0],"sum_hessian":[1.5756827E3,1.2056738E3,3.70009E2,9.677146E2,2.3795917E2,2.9511978E2,7.488923E1,9.0111884E2,6.6595764E1,2.1240921E2,2.5549967E1,4.2318783E1,2.5280098E2,3.2708027E1,4.2181202E1],"tree_param":{"num_deleted":"0","num_feature":"24","num_nodes":"15","size_leaf_vector":"1"}},{"base_weights":[7.6197865E-3,-3.800706E-2,1.9043091E-1,2.1308473E-1,-7.347044E-2,7.898139E-2,4.4425616E-1,4.9997933E-2,6.605498E-3,-5.408722E-3,5.7240585E-3,2.700075E-4,1.9661281E-2,2.9864952E-2,-2.4493067E-3],"categories":[],"categories_nodes":[],"categories_segments":[],"categories_sizes":[],"default_left":[0,0,0,0,0,0,0,0,0,0,0,0,0,0,0],"id":66,"left_children":[1,3,5,7,9,11,13,-1,-1,-1,-1,-1,-1,-1,-1],"loss_changes":[1.3183649E1,1.1258352E1,8.92125E0,9.9394655E0,7.2768717E0,5.078365E0,7.329933E0,0E0,0E0,0E0,0E0,0E0,0E0,0E0,0E0],"parents":[2147483647,0,0,1,1,2,2,3,3,4,4,5,5,6,6],"right_children":[2,4,6,8,10,12,14,-1,-1,-1,-1,-1,-1,-1,-1],"split_conditions":[2.6471463E-1,-4.2074585E0,1.2532829E2,-2.4654793E-2,3.298018E-2,1.3457438E-1,1.1085366E1,4.9997933E-2,6.605498E-3,-5.408722E-3,5.7240585E-3,2.700075E-4,1.9661281E-2,2.9864952E-2,-2.4493067E-3],"split_indices":[4,6,2,7,5,20,17,0,0,0,0,0,0,0,0],"split_type":[0,0,0,0,0,0,0,0,0,0,0,0,0,0,0],"sum_hessian":[1.5802141E3,1.264533E3,3.1568112E2,1.5642215E2,1.1081108E3,2.1943092E2,9.6250206E1,1.4481199E1,1.4194095E2,9.34821E2,1.7328983E2,1.7794226E2,4.148866E1,7.336061E1,2.2889595E1],"tree_param":{"num_deleted":"0","num_feature":"24","num_nodes":"15","size_leaf_vector":"1"}},{"base_weights":[-2.558342E-2,-4.200498E-1,-1.55347325E-2,-3.8934547E-2,5.1239287E-3,2.0588592E-1,-3.362886E-2,3.3875763E-2,5.510919E-3,-3.0488206E-2,-1.2934406E-3],"categories":[],"categories_nodes":[],"categories_segments":[],"categories_sizes":[],"default_left":[0,0,0,0,0,0,0,0,0,0,0],"id":67,"left_children":[1,3,5,-1,-1,7,9,-1,-1,-1,-1],"loss_changes":[6.2455654E0,7.380443E0,6.160691E0,0E0,0E0,5.228281E0,6.321415E0,0E0,0E0,0E0,0E0],"parents":[2147483647,0,0,1,1,2,2,5,5,6,6],"right_children":[2,4,6,-1,-1,8,10,-1,-1,-1,-1],"split_conditions":[3.4146342E-1,3.471466E1,-1.6599509E-1,-3.8934547E-2,5.1239287E-3,1.559844E0,-9.237877E-2,3.3875763E-2,5.510919E-3,-3.0488206E-2,-1.2934406E-3],"split_indices":[17,2,21,0,0,16,8,0,0,0,0],"split_type":[0,0,0,0,0,0,0,0,0,0,0],"sum_hessian":[1.5774867E3,3.9121155E1,1.5383656E3,2.3177107E1,1.5944046E1,1.1612683E2,1.4222388E3,1.9453348E1,9.6673485E1,1.870078E1,1.403538E3],"tree_param":{"num_deleted":"0","num_feature":"24","num_nodes":"11","size_leaf_vector":"1"}},{"base_weights":[6.4182556E-3,7.7760205E-2,-6.901726E-2,-2.2588591E-1,1.236913E-1,5.5482024E-3,-2.569373E-1,-9.28532E-4,-2.2789098E-2,2.9057474E-3,1.7891444E-2,2.558299E-3,-2.0161236E-2,-9.188772E-3,-3.9869532E-2],"categories":[],"categories_nodes":[],"categories_segments":[],"categories_sizes":[],"default_left":[0,0,0,0,0,0,0,0,0,0,0,0,0,0,0],"id":68,"left_children":[1,3,5,7,9,11,13,-1,-1,-1,-1,-1,-1,-1,-1],"loss_changes":[8.460285E0,1.126855E1,1.0709305E1,5.067322E0,1.0782406E1,1.023176E1,8.547649E0,0E0,0E0,0E0,0E0,0E0,0E0,0E0,0E0],"parents":[2147483647,0,0,1,1,2,2,3,3,4,4,5,5,6,6],"right_children":[2,4,6,8,10,12,14,-1,-1,-1,-1,-1,-1,-1,-1],"split_conditions":[7.5609756E0,2.2010868E1,1.5488823E3,3.817073E0,1.6476029E-1,7.5359807E0,4.0894523E-2,-9.28532E-4,-2.2789098E-2,2.9057474E-3,1.7891444E-2,2.558299E-3,-2.0161236E-2,-9.188772E-3,-3.9869532E-2],"split_indices":[17,14,1,17,4,16,5,0,0,0,0,0,0,0,0],"split_type":[0,0,0,0,0,0,0,0,0,0,0,0,0,0,0],"sum_hessian":[1.5719672E3,8.0801855E2,7.639486E2,1.0610554E2,7.01913E2,5.468826E2,2.1706593E2,5.594357E1,5.016197E1,5.4893835E2,1.5297464E2,4.9202295E2,5.485972E1,1.914043E2,2.5661634E1],"tree_param":{"num_deleted":"0","num_feature":"24","num_nodes":"15","size_leaf_vector":"1"}},{"base_weights":[-5.4207037E-4,-1.9629958E-1,2.8559953E-2,-2.5250077E-2,-3.2411164E-1,-2.2128475E-1,5.219922E-2,-7.5523565E-3,2.6079774E-2,8.7731E-3,-2.065249E-2,1.899981E-2,-1.6031392E-2,2.1886046E-3,3.0105809E-2],"categories":[],"categories_nodes":[],"categories_segments":[],"categories_sizes":[],"default_left":[0,0,0,0,0,0,0,0,0,0,0,0,0,0,0],"id":69,"left_children":[1,3,5,7,9,11,13,-1,-1,-1,-1,-1,-1,-1,-1],"loss_changes":[8.906891E0,4.4179096E0,8.033331E0,5.9777756E0,5.195442E0,7.072517E0,5.7064104E0,0E0,0E0,0E0,0E0,0E0,0E0,0E0,0E0],"parents":[2147483647,0,0,1,1,2,2,3,3,4,4,5,5,6,6],"right_children":[2,4,6,8,10,12,14,-1,-1,-1,-1,-1,-1,-1,-1],"split_conditions":[1.0738414E1,-2.1581763E-1,-9.332715E-2,-1.0432689E0,-1.7792926E2,1.4026927E3,6.514889E-1,-7.5523565E-3,2.6079774E-2,8.7731E-3,-2.065249E-2,1.899981E-2,-1.6031392E-2,2.1886046E-3,3.0105809E-2],"split_indices":[13,6,4,6,3,0,20,0,0,0,0,0,0,0,0],"split_type":[0,0,0,0,0,0,0,0,0,0,0,0,0,0,0],"sum_hessian":[1.5629097E3,2.0233376E2,1.3605759E3,8.6599144E1,1.1573461E2,1.1752606E2,1.2430499E3,7.043655E1,1.61626E1,1.7573164E1,9.8161446E1,1.6697727E1,1.0082833E2,1.2245533E3,1.8496561E1],"tree_param":{"num_deleted":"0","num_feature":"24","num_nodes":"15","size_leaf_vector":"1"}},{"base_weights":[-1.7871785E-3,9.942079E-2,-5.602948E-2,1.0423741E-2,2.8656575E-1,-4.2956933E-2,-3.0457273E-2,-3.859172E-3,1.5097447E-2,3.8104735E-2,1.0376795E-2,-3.2571773E-3,1.30426595E-2],"categories":[],"categories_nodes":[],"categories_segments":[],"categories_sizes":[],"default_left":[0,0,0,0,0,0,0,0,0,0,0,0,0],"id":70,"left_children":[1,3,5,7,9,11,-1,-1,-1,-1,-1,-1,-1],"loss_changes":[8.677997E0,9.180766E0,7.4461985E0,9.585715E0,6.6451225E0,6.8225965E0,0E0,0E0,0E0,0E0,0E0,0E0,0E0],"parents":[2147483647,0,0,1,1,2,2,3,3,4,4,5,5],"right_children":[2,4,6,8,10,12,-1,-1,-1,-1,-1,-1,-1],"split_conditions":[-1.17126666E-1,-1.3271761E-1,1.6338907E3,1.5467894E4,2.2804878E0,9.861297E0,-3.0457273E-2,-3.859172E-3,1.5097447E-2,3.8104735E-2,1.0376795E-2,-3.2571773E-3,1.30426595E-2],"split_indices":[21,21,1,23,17,10,0,0,0,0,0,0,0],"split_type":[0,0,0,0,0,0,0,0,0,0,0,0,0],"sum_hessian":[1.5808475E3,5.5150055E2,1.0293469E3,3.7383688E2,1.7766368E2,1.0056815E3,2.3665472E1,2.8744107E2,8.6395836E1,2.509364E1,1.5257004E2,9.370671E2,6.861442E1],"tree_param":{"num_deleted":"0","num_feature":"24","num_nodes":"13","size_leaf_vector":"1"}},{"base_weights":[2.1713395E-2,8.211568E-2,-8.2673065E-2,-2.6916824E-2,9.785378E-2,-2.4959281E-1,-1.1902673E-2,4.129111E-2,4.2954865E-3,-1.847274E-2,5.2907662E-3,-7.771381E-3,4.507153E-3],"categories":[],"categories_nodes":[],"categories_segments":[],"categories_sizes":[],"default_left":[0,0,0,0,0,0,0,0,0,0,0,0,0],"id":71,"left_children":[1,3,5,-1,7,9,11,-1,-1,-1,-1,-1,-1],"loss_changes":[9.835209E0,9.658497E0,6.74852E0,0E0,8.271518E0,7.2973757E0,5.903444E0,0E0,0E0,0E0,0E0,0E0,0E0],"parents":[2147483647,0,0,1,1,2,2,4,4,5,5,6,6],"right_children":[2,4,6,-1,8,10,12,-1,-1,-1,-1,-1,-1],"split_conditions":[1.8036828E0,1.9210905E1,-2.0484589E-2,-2.6916824E-2,4.163372E1,5.532849E1,-3.1781595E1,4.129111E-2,4.2954865E-3,-1.847274E-2,5.2907662E-3,-7.771381E-3,4.507153E-3],"split_indices":[11,14,5,0,15,15,2,0,0,0,0,0,0],"split_type":[0,0,0,0,0,0,0,0,0,0,0,0,0],"sum_hessian":[1.5598137E3,9.88179E2,5.716347E2,2.4362362E1,9.6381665E2,1.7011113E2,4.0152356E2,1.5279768E1,9.4853687E2,1.27083046E2,4.3028076E1,1.668793E2,2.3464424E2],"tree_param":{"num_deleted":"0","num_feature":"24","num_nodes":"13","size_leaf_vector":"1"}},{"base_weights":[1.0007582E-2,2.2272354E-1,-1.5467465E-2,3.066554E-1,-1.7370984E-2,-5.2992318E-2,1.9030923E-1,2.1182237E-2,-3.576576E-3,1.5553563E-2,-3.2418943E-3,5.7785646E-3,4.5875285E-2],"categories":[],"categories_nodes":[],"categories_segments":[],"categories_sizes":[],"default_left":[0,0,0,0,0,0,0,0,0,0,0,0,0],"id":72,"left_children":[1,3,5,7,-1,9,11,-1,-1,-1,-1,-1,-1],"loss_changes":[8.540603E0,8.077099E0,1.0861362E1,6.554989E0,0E0,5.186843E0,1.1763304E1,0E0,0E0,0E0,0E0,0E0,0E0],"parents":[2147483647,0,0,1,1,2,2,3,3,5,5,6,6],"right_children":[2,4,6,8,-1,10,12,-1,-1,-1,-1,-1,-1],"split_conditions":[1.4109761E3,1.9625002E2,2.3628773E4,7.5359807E0,-1.7370984E-2,-1.8193717E-1,4.790003E-2,2.1182237E-2,-3.576576E-3,1.5553563E-2,-3.2418943E-3,5.7785646E-3,4.5875285E-2],"split_indices":[1,3,23,16,0,21,5,0,0,0,0,0,0],"split_type":[0,0,0,0,0,0,0,0,0,0,0,0,0],"sum_hessian":[1.5753806E3,1.6854129E2,1.4068394E3,1.4696983E2,2.1571447E1,1.189944E3,2.168954E2,1.12114655E2,3.4855186E1,3.773607E1,1.1522079E3,1.9682013E2,2.007527E1],"tree_param":{"num_deleted":"0","num_feature":"24","num_nodes":"13","size_leaf_vector":"1"}},{"base_weights":[9.50474E-3,6.565677E-2,-8.1691526E-2,1.9255227E-1,5.2061584E-4,7.897474E-2,-1.4178309E-1,4.133251E-3,2.4864146E-2,1.4506172E-3,-1.757614E-2,-1.1556336E-3,2.4883954E-2,-1.3210726E-2,2.6114383E-3],"categories":[],"categories_nodes":[],"categories_segments":[],"categories_sizes":[],"default_left":[0,0,0,0,0,0,0,0,0,0,0,0,0,0,0],"id":73,"left_children":[1,3,5,7,9,11,13,-1,-1,-1,-1,-1,-1,-1,-1],"loss_changes":[7.98108E0,7.970902E0,5.734689E0,1.096161E1,6.4137144E0,6.9328537E0,1.0316945E1,0E0,0E0,0E0,0E0,0E0,0E0,0E0,0E0],"parents":[2147483647,0,0,1,1,2,2,3,3,4,4,5,5,6,6],"right_children":[2,4,6,8,10,12,14,-1,-1,-1,-1,-1,-1,-1,-1],"split_conditions":[1.5350457E3,-1.1667665E-1,-1.2741024E4,-1.2883672E-1,7.5359807E0,1.5786966E-2,1.1526975E4,4.133251E-3,2.4864146E-2,1.4506172E-3,-1.757614E-2,-1.1556336E-3,2.4883954E-2,-1.3210726E-2,2.6114383E-3],"split_indices":[1,21,23,21,16,7,23,0,0,0,0,0,0,0,0],"split_type":[0,0,0,0,0,0,0,0,0,0,0,0,0,0,0],"sum_hessian":[1.5585483E3,9.6472925E2,5.9381903E2,3.2712784E2,6.3760144E2,1.6156276E2,4.3225626E2,2.4076494E2,8.636291E1,5.899252E2,4.7676258E1,1.2992268E2,3.1640076E1,2.6471558E2,1.675407E2],"tree_param":{"num_deleted":"0","num_feature":"24","num_nodes":"15","size_leaf_vector":"1"}},{"base_weights":[9.641296E-3,2.0115086E-1,-1.4463449E-2,3.2008752E-1,-1.6434975E-1,4.5695388E-1,-2.6314797E-2,-1.3335246E-2,2.058685E-2,8.48399E-3,-3.218472E-2,6.6263797E-3,4.1122492E-2,2.8498622E-3,-5.088158E-3],"categories":[],"categories_nodes":[],"categories_segments":[],"categories_sizes":[],"default_left":[0,0,0,0,0,0,0,0,0,0,0,0,0,0,0],"id":74,"left_children":[1,3,5,7,9,11,13,-1,-1,-1,-1,-1,-1,-1,-1],"loss_changes":[7.2753835E0,7.6633E0,7.8100467E0,7.2205105E0,6.9570465E0,4.0594397E0,8.611871E0,0E0,0E0,0E0,0E0,0E0,0E0,0E0,0E0],"parents":[2147483647,0,0,1,1,2,2,3,3,4,4,5,5,6,6],"right_children":[2,4,6,8,10,12,14,-1,-1,-1,-1,-1,-1,-1,-1],"split_conditions":[-4.40948E0,1.7623076E-2,-4.1635224E-1,-4.68284E-2,1.5007858E3,5.2991386E1,-9.037611E0,-1.3335246E-2,2.058685E-2,8.48399E-3,-3.218472E-2,6.6263797E-3,4.1122492E-2,2.8498622E-3,-5.088158E-3],"split_indices":[6,7,20,8,0,15,3,0,0,0,0,0,0,0,0],"split_type":[0,0,0,0,0,0,0,0,0,0,0,0,0,0,0],"sum_hessian":[1.5753054E3,1.7617078E2,1.3991346E3,1.3295514E2,4.3215637E1,3.4254696E1,1.36488E3,1.8042885E1,1.14912254E2,2.5472383E1,1.7743256E1,1.8229343E1,1.6025352E1,6.4894244E2,7.1593756E2],"tree_param":{"num_deleted":"0","num_feature":"24","num_nodes":"15","size_leaf_vector":"1"}},{"base_weights":[-2.6760932E-2,2.3792442E-2,-1.0724122E-1,9.590803E-2,-1.0938044E-1,-8.780701E-2,-2.8144484E-2,3.4112765E-3,3.1540442E-2,-7.1169888E-3,3.0567177E-2,-3.2990504E-2,-3.6143917E-3],"categories":[],"categories_nodes":[],"categories_segments":[],"categories_sizes":[],"default_left":[0,0,0,0,0,0,0,0,0,0,0,0,0],"id":75,"left_children":[1,3,5,7,9,11,-1,-1,-1,-1,-1,-1,-1],"loss_changes":[6.435854E0,9.327639E0,5.4040546E0,9.296287E0,8.172918E0,5.1504364E0,0E0,0E0,0E0,0E0,0E0,0E0,0E0],"parents":[2147483647,0,0,1,1,2,2,3,3,4,4,5,5],"right_children":[2,4,6,8,10,12,-1,-1,-1,-1,-1,-1,-1],"split_conditions":[1.533177E3,2.004153E0,6.147108E-2,6.0087513E-2,4.4991785E-1,1.3398939E3,-2.8144484E-2,3.4112765E-3,3.1540442E-2,-7.1169888E-3,3.0567177E-2,-3.2990504E-2,-3.6143917E-3],"split_indices":[1,11,5,5,20,0,0,0,0,0,0,0,0],"split_type":[0,0,0,0,0,0,0,0,0,0,0,0,0],"sum_hessian":[1.5814708E3,9.7121423E2,6.102566E2,6.3012354E2,3.4109067E2,5.854086E2,2.484793E1,5.993667E2,3.0756878E1,3.261257E2,1.496495E1,1.5250937E1,5.701577E2],"tree_param":{"num_deleted":"0","num_feature":"24","num_nodes":"13","size_leaf_vector":"1"}},{"base_weights":[1.7803181E-3,4.610421E-1,-8.503246E-3,-6.2763216E-3,4.3120388E-2,-3.449372E-2,1.4816587E-1,-2.2584427E-2,-1.022616E-3,-8.0137857E-4,1.5894921E-2],"categories":[],"categories_nodes":[],"categories_segments":[],"categories_sizes":[],"default_left":[0,0,0,0,0,0,0,0,0,0,0],"id":76,"left_children":[1,3,5,-1,-1,7,9,-1,-1,-1,-1],"loss_changes":[7.433211E0,8.164934E0,6.2600064E0,0E0,0E0,7.7138767E0,6.1225576E0,0E0,0E0,0E0,0E0],"parents":[2147483647,0,0,1,1,2,2,5,5,6,6],"right_children":[2,4,6,-1,-1,8,10,-1,-1,-1,-1],"split_conditions":[-7.418922E2,-3.4300631E-3,3.5250542E-1,-6.2763216E-3,4.3120388E-2,4.6341464E-1,2.6777925E1,-2.2584427E-2,-1.022616E-3,-8.0137857E-4,1.5894921E-2],"split_indices":[18,8,4,0,0,17,2,0,0,0,0],"split_type":[0,0,0,0,0,0,0,0,0,0,0],"sum_hessian":[1.5722281E3,3.444651E1,1.5377817E3,1.4013155E1,2.0433355E1,1.3190801E3,2.187016E2,4.2697014E1,1.276383E3,1.1130034E2,1.0740127E2],"tree_param":{"num_deleted":"0","num_feature":"24","num_nodes":"11","size_leaf_vector":"1"}},{"base_weights":[-1.2246196E-2,-3.9424293E-2,1.3570604E-1,1.2349478E-1,-8.492567E-2,-2.5944975E-1,2.4774449E-1,-2.7172541E-2,8.836449E-3,-1.0524549E-2,-7.638861E-5,1.4755252E-2,-3.0091042E-2,6.837792E-3,3.1884823E-2],"categories":[],"categories_nodes":[],"categories_segments":[],"categories_sizes":[],"default_left":[0,0,0,0,0,0,0,0,0,0,0,0,0,0,0],"id":77,"left_children":[1,3,5,7,9,11,13,-1,-1,-1,-1,-1,-1,-1,-1],"loss_changes":[6.2703547E0,9.768581E0,1.0713696E1,1.0284463E1,1.0816926E1,1.0195391E1,8.151656E0,0E0,0E0,0E0,0E0,0E0,0E0,0E0,0E0],"parents":[2147483647,0,0,1,1,2,2,3,3,4,4,5,5,6,6],"right_children":[2,4,6,8,10,12,14,-1,-1,-1,-1,-1,-1,-1,-1],"split_conditions":[2.3628773E4,-4.5611916E0,-3.45161E0,-7.3483696E0,-4.5662518E1,-6.4277328E-3,1.1317073E1,-2.7172541E-2,8.836449E-3,-1.0524549E-2,-7.638861E-5,1.4755252E-2,-3.0091042E-2,6.837792E-3,3.1884823E-2],"split_indices":[23,11,10,9,2,8,17,0,0,0,0,0,0,0,0],"split_type":[0,0,0,0,0,0,0,0,0,0,0,0,0,0,0],"sum_hessian":[1.5597258E3,1.3177861E3,2.4193968E2,2.876033E2,1.0301829E3,5.3404037E1,1.8853564E2,2.1308443E1,2.6629486E2,4.1029974E2,6.1988306E2,2.0395582E1,3.3008457E1,1.4699025E2,4.15454E1],"tree_param":{"num_deleted":"0","num_feature":"24","num_nodes":"15","size_leaf_vector":"1"}},{"base_weights":[-1.55198565E-2,-2.4102498E-2,2.8565941E-2,-2.4225782E-1,-5.088997E-3,-3.742659E-3,-3.761583E-2,1.948054E-3,-6.2070354E-3],"categories":[],"categories_nodes":[],"categories_segments":[],"categories_sizes":[],"default_left":[0,0,0,0,0,0,0,0,0],"id":78,"left_children":[1,3,-1,5,7,-1,-1,-1,-1],"loss_changes":[7.8815937E0,6.389458E0,0E0,1.0549643E1,7.4634724E0,0E0,0E0,0E0,0E0],"parents":[2147483647,0,0,1,1,3,3,4,4],"right_children":[2,4,-1,6,8,-1,-1,-1,-1],"split_conditions":[6.514889E-1,-2.9991657E-2,2.8565941E-2,1.1256098E1,5.5746117E1,-3.742659E-3,-3.761583E-2,1.948054E-3,-6.2070354E-3],"split_indices":[20,7,0,17,15,0,0,0,0],"split_type":[0,0,0,0,0,0,0,0,0],"sum_hessian":[1.5638477E3,1.5413954E3,2.245224E1,1.2347826E2,1.4179171E3,9.3091095E1,3.0387161E1,1.0349586E3,3.8295862E2],"tree_param":{"num_deleted":"0","num_feature":"24","num_nodes":"9","size_leaf_vector":"1"}},{"base_weights":[-1.4971198E-3,5.749254E-1,-1.4172799E-2,7.165732E-3,5.3652108E-2,-3.0127702E-2,3.6084962E-1,-6.5767663E-3,1.3121469E-3,2.9379489E-2,5.523274E-3],"categories":[],"categories_nodes":[],"categories_segments":[],"categories_sizes":[],"default_left":[0,0,0,0,0,0,0,0,0,0,0],"id":79,"left_children":[1,3,5,-1,-1,7,9,-1,-1,-1,-1],"loss_changes":[1.142087E1,7.2303724E0,9.153893E0,0E0,0E0,8.422312E0,3.5444698E0,0E0,0E0,0E0,0E0],"parents":[2147483647,0,0,1,1,2,2,5,5,6,6],"right_children":[2,4,6,-1,-1,8,10,-1,-1,-1,-1],"split_conditions":[-7.418922E2,1.5593558E3,6.0306707E4,7.165732E-3,5.3652108E-2,1.2506382E1,1.5107277E3,-6.5767663E-3,1.3121469E-3,2.9379489E-2,5.523274E-3],"split_indices":[18,0,23,0,0,13,1,0,0,0,0],"split_type":[0,0,0,0,0,0,0,0,0,0,0],"sum_hessian":[1.5643411E3,3.3608803E1,1.5307323E3,1.8078436E1,1.5530368E1,1.4683306E3,6.2401726E1,5.241912E2,9.4413934E2,3.260991E1,2.9791817E1],"tree_param":{"num_deleted":"0","num_feature":"24","num_nodes":"11","size_leaf_vector":"1"}},{"base_weights":[1.7769255E-2,1.1859852E-1,-3.7088435E-2,6.149708E-1,6.535998E-2,1.5046564E-1,-6.964721E-2,3.903087E-2,9.076338E-3,6.003671E-3,-8.251902E-3,1.651606E-2,-7.976974E-3,-4.5417254E-3,1.55530665E-2],"categories":[],"categories_nodes":[],"categories_segments":[],"categories_sizes":[],"default_left":[0,0,0,0,0,0,0,0,0,0,0,0,0,0,0],"id":80,"left_children":[1,3,5,7,9,11,13,-1,-1,-1,-1,-1,-1,-1,-1],"loss_changes":[8.712154E0,1.4654417E1,6.2264605E0,3.8679085E0,6.3523817E0,8.44686E0,7.0716896E0,0E0,0E0,0E0,0E0,0E0,0E0,0E0,0E0],"parents":[2147483647,0,0,1,1,2,2,3,3,4,4,5,5,6,6],"right_children":[2,4,6,8,10,12,14,-1,-1,-1,-1,-1,-1,-1,-1],"split_conditions":[-1.17126666E-1,-7.7755094E0,1.407425E3,1.5510613E3,3.0954396E-2,2.7515049E1,5.6229492E4,3.903087E-2,9.076338E-3,6.003671E-3,-8.251902E-3,1.651606E-2,-7.976974E-3,-4.5417254E-3,1.55530665E-2],"split_indices":[21,11,0,0,8,14,23,0,0,0,0,0,0,0,0],"split_type":[0,0,0,0,0,0,0,0,0,0,0,0,0,0,0],"sum_hessian":[1.5747853E3,5.54988E2,1.01979736E3,5.3704475E1,5.0128348E2,1.507578E2,8.6903955E2,3.8714123E1,1.4990354E1,4.0494714E2,9.633634E1,9.535588E1,5.5401924E1,8.2301263E2,4.602692E1],"tree_param":{"num_deleted":"0","num_feature":"24","num_nodes":"15",